0.0926331,-0.0609659,-0.363787,0.63301,-0.165521,0.236393,-0.627672,-0.157733,0.140081,0.22551,-0.68879,-0.645579,0.807116,0.458726,-0.0958432,0.567721,-0.91313,0.480947,0.513959,0.798276,0.181749,-0.0199371,-0.487212,0.827746,0.106883,-0.576067,0.766737,-0.454354,0.317025,-0.896251,-0.898278,-0.822022,-0.379928,0.915881,-0.372628,-0.37336,0.344813,-0.775854,-0.332524,-0.571427,-0.593291,0.794284,0.236333,-0.361811,-0.812731,-0.915314,0.368001,-0.484397,0.653346,0.725719,0.234262,-0.82898,0.892605,0.347012,-0.364044,0.38996,-0.984106,-0.985583,-0.698895,0.042854,-0.793739,-0.293571,-0.875707,-0.483151,-0.365058,-0.255498,-0.372332,0.451973,0.203364,-0.863992,-0.644929,-0.0626851,0.919147,-0.183927,0.0929571,0.0293688,-0.0293698,-0.289099,-0.673481,-0.511972,0.543735,0.372968,0.842581,0.987926,-0.976507,0.811427,-0.792989,-0.86946,-0.227315,0.545076,0.197368,-0.704328,-0.0770029,0.96203,0.659297,-0.534941,-0.355707,0.380995,0.93619,-0.997448,
0.998588,-0.529857,0.687002,0.847802,-0.0763923,0.46545,-0.604941,-0.304782,-0.992831,0.341492,0.0109247,-0.429412,-0.837598,0.0635794,0.136616,0.922994,-0.56021,0.851739,0.0553902,0.775522,-0.78606,0.0827759,0.636704,-0.0453017,-0.983064,-0.72093,-0.424477,-0.56768,-0.842152,0.0273638,-0.201775,0.696925,0.819052,0.325908,0.369803,0.953323,0.63028,-0.979796,-0.0413239,0.656422,-0.444485,0.483438,0.877742,0.542766,-0.180525,-0.180031,-0.42507,0.390827,0.72232,0.285419,-0.927594,0.141258,0.44265,0.755956,-0.349353,-0.691271,0.809801,-0.618276,-0.222456,-0.823646,0.472491,0.962757,-0.00639152,-0.673822,-0.533828,-0.541642,0.235957,-0.448478,0.985646,0.414044,-0.207455,-0.539372,0.886072,-0.049055,-0.51642,-0.939489,0.868584,-0.180344,-0.564258,-0.728005,-0.476197,0.703364,0.45944,-0.826548,0.360265,0.282232,-0.74935,-0.548598,-0.748941,0.814787,0.781879,0.487537,0.916335,-0.00374392,0.537288,0.168595,-0.235719,-0.906015,0.370801,0.602663,
-0.584671,-0.982668,0.892312,-0.0999783,0.572435,0.440108,-0.91554,-0.151286,0.674393,0.237708,-0.455329,0.865004,0.617943,-0.918763,0.581424,0.707329,0.106908,-0.379648,0.208603,-0.974765,-0.152817,-0.748132,0.979607,0.673249,0.849115,0.057814,0.103527,0.284557,0.834391,0.449043,-0.514721,0.376145,0.827109,0.000208372,-0.198256,-0.0378358,-0.362231,-0.647399,-0.15707,0.0653982,-0.681147,-0.883243,0.963612,0.780504,0.800604,0.183015,-0.333524,0.440484,0.354408,-0.822677,-0.488113,0.789336,-0.374511,-0.496585,0.961155,-0.240805,0.153331,-0.344101,0.81632,0.532153,-0.185094,0.989633,0.782245,-0.350361,0.332301,-0.755235,0.355039,0.716249,0.217758,0.464922,0.294147,0.113101,-0.772949,-0.589643,-0.673114,-0.267545,-0.650602,0.761267,-0.859742,0.288904,-0.22859,0.290068,-0.630039,-0.818252,-0.470219,0.310586,0.00603961,0.772032,0.932852,-0.0564903,0.679915,0.894871,0.768341,0.358192,0.820084,-0.894659,-0.171934,-0.891728,0.557448,-0.62022,
-0.297942,-0.256591,-0.439322,-0.846312,0.359239,-0.947379,0.808122,0.117963,-0.498147,0.600619,0.776366,-0.950869,0.0493256,-0.39237,-0.743613,0.39285,-0.318113,-0.809515,-0.508216,0.107915,0.343373,-0.801016,-0.515335,-0.932797,0.817297,-0.0611874,0.687665,-0.834858,0.979251,-0.971532,0.209822,-0.199518,0.993049,-0.835529,0.149113,-0.194352,0.943098,-0.125875,-0.776709,-0.164633,0.577208,0.0641168,0.0174789,-0.200186,0.118246,-0.260361,-0.756244,0.777639,-0.534127,-0.930891,0.877173,0.323036,-0.280068,0.0802415,0.262482,0.476755,0.693548,0.329358,0.0198327,-0.492505,-0.0624241,0.0346279,-0.583529,0.386334,0.371699,-0.817038,0.982576,-0.733361,0.153709,-0.306243,-0.386177,0.173103,0.214042,-0.717394,-0.53012,0.0787196,-0.334967,-0.784945,0.224034,0.4532,0.291442,-0.858307,0.479408,-0.778893,0.813784,0.725286,0.12781,-0.933057,0.540077,-0.562103,0.868966,0.432227,0.736492,-0.351487,-0.741152,0.0233098,0.570515,-0.387553,-0.280137,0.586498,
0.213918,0.782832,0.554028,-0.359486,0.110512,0.00695504,0.988924,-0.026165,0.761762,0.0884296,0.242263,-0.405085,-0.224681,-0.524184,-0.0278766,0.183437,-0.163059,0.289941,-0.904033,-0.292524,0.650654,-0.0134281,0.0669669,-0.724296,0.795392,0.695478,-0.500673,-0.114072,-0.824414,-0.543472,0.871708,-0.106608,0.549265,0.230417,0.542186,-0.859757,-0.614937,0.720996,0.598971,0.927875,0.463354,-0.978352,0.378781,0.826669,0.00314168,-0.187532,0.8682,0.506853,0.48626,0.364502,0.0891481,0.620298,0.659775,0.363714,-0.45438,-0.0735498,-0.659655,-0.646301,0.676779,0.532174,-0.0648615,-0.192529,0.877591,-0.600057,0.646475,-0.8835,-0.580944,0.545395,-0.759055,-0.100513,-0.760444,0.184906,-0.344836,0.591386,0.316771,0.000123489,-0.445847,0.778337,-0.542436,-0.945077,-0.315119,0.195935,-0.693579,-0.358168,0.477616,0.165361,-0.301739,0.0521866,0.379054,-0.276441,0.407341,-0.326513,-0.540218,0.736076,-0.173563,0.224837,0.293153,0.889059,0.381274,0.754866,
0.731156,-0.609126,-0.47193,0.975717,0.0142436,0.533173,0.932799,-0.899584,0.330094,-0.286979,0.0490951,-0.624719,-0.494882,-0.185339,0.649608,0.215464,0.433534,0.207014,0.531795,-0.849026,0.232761,0.214072,0.638037,-0.150621,-0.535577,0.745168,-0.192938,-0.0472812,-0.929944,-0.387149,0.479773,0.785232,0.261518,0.412423,0.0368261,0.576877,-0.607874,0.189747,-0.545192,-0.557417,-0.683032,0.688692,0.506164,-0.243013,-0.126344,-0.838292,0.424065,-0.5867,-0.732555,0.287738,-0.626076,-0.571702,0.315784,0.201481,-0.487325,-0.487872,0.648524,0.621945,-0.218665,0.115951,-0.475078,-0.846472,0.461785,-0.32213,-0.194151,0.922815,0.97484,-0.000331425,-0.242814,-0.879504,0.586109,0.470665,0.626817,-0.539959,0.559885,-0.675674,-0.478975,-0.245804,0.87016,-0.0127696,-0.152559,0.22571,0.0604804,0.483419,0.743364,0.406794,0.566567,-0.772567,-0.791934,-0.436155,-0.162401,0.39984,0.243879,-0.0771507,0.385963,0.395042,-0.854907,0.760013,0.00250272,0.526009,
-0.196148,0.0808018,-0.325142,-0.201792,-0.668388,0.0316261,0.400786,0.189402,0.1931,-0.978667,-0.810865,0.202439,-0.588694,0.535247,0.52627,0.402083,-0.539258,0.0747999,0.992597,-0.338059,0.273316,0.587897,0.541997,0.203192,-0.474112,-0.330956,0.543632,-0.581047,-0.0457626,-0.336214,0.110843,-0.426104,0.719687,0.68711,-0.205085,0.84796,-0.2649,0.958145,0.693932,0.8789,-0.230958,-0.0139537,-0.401527,-0.208522,0.609606,-0.955751,-0.249179,0.0386374,0.241096,-0.473616,-0.257582,-0.524223,-0.042895,0.694294,-0.704347,0.86056,0.645076,0.993962,0.244094,-0.11275,0.629444,0.802766,-0.784261,0.489718,-0.0846239,-0.911202,-0.784144,0.1306,-0.829115,-0.840549,0.858751,0.880968,-0.864769,0.535318,-0.106181,-0.740421,0.498115,0.453568,0.266471,0.131113,0.908845,-0.501334,0.192601,-0.249568,0.322221,-0.889989,-0.0186776,0.915468,0.297718,-0.413001,-0.472546,-0.847203,-0.140843,-0.0955549,0.946006,0.987748,0.105065,0.47669,-0.195658,-0.742065,
0.156634,-0.0542628,-0.995545,-0.0440126,0.340227,-0.212147,-0.542173,-0.133142,-0.28975,-0.50754,0.444724,-0.915156,0.187559,-0.980861,0.610512,-0.0879829,0.0455328,-0.314754,0.499772,0.705002,-0.203018,-0.957759,0.0773335,-0.934821,-0.954066,-0.361771,0.122993,0.173927,-0.28457,0.978809,0.45596,0.564696,-0.883158,0.692787,0.273359,-0.311859,-0.932866,0.291567,0.34528,-0.501594,0.722371,-0.868674,-0.250895,-0.209743,-0.524275,0.277851,0.923137,0.47365,0.779869,-0.817274,0.086933,-0.310105,-0.525128,-0.626184,-0.793065,-0.409511,-0.449238,-0.715716,-0.200649,-0.239059,-0.888974,0.492366,-0.0372837,0.866586,0.860069,-0.392081,0.686729,-0.701448,0.593216,-0.503098,0.552748,0.0895114,0.95874,-0.0837382,0.841654,-0.356304,-0.376473,-0.126119,-0.892131,0.10298,0.98013,0.724134,-0.032595,-0.620575,0.218774,0.79919,0.698162,0.474113,-0.0613333,-0.753072,-0.77377,0.818579,-0.0352204,-0.665776,0.00499258,-0.789793,-0.806172,-0.198237,-0.816839,-0.977105,
0.397124,-0.566852,0.875421,0.895314,0.123001,-0.82773,0.261677,0.706609,0.709189,0.688909,0.656123,0.844918,0.689709,0.844786,-0.0921571,0.141075,0.713954,-0.0756752,-0.31396,-0.313419,0.401357,-0.157226,0.597029,0.477313,0.759729,-0.0631303,-0.75979,0.273699,-0.35789,-0.950528,0.248758,0.504236,-0.759076,-0.896802,-0.138568,0.766774,-0.816883,-0.744593,0.960587,0.777573,0.567441,0.979625,0.287033,-0.861919,-0.0810699,-0.148197,0.520126,0.34628,-0.676043,-0.372951,0.955841,0.473003,-0.807258,0.713793,0.723919,0.381067,-0.393109,-0.225761,0.625872,0.660792,-0.476177,-0.832686,0.243506,0.588398,-0.498204,0.102207,0.577549,0.458873,-0.420603,-0.707025,0.216482,-0.615257,-0.99495,-0.623221,0.357381,-0.0371075,0.401725,-0.7287,-0.860862,-0.834457,-0.218071,0.810334,-0.103034,0.119575,0.0369587,-0.106244,-0.338721,-0.131391,-0.159868,0.404753,-0.934505,0.249528,-0.55063,0.251642,0.423432,-0.220193,0.831659,0.746891,-0.851629,-0.837446,
0.697987,0.715104,0.798072,0.948277,0.863236,-0.983224,-0.207444,-0.904423,-0.0932938,0.769552,-0.134179,-0.870064,-0.743525,0.744226,0.655051,0.951017,-0.833228,0.862893,-0.0457804,0.293536,0.0494667,-0.697741,0.881177,0.755839,0.45192,0.126244,-0.822953,0.284582,0.765486,0.701853,0.914606,0.539837,-0.0910919,-0.31464,0.143831,-0.0823462,0.370356,-0.099251,-0.751208,0.13945,0.377494,0.597283,-0.697502,-0.379631,0.370773,0.329457,-0.980147,-0.378125,0.700286,0.326924,0.680399,-0.468253,-0.952876,0.854461,0.81916,-0.445241,-0.583446,-0.0362602,-0.999108,-0.717101,-0.488977,0.481085,-0.515393,-0.226224,-0.861038,-0.467802,0.725189,-0.980334,-0.0518185,-0.576843,-0.474355,0.448436,-0.837319,0.471897,-0.069822,-0.755251,-0.601783,-0.538421,-0.0682612,-0.86451,0.0559366,0.928191,0.933741,-0.065936,-0.670539,-0.378961,-0.684198,0.698327,0.280299,-0.971528,0.240131,0.436117,-0.206575,0.139285,0.848459,0.317922,-0.618491,0.892065,0.526986,-0.116947,
-0.670612,0.117152,0.613393,0.726072,0.704512,-0.725608,-0.812138,-0.0506438,-0.0560595,0.811553,-0.972779,-0.0964006,-0.591086,0.307935,-0.581877,-0.531328,0.0972446,-0.591566,-0.725837,0.837516,-0.25349,0.841846,-0.916524,0.516498,0.446462,-0.855295,-0.732087,0.0435666,0.63025,0.0131632,0.132821,-0.813036,-0.879717,0.495848,0.963514,0.134968,-0.758325,0.673468,-0.126322,-0.0860814,0.14635,-0.571218,0.347129,-0.604645,0.261883,0.851738,0.0610744,0.0326542,0.0678325,0.633356,-0.808626,-0.801489,0.0839131,-0.129348,-0.706168,0.660409,0.227111,-0.867349,0.954565,-0.122682,-0.0139543,-0.117287,0.347356,0.132094,-0.159772,-0.272495,-0.229002,-0.988581,0.0956347,-0.348389,0.688909,-0.0652168,0.457434,0.488825,-0.909471,0.68058,-0.13669,0.535013,-0.507009,0.0882008,-0.443464,0.302426,-0.221401,-0.0528005,0.9119,-0.187078,-0.200087,0.766505,0.942693,0.459231,0.919068,0.503181,-0.922053,0.175019,-0.962808,-0.682842,0.36035,0.0985187,-0.548782,0.680801,
-0.854406,-0.492375,-0.536809,-0.922425,0.660584,0.923283,-0.463202,0.137253,0.200208,0.779255,0.339349,0.468459,-0.835897,0.193144,-0.631799,0.0264534,-0.233094,0.62624,0.295545,0.443108,0.294256,-0.919199,-0.460985,0.372924,-0.68886,0.985329,0.618121,-0.529766,-0.802177,0.863722,0.780961,-0.556914,0.766969,0.386387,0.151639,0.813775,0.731749,-0.375646,-0.507261,0.296588,-0.294515,-0.0508376,0.285678,0.666697,-0.382734,-0.195727,-0.441949,-0.501994,0.152617,0.31216,0.685668,-0.437864,-0.686616,0.535705,0.186055,0.224032,0.171698,0.0481182,-0.102704,0.795896,-0.272011,0.417333,-0.338237,-0.0985258,0.737683,-0.0905849,0.863834,0.367648,0.616256,-0.606066,-0.549286,0.124198,-0.432908,0.496677,0.420598,0.433994,0.934987,0.480912,-0.808997,0.717364,0.267688,0.579208,-0.808789,-0.268279,-0.838486,0.845694,-0.203521,0.941903,-0.772271,-0.102979,0.438985,-0.404511,0.837989,0.215717,-0.748525,0.90702,-0.310102,-0.909537,-0.627084,0.297746,
0.310163,0.107432,-0.212123,0.919941,-0.933592,-0.790757,-0.793161,-0.942754,-0.925737,-0.267867,-0.784807,0.824512,0.0610165,0.133464,-0.276781,0.107485,-0.579167,0.459927,0.149943,0.78227,0.169997,-0.947949,0.934459,0.330992,0.683458,-0.597634,0.673509,-0.392421,0.84504,0.322096,0.239711,-0.695801,0.321416,0.2655,0.533741,0.480714,0.107684,0.879436,0.373054,0.642619,-0.949646,0.855471,-0.667565,0.925038,-0.259503,-0.0618685,0.841796,-0.50393,-0.588737,0.670527,-0.995072,0.0857807,0.0195866,-0.437322,0.525022,-0.807603,-0.793906,0.0993565,0.995361,0.055223,0.0760375,-0.259219,0.777966,-0.38694,-0.437395,-0.99507,0.850615,-0.896598,0.472924,0.901246,-0.616588,-0.41016,-0.801524,0.15171,0.809886,0.171524,-0.449634,-0.447116,0.673642,-0.854915,-0.295209,-0.21349,0.834824,-0.6511,-0.12193,-0.944596,-0.000659394,0.073549,0.627471,0.731148,-0.298835,-0.483844,-0.0133267,0.552004,-0.444491,0.0165572,-0.176491,-0.201078,0.739823,-0.309692,
0.715894,-0.323453,0.568073,0.530558,-0.715974,-0.649116,-0.470875,0.411288,-0.00171677,-0.885838,-0.168836,-0.973857,0.0448315,-0.0322703,0.795936,0.0691148,-0.940118,0.197724,-0.316184,0.884391,0.569487,-0.70778,-0.746031,-0.538526,-0.129803,0.0412747,0.380007,-0.614118,0.547481,-0.0627304,-0.368113,0.934777,0.101179,-0.239622,0.746719,-0.667495,-0.918347,-0.848247,0.449876,-0.992219,-0.478063,0.362118,-0.208097,0.647157,0.918985,-0.272767,-0.936691,0.17132,0.729949,0.47039,0.899334,0.290657,-0.427165,0.763949,0.368825,0.180726,0.90942,0.154995,0.0747402,0.78364,0.734755,0.170788,-0.104715,0.808475,0.0935377,0.248366,-0.696536,0.363291,-0.851627,0.992557,-0.716999,-0.62335,0.218232,-0.586541,0.725637,0.673429,-0.597905,-0.891346,-0.00555778,0.433449,0.822561,-0.37435,0.133534,0.896517,0.529714,-0.332367,0.77618,-0.565923,0.645156,-0.42962,0.116926,-0.522986,-0.532481,-0.324941,-0.243571,-0.272111,0.856775,-0.418771,0.27521,0.351405,
-0.827086,0.432148,-0.565187,0.494558,-0.0460323,0.156968,0.473959,-0.654137,0.710445,-0.937909,0.359187,-0.586127,0.0705075,-0.742545,-0.627782,0.248137,-0.62548,-0.326495,-0.634746,-0.929179,0.944667,-0.694854,-0.118536,0.380512,-0.249342,0.906629,0.666014,-0.876826,-0.724176,0.944913,-0.6181,-0.792696,-0.598054,0.280684,0.654847,0.994272,0.105957,0.312748,-0.958888,0.466806,0.930189,-0.592185,0.0801669,-0.436567,0.974115,0.145055,0.244275,0.425549,-0.213016,-0.478753,-0.267116,-0.0654593,-0.875858,0.915619,0.437472,0.300842,-0.694682,-0.978362,0.898324,-0.901179,0.285901,0.0556262,-0.266704,-0.871598,0.218837,0.19514,0.850172,-0.801574,0.441722,0.353119,-0.471733,0.0995695,0.0514818,0.353594,-0.743707,-0.802015,0.377198,-0.311578,-0.262041,0.285463,0.891216,-0.608212,0.835771,-0.424344,-0.796815,0.926179,0.640754,0.652805,0.0379248,0.135475,-0.385761,0.323668,0.759047,0.382069,-0.680049,0.596353,0.301397,-0.54825,-0.0835471,-0.336298,
0.45495,-0.987344,0.788959,0.634763,0.444476,0.263565,-0.729882,0.920786,0.531712,-0.0653265,-0.394373,0.540708,0.384248,0.939394,-0.114774,0.316099,0.350794,0.513958,0.118569,-0.731918,0.218958,-0.738765,-0.262433,-0.522184,-0.29095,-0.0468542,-0.957649,0.904873,0.226042,-0.231502,0.486755,-0.690161,0.378399,-0.0606395,0.680026,0.504358,-0.780689,-0.443685,0.0266901,-0.357323,0.885263,0.0707336,-0.644706,0.142269,0.334928,0.455306,-0.67603,-0.866768,-0.963627,0.207577,0.348835,0.700732,-0.53153,-0.97811,-0.93014,0.222937,0.409266,-0.16846,0.172978,-0.370098,-0.688263,-0.753083,0.779967,0.790532,0.498638,-0.741818,0.814693,0.0710599,-0.333897,0.758238,-0.287672,0.216072,0.538804,-0.189252,-0.784829,0.409628,-0.817542,-0.117492,0.593412,-0.617855,0.394702,0.846804,0.420664,-0.215645,0.223065,-0.393204,-0.29726,-0.569477,0.414452,-0.860306,0.00741198,-0.442513,-0.214633,0.936831,0.219502,0.492108,0.195998,0.611175,-0.0406704,0.985582,
-0.835356,-0.991613,-0.918027,0.53558,0.601439,0.950343,-0.467909,0.141586,0.784436,0.396493,0.384083,0.293129,0.469249,-0.297443,0.639369,0.15574,-0.628832,0.132101,0.792944,-0.0221656,-0.935119,-0.786021,-0.353532,-0.837829,-0.262838,-0.435903,-0.49652,-0.967621,-0.141888,0.722517,-0.370545,0.00186988,0.435052,0.79016,0.468347,0.781405,-0.847928,-0.96652,0.811823,0.109971,-0.34664,0.930011,-0.0603772,-0.017111,-0.017617,-0.319967,-0.578205,-0.396292,-0.549365,0.536732,0.879555,0.391966,-0.742204,0.915318,-0.132125,-0.0662292,0.305197,0.967732,0.966242,-0.470482,0.601651,-0.501529,-0.474475,0.0455812,-0.592784,0.585187,0.191898,-0.734334,0.0508881,-0.403691,0.342767,0.774769,0.353117,0.417626,0.455983,0.112423,0.760912,-0.697329,-0.206136,0.142975,0.457407,0.3139,0.92895,0.775731,-0.0154778,-0.194292,-0.320198,-0.780237,-0.0815991,-0.0578339,0.129698,-0.55089,0.917244,-0.120644,-0.294289,-0.889434,-0.313779,-0.0559365,0.654015,0.928639,
-0.028449,0.141534,-0.536775,-0.291278,-0.200939,-0.913325,-0.252824,0.783556,-0.488776,-0.380882,-0.578356,0.0040194,0.904342,-0.459975,-0.933904,-0.578523,-0.80074,-0.240893,0.233623,-0.725153,0.357226,0.911288,0.647435,-0.799177,0.0538434,-0.490718,0.178474,0.0353942,0.820634,0.813863,0.329089,0.159301,-0.62052,-0.171751,-0.627527,-0.860053,-0.164916,0.0666538,0.388229,0.682429,0.0702975,-0.850958,-0.744677,-0.0488119,-0.507545,-0.374767,0.726659,0.717131,-0.786838,-0.393734,-0.992471,-0.4938,0.279103,0.151625,0.483902,-0.339307,0.917273,0.834299,0.888412,-0.400851,0.495545,-0.0256432,-0.224162,0.782295,0.301562,0.0732427,-0.574237,0.230051,0.500257,-0.0475542,0.278184,-0.841811,0.707474,-0.397936,0.182375,-0.710922,-0.820462,-0.238296,0.466597,-0.994389,0.57774,-0.988944,-0.625438,-0.273331,0.475793,0.542578,0.7442,0.38047,0.535568,0.95498,-0.370471,-0.276855,0.931197,-0.891999,0.494274,-0.249135,-0.20499,-0.60506,-0.36164,-0.799051,
-0.706586,-0.778804,-0.616587,-0.862995,0.537416,0.14802,-0.579939,0.287191,0.472016,0.43461,-0.359851,-0.720393,-0.662863,0.717785,0.122967,-0.899351,0.270047,0.330817,0.497754,0.406632,0.559253,-0.195059,0.0614074,0.341376,0.844584,-0.718646,0.233213,-0.25226,-0.727556,-0.821863,-0.0448014,0.384097,-0.880479,0.163066,-0.235551,0.390236,0.742819,-0.861495,-0.745878,0.88683,0.15277,-0.0523915,-0.597809,0.921113,0.0315244,-0.0614385,-0.622429,0.667201,0.831282,0.0395036,0.4695,0.389262,-0.917342,-0.516053,0.826705,-0.733474,-0.444226,-0.502458,0.960955,-0.584389,0.749041,0.413425,0.131088,0.478535,-0.0802799,0.757329,0.732976,-0.348027,-0.999037,-0.981681,0.5914,0.869508,-0.0164705,0.528923,-0.894945,-0.192889,0.741253,0.226037,-0.846027,0.820157,0.16061,-0.0700673,0.775396,-0.271383,0.652718,-0.803137,0.810042,-0.13264,-0.820493,-0.0641288,0.90513,0.768265,-0.137411,0.565464,-0.606885,0.956446,-0.175394,-0.729626,-0.322785,0.947512,
-0.214432,-0.333703,0.775947,-0.241167,0.371173,-0.897557,0.0717605,-0.892786,-0.620547,-0.872395,-0.789249,-0.447237,-0.55649,-0.156777,-0.361656,-0.84191,-0.835287,-0.429425,-0.162723,0.234315,-0.296443,0.874843,-0.524721,0.850013,-0.535508,-0.255132,0.136024,0.940065,-0.542177,-0.778202,0.796467,-0.647825,0.0622247,-0.0981245,0.475338,-0.742822,-0.255269,0.0591849,-0.321083,0.993315,0.338298,0.394424,-0.691684,-0.292013,-0.99656,0.918968,-0.77969,-0.218163,0.438055,0.527152,-0.337449,0.46312,0.28867,-0.327722,0.124719,0.220489,-0.912594,-0.489623,-0.990583,0.0694532,-0.906762,0.492825,-0.463406,-0.844303,0.917425,0.514351,0.0574716,0.0983233,0.306724,-0.856128,0.93986,0.620961,-0.459091,0.83544,0.669565,-0.355094,-0.386155,0.596812,-0.207372,-0.12571,-0.0270423,-0.621453,-0.902894,-0.110232,-0.964766,0.950449,-0.81056,0.732356,-0.808674,0.748415,-0.546476,0.171357,-0.0418957,0.843773,0.833563,-0.283072,-0.97655,-0.385605,0.362526,0.469595,
0.480363,-0.729985,-0.24081,0.230627,-0.898904,0.588088,0.318863,0.523082,-0.90105,-0.497611,-0.522001,-0.981616,0.726344,0.597697,-0.620684,0.00173353,-0.0104034,0.453282,0.0409689,-0.101598,0.830918,0.381128,0.942201,0.867612,-0.263444,0.841107,0.055006,0.27387,0.316046,-0.121142,-0.0988393,0.795939,-0.883208,0.062686,0.48243,-0.212078,0.0143744,0.197389,-0.243823,0.433072,0.109961,-0.102592,-0.561028,-0.386652,0.189724,0.0638914,0.922448,0.365645,-0.976782,0.149327,-0.525857,0.955759,0.917443,0.722817,0.115621,-0.60746,0.0169896,-0.126617,0.875488,0.803786,-0.101451,0.77792,0.82282,0.44651,0.622581,0.209585,-0.6324,0.199111,0.0581646,-0.868276,-0.575938,0.782151,0.268301,0.253162,-0.691701,-0.201306,-0.165672,-0.345618,-0.191328,0.11215,-0.0206677,0.321704,0.606256,-0.837981,0.85338,-0.809769,-0.524431,0.31261,0.46302,0.20104,-0.0915915,0.835321,0.736952,0.447379,0.100974,-0.990742,-0.905545,0.867881,0.232088,-0.458843,
-0.776329,-0.356028,0.498116,-0.388131,-0.743315,0.836675,0.222946,-0.824966,-0.645815,0.704957,0.277844,-0.075091,0.78208,0.462393,-0.882729,-0.855134,0.690278,-0.109199,0.718066,-0.438426,0.567867,0.315456,0.310124,0.46801,-0.302789,-0.24397,-0.457124,-0.944063,-0.419803,-0.340287,0.432759,0.643679,0.207077,-0.453377,0.309036,0.605182,0.310864,-0.703788,-0.676946,0.822408,-0.537768,0.749756,0.903255,-0.890026,0.701465,0.830837,-0.426254,-0.908347,-0.582144,-0.199811,0.404301,-0.565209,0.0819093,0.826448,0.78512,-0.722233,-0.642055,0.0082603,-0.608408,-0.734985,0.420852,-0.3507,0.923304,-0.22112,-0.540489,0.373094,-0.268586,-0.747635,0.494613,-0.458726,0.927227,-0.276662,-0.440761,0.349641,-0.607475,0.323067,0.151522,0.360205,0.687251,-0.860486,0.568533,0.229597,-0.510101,0.013002,0.874681,0.169193,-0.403362,-0.664707,0.21338,0.886047,-0.480092,-0.251225,-0.608438,-0.891461,0.315023,-0.461748,0.268037,-0.674329,0.0912748,-0.554495,
-0.103292,-0.717862,0.879143,0.697512,-0.444667,0.902077,-0.430439,-0.21218,0.0686388,0.115223,0.729172,0.475709,-0.415888,0.774661,0.470266,-0.970816,-0.531395,0.0802347,0.574302,0.222253,0.484125,-0.551917,-0.971758,-0.919349,0.344597,-0.161988,-0.0399595,0.197508,-0.204884,-0.0370149,-0.993029,0.304556,0.670654,0.193551,-0.068764,0.486224,0.5855,-0.139827,-0.887001,0.556317,0.394667,-0.48131,-0.51913,-0.341997,0.129547,0.311211,-0.994962,0.222431,0.373374,0.785946,0.483218,-0.9341,-0.787753,0.881721,0.0951496,0.763195,0.958327,0.743411,-0.0988096,-0.156467,-0.34181,0.903272,0.579353,-0.0475444,0.754394,0.148367,-0.77698,-0.848355,-0.399849,-0.0105381,-0.427187,0.00431256,0.708439,-0.393866,0.0125841,-0.124815,0.767248,-0.765993,-0.09641,-0.312567,0.114419,0.703862,0.400127,0.938044,-0.258023,0.388627,-0.888189,-0.529359,-0.212537,-0.368902,0.653213,-0.259064,-0.19117,0.51093,-0.521889,-0.453274,0.0180676,-0.676109,-0.815149,-0.245909,
0.046882,0.996005,-0.0156179,-0.223452,-0.394371,0.560729,-0.668749,0.531973,0.214882,-0.383686,0.969065,0.312453,-0.5345,0.866445,-0.539809,0.0129117,0.691334,0.145736,-0.270748,0.172211,-0.970365,-0.538048,-0.844591,-0.370528,0.774368,-0.937854,-0.762391,-0.618826,0.182375,0.253851,0.0060192,0.992955,-0.891721,-0.670559,-0.914032,-0.495196,0.22565,0.241667,-0.243813,0.962832,-0.598178,0.125099,0.107965,-0.308887,-0.442949,-0.0223341,0.58503,-0.699642,0.954809,0.500573,0.0784391,-0.253033,-0.851371,0.02887,-0.194886,-0.47604,0.808028,0.820394,0.792547,-0.489214,-0.347638,-0.118855,-0.979462,-0.909689,-0.764545,0.138262,-0.112075,-0.0533898,-0.959024,0.000270359,-0.751463,-0.867039,-0.912024,-0.675519,-0.995385,0.259526,-0.48064,0.334648,-0.491623,0.0970901,-0.130027,-0.124114,-0.941385,0.328605,0.727161,0.898079,-0.242188,0.0393812,0.0572508,-0.759974,0.234974,0.499944,-0.950797,-0.369017,0.724765,-0.939328,0.260491,0.266004,0.282603,0.910568,
-0.128244,-0.557229,-0.32291,-0.117245,0.883579,-0.373772,-0.699558,-0.639628,0.712545,0.423483,0.328729,0.314261,0.0489667,0.419406,0.578504,-0.192406,-0.865634,0.554884,0.283278,0.185893,0.879071,0.525358,0.394205,-0.854807,-0.0593803,0.878321,0.327144,-0.787099,-0.413973,0.463556,0.964433,-0.319089,0.612915,0.660637,-0.591919,0.0895394,0.736229,0.690325,-0.00147344,-0.604948,-0.5117,-0.528149,-0.990156,-0.212063,0.0976225,0.774346,0.819185,0.271108,0.94163,-0.721271,0.153637,0.253661,-0.59705,-0.778794,-0.782549,0.510779,0.463539,0.135056,-0.668319,0.766499,0.434613,-0.882783,0.126297,-0.207274,-0.920455,0.174848,0.693974,0.94187,0.242394,-0.524778,0.628462,-0.72058,-0.278072,-0.865577,-0.36857,-0.225941,-0.0392841,-0.955012,-0.341777,-0.152764,-0.0973654,0.410728,0.545272,-0.572822,0.756866,-0.220259,-0.904575,-0.586546,0.785557,-0.835746,0.764243,0.254257,0.412778,0.0387218,-0.241439,-0.527992,0.0121601,-0.530833,0.0329317,0.626718,
-0.326396,-0.985675,0.992512,-0.953582,0.882703,-0.00823901,0.580675,0.539619,-0.238799,-0.607861,-0.266748,0.645499,0.427508,-0.695088,0.187395,0.310555,-0.453613,-0.254421,0.208586,0.502004,-0.353033,0.292122,-0.481681,-0.00390147,-0.880327,-0.997316,0.108527,0.62231,-0.170293,0.144572,-0.695161,0.57571,-0.582319,0.24797,0.206777,-0.350958,-0.581903,0.743295,-0.268371,-0.0578726,0.612207,-0.247111,0.273675,0.0361013,-0.277436,-0.130566,-0.195889,0.325378,-0.900995,0.359044,0.591943,-0.32268,-0.432978,0.900225,0.996641,-0.520751,-0.190307,-0.636015,0.700437,-0.798373,-0.847555,-0.43277,-0.507913,-0.0984498,-0.448676,0.12255,0.668811,0.69505,0.0649587,0.73068,-0.568595,0.996924,-0.716609,-0.115532,0.416712,0.518017,0.252816,0.424911,-0.249872,-0.88233,-0.665811,-0.613616,0.734603,0.885436,-0.254877,-0.153431,0.183477,0.476338,-0.260672,0.917399,0.223961,0.194017,0.792107,0.256691,0.731596,0.718764,-0.781482,-0.556315,-0.135549,-0.721101,
-0.483881,0.227148,-0.134882,0.206691,-0.776411,0.395058,0.225412,-0.535028,0.520728,-0.603836,0.178996,0.823225,0.512716,0.324659,-0.687862,0.683936,0.139345,-0.972203,0.801085,-0.534661,0.623947,0.513733,-0.103082,-0.796039,0.117381,0.466237,0.858138,-0.365413,-0.0068282,-0.65211,0.420087,-0.629037,0.233076,0.64206,0.937123,-0.110586,0.419033,0.487685,0.565632,-0.0401236,-0.994513,0.618265,0.314535,-0.835514,0.189917,0.23736,-0.0715596,0.910159,0.43896,0.703252,-0.567618,0.540873,0.616085,-0.359031,0.918055,-0.080286,0.206392,0.013702,0.47671,0.16324,0.769783,0.587016,-0.235242,-0.129043,0.191801,-0.874381,-0.175864,-0.484661,0.413751,-0.999813,0.561339,-0.634055,-0.523347,-0.256968,0.589221,0.203174,-0.420121,-0.100159,0.191437,-0.994083,0.0523728,-0.363775,-0.279422,-0.578703,0.999002,-0.337584,-0.607329,0.77647,0.312771,0.469402,-0.745326,0.505165,-0.372978,0.638074,0.139275,-0.310799,0.556628,-0.0430869,-0.247145,-0.39461,
-0.259633,-0.439858,-0.441088,-0.903885,-0.958193,-0.414726,-0.385821,0.789781,-0.0155483,0.603698,-0.798341,-0.69275,-0.095322,0.673167,-0.00690846,0.154637,-0.0232896,0.0783727,0.357271,-0.747027,0.192254,0.452915,-0.066428,0.0901143,-0.147915,0.733751,0.298118,0.319745,0.558051,-0.460654,0.252551,-0.265321,-0.138891,0.0506343,0.202603,-0.295957,-0.726061,0.332281,0.0901007,-0.73995,-0.723395,-0.591568,0.212912,-0.709017,0.353123,-0.0245167,-0.41878,0.480449,0.697326,-0.523296,-0.570029,-0.714336,-0.704501,0.13356,0.294217,0.436052,-0.0939443,0.869994,-0.570125,0.965033,-0.923143,-0.587487,-0.948061,0.25063,-0.662998,-0.80415,-0.663133,-0.54344,0.141566,-0.888269,-0.971272,-0.378695,-0.26972,-0.132749,0.603075,-0.853301,0.827591,-0.102318,-0.240912,-0.289427,-0.894525,0.324846,-0.653238,-0.385276,0.0267676,-0.262975,0.260726,-0.832174,0.505021,-0.358787,0.18588,0.0982511,0.653304,-0.617901,-0.894684,0.468477,-0.400016,0.685978,-0.0533871,0.403887,
0.246384,0.7211,-0.690873,-0.393982,-0.993617,-0.0709479,-0.00970427,0.946569,0.253562,-0.00206801,0.885627,0.499648,0.049287,0.549876,0.769931,-0.834405,0.333774,0.402868,-0.570402,-0.42526,0.471347,-0.820933,0.0302092,0.69159,0.0893786,0.599946,0.995041,0.331824,0.579797,0.748963,0.339229,0.920237,0.964066,-0.866064,-0.853989,0.108871,0.674003,0.640154,-0.274963,0.400876,-0.606618,-0.884694,-0.516372,0.342642,-0.0687754,-0.982693,-0.209859,-0.0160986,0.990352,0.153744,-0.288955,0.5784,-0.521887,-0.891017,0.901032,0.11223,0.269399,-0.526816,-0.299066,-0.874591,0.463888,0.819773,0.168503,0.882501,0.427658,-0.690476,0.420983,0.124554,-0.454114,-0.604654,-0.798519,0.274449,0.0642228,0.493003,-0.192544,-0.427618,-0.437965,0.326236,-0.819013,-0.166556,-0.829161,-0.874928,0.30925,0.357082,0.125768,0.176797,-0.140649,0.754524,-0.501302,-0.274208,-0.399159,0.651819,-0.761217,-0.236638,0.130042,0.5704,0.95326,0.0908005,-0.384375,-0.551141,
0.607483,-0.634217,0.79411,-0.633361,-0.380829,0.0802284,0.117216,0.173569,-0.140674,-0.423212,-0.383708,-0.427927,-0.752072,-0.447204,-0.552799,0.352947,0.93036,-0.206865,-0.656619,0.239465,-0.535959,0.95322,-0.831548,0.231875,-0.540443,-0.88887,0.00618766,-0.0208137,0.614247,-0.421913,0.771293,-0.381563,-0.460792,0.939281,0.250723,-0.634783,-0.309969,0.815566,0.866576,-0.771113,0.941046,-0.0846152,0.390959,0.559193,0.664018,-0.855856,-0.288187,-0.751906,0.140969,-0.913853,-0.559549,0.953357,0.584169,-0.741208,-0.734711,0.786785,0.80692,0.661667,-0.198004,-0.90867,-0.111297,-0.513805,0.585508,0.211591,0.112026,0.24674,0.591415,-0.417837,0.368426,-0.0314775,0.0870095,0.849881,-0.510007,-0.369676,0.727924,-0.857699,0.597316,-0.333249,0.281216,0.998827,0.0799692,0.697339,0.642311,-0.0710384,0.426683,-0.685678,-0.940521,0.966341,-0.534077,0.481174,0.154921,0.0213151,-0.456504,-0.472228,-0.122883,-0.760432,-0.585464,-0.322411,0.329368,-0.627632,
-0.106448,-0.0820422,0.829904,0.675611,0.230348,0.334249,0.905183,-0.798018,0.923625,-0.74809,0.035959,-0.52275,0.194945,0.87842,-0.750037,-0.464218,0.556617,-0.269544,-0.770494,0.587163,0.293567,-0.366542,-0.496638,-0.661569,0.909323,0.153558,-0.665055,0.585172,-0.114806,-0.414144,0.754371,0.0819139,0.492797,-0.422363,-0.172691,-0.0168931,-0.512327,-0.0664879,0.670131,-0.661464,-0.229069,-0.326345,0.00424312,0.629563,-0.453386,0.793205,0.462012,-0.835396,0.917397,0.184423,-0.0107436,-0.585244,0.885026,0.911137,-0.332774,-0.74839,-0.742753,-0.29648,-0.658773,-0.0427479,-0.728326,0.413713,-0.66073,0.0245651,0.375904,-0.493211,-0.14947,-0.47164,-0.746288,0.69544,-0.57184,0.671597,-0.477091,-0.993115,0.576583,-0.704828,-0.476842,-0.021241,0.82953,0.438809,-0.00443905,0.500978,-0.932277,0.707412,-0.0319952,0.73943,-0.246949,-0.759379,-0.189152,0.378079,-0.675958,0.126956,-0.529393,-0.521957,-0.419179,-0.479496,-0.108887,0.654925,0.546604,0.734007,
-0.667168,0.164017,0.869277,0.262105,-0.981987,0.906437,0.584686,0.23957,-0.764971,0.354491,0.881891,-0.284811,0.0103104,0.970694,0.173308,-0.843003,-0.00788243,0.937277,-0.205633,-0.0601285,-0.26885,-0.334941,0.674488,-0.0512598,-0.0370316,0.0376842,-0.515256,0.141358,-0.57023,0.24048,-0.932124,-0.827939,-0.253997,-0.689704,-0.0655037,-0.592049,-0.676377,-0.0996191,0.836069,0.215575,0.26709,-0.470158,-0.492916,-0.677606,0.445417,0.809281,0.849744,0.767781,-0.197848,0.803345,0.727055,-0.174259,0.45166,0.792323,-0.631854,0.323273,-0.164075,-0.146351,-0.563095,-0.887716,0.670024,-0.568728,-0.176672,0.584269,0.677769,-0.706384,-0.0297336,0.0212076,0.163774,-0.259282,0.445028,0.844924,0.349382,0.603946,0.376912,-0.712562,-0.24766,-0.905275,-0.399787,-0.617125,-0.971864,-0.572003,0.770787,-0.289115,0.186164,-0.00334048,-0.666938,-0.244918,0.326837,0.174131,-0.266159,0.543216,-0.484493,-0.161101,0.28395,-0.819876,-0.258374,0.491112,-0.993187,-0.313341,
0.765417,0.99465,-0.146445,0.897363,-0.364803,-0.741483,0.000560274,0.351329,0.172154,-0.90802,0.732273,-0.734944,-0.169282,-0.704333,-0.741508,-0.736911,0.708108,0.202601,-0.884667,-0.68652,-0.808884,0.233291,-0.0380339,0.326213,-0.657907,0.565266,-0.747188,-0.160307,0.609219,-0.629673,-0.784928,-0.878573,-0.57906,0.887744,-0.194468,0.206591,0.63311,-0.923772,-0.0211051,0.739405,-0.0579905,-0.961019,0.623871,0.96314,-0.174772,-0.277063,0.695086,-0.911914,-0.961157,-0.775715,0.844051,0.989958,0.272702,-0.847848,0.872293,-0.639428,-0.691027,0.658368,0.0153929,-0.587669,-0.171055,0.57245,-0.86985,-0.248154,-0.794683,-0.564563,0.363402,-0.22187,0.608675,0.771764,0.518687,-0.355315,0.908734,-0.00271307,0.993381,0.782877,0.559827,-0.907417,0.219561,0.531231,-0.202563,0.717157,-0.822793,-0.946214,0.346261,-0.460981,0.743449,0.579397,-0.966507,-0.922836,-0.340732,0.740651,0.206584,-0.719116,0.883316,-0.777937,-0.0589621,0.326186,-0.808694,0.661906,
-0.590381,-0.644338,-0.676321,-0.138362,-0.730166,0.231134,-0.113374,-0.140339,-0.823779,-0.953334,-0.0843682,0.376047,-0.557579,-0.444849,-0.505534,-0.17544,-0.52972,-0.391812,-0.728095,0.6352,0.873513,-0.970872,-0.630912,-0.7752,0.65644,-0.343689,0.0912562,-0.651047,-0.522056,-0.186109,-0.951969,-0.980511,-0.416844,-0.670045,-0.177154,-0.766777,-0.940282,-0.0565865,0.0321496,0.6163,0.811742,-0.645473,-0.563381,-0.716758,0.171597,0.248975,-0.823983,0.94659,0.537772,0.00182744,-0.621861,0.579362,-0.322279,-0.777523,0.744829,-0.504099,-0.719929,-0.414146,-0.350344,0.389657,0.751597,0.381379,-0.760181,-0.329548,-0.222669,-0.664396,-0.709949,-0.234613,0.792572,0.299991,-0.997072,0.0497477,0.407591,-0.311322,0.918682,0.444627,-0.84865,-0.15327,-0.827975,-0.015779,0.312463,0.430158,0.659675,-0.969793,-0.410168,-0.341504,0.990659,0.358288,-0.634944,0.900755,0.285291,-0.925919,-0.686396,-0.259354,0.255817,-0.0223858,0.556463,0.0110616,-0.27206,0.275558,
0.498466,-0.914078,0.576594,-0.258363,0.235175,0.495722,0.75616,-0.242934,0.696221,-0.760806,0.307226,-0.886733,0.481439,-0.566619,0.212293,0.267961,-0.29193,0.16448,-0.759227,0.254583,0.0595005,0.507941,0.471109,0.329505,-0.635303,-0.277958,-0.112168,0.546289,-0.265743,-0.280213,-0.790777,0.589035,-0.272258,0.0675414,0.744665,0.89387,0.298804,0.846503,0.965588,-0.978436,0.749945,0.395549,-0.889088,-0.110426,0.777017,-0.971335,-0.963436,-0.0390088,-0.69051,-0.136683,-0.045127,-0.877125,0.864478,-0.86026,-0.168778,0.833091,0.70683,0.331747,-0.0825905,-0.241996,0.0478803,0.287289,-0.949098,-0.679623,0.104522,0.903565,-0.900171,0.844275,0.664182,-0.165873,-0.543002,-0.989534,-0.893605,0.139314,-0.726441,0.625123,-0.675959,-0.764195,0.4413,0.922061,0.438643,-0.546078,-0.890643,-0.522429,0.396769,0.104337,-0.94924,-0.518781,-0.882077,0.176135,-0.902982,-0.302845,0.920214,-0.280729,0.527039,-0.872597,0.435494,-0.595989,0.44949,-0.769407,
0.637339,0.461565,-0.194606,0.614436,0.917059,0.154383,0.704943,0.211902,0.966515,0.58853,0.861845,-0.201183,-0.291114,0.59006,0.155331,0.897561,-0.568531,-0.679938,0.987507,0.570651,-0.638914,-0.410706,0.199135,-0.763339,-0.127665,-0.526053,-0.843585,0.443239,-0.904655,0.996154,0.766063,0.287055,-0.970211,0.698979,-0.446069,-0.0857076,0.339999,0.473043,0.0770448,0.48867,-0.369259,0.766317,-0.700793,-0.102001,-0.675104,-0.0134948,-0.394808,-0.699687,0.939909,0.246723,0.418349,-0.266532,-0.184039,-0.532274,-0.214498,0.409007,-0.23409,-0.453564,-0.860652,0.694701,-0.639494,0.394143,-0.549303,-0.273503,0.102248,-0.860836,0.370197,-0.239343,-0.43392,-0.895071,0.867256,-0.307572,0.698875,-0.97428,0.376958,0.530979,0.971133,0.794634,0.744507,0.916312,-0.0243195,-0.35862,0.879102,-0.325426,0.272128,-0.56126,-0.0368566,0.848713,0.0902142,0.817463,0.916818,-0.00332172,-0.740561,-0.328046,0.268508,-0.461203,-0.475488,-0.203569,-0.386171,0.572649,
-0.4499,-0.553508,-0.713047,0.809845,-0.0091326,0.878865,-0.532731,-0.345081,-0.853059,-0.0929853,0.740131,0.661486,0.665278,0.199469,-0.631243,0.985675,0.313655,-0.907684,-0.131923,0.471262,0.763091,0.662161,-0.718605,-0.788227,0.119004,-0.691279,0.498146,0.442937,0.617237,0.262337,-0.476729,-0.833404,-0.246594,-0.229931,0.75043,0.00806055,0.772004,-0.646065,0.291609,0.51561,0.756625,-0.268538,0.444466,0.855306,0.0537526,0.197956,-0.625383,0.753146,-0.189278,0.119034,0.174787,-0.909246,-0.637213,-0.128282,-0.419519,-0.368363,-0.583422,0.179276,0.865973,0.858233,0.370412,-0.546515,-0.477333,0.420442,-0.564048,-0.563319,0.338453,0.699253,0.275071,-0.726338,-0.834594,0.608996,-0.139619,-0.140633,0.0403958,-0.723665,-0.605219,-0.827234,-0.294596,-0.905349,-0.756885,-0.527348,-0.3474,0.706543,0.850539,0.384355,-0.515267,-0.879701,-0.536944,0.484856,-0.125145,-0.805414,0.547467,-0.849813,-0.179256,-0.942067,0.957753,0.781529,0.384459,-0.51696,
0.825329,0.94084,0.719152,-0.138875,-0.95384,0.906659,-0.731659,0.165897,0.745489,-0.567251,0.759386,0.551973,-0.281282,0.114712,0.802103,0.316119,0.516792,0.910391,0.444739,0.173379,0.589948,-0.478538,0.474395,0.981801,0.566348,-0.961995,-0.480115,0.353203,-0.934637,0.300823,-0.139799,0.420617,0.992563,-0.24577,-0.620385,0.972912,0.503978,0.744432,-0.592403,-0.736739,0.394056,-0.180739,-0.341555,0.305892,0.144889,-0.526004,0.932122,0.204987,-0.195827,0.571386,0.352495,0.610057,0.148732,-0.730706,-0.478764,-0.0982646,0.882888,0.478921,0.878591,0.943904,0.616535,0.454038,0.446162,-0.382413,0.282594,0.576502,-0.503467,0.0919695,-0.658566,-0.961682,-0.0340587,-0.74529,-0.360998,-0.271714,-0.772606,0.73856,0.803315,0.95764,0.882477,-0.795225,0.788193,-0.844874,0.863927,0.935489,-0.804619,-0.472082,-0.0564805,-0.996551,0.333049,-0.264641,0.294124,0.0145845,-0.720497,0.510159,-0.410446,0.256079,0.934929,0.329633,0.512533,-0.308066,
-0.714142,0.741046,-0.154462,0.248908,0.0732248,0.502801,-0.909632,-0.650737,-0.35387,0.873026,-0.955118,0.700474,0.0411811,0.683716,-0.84616,0.404978,-0.00952621,-0.182888,-0.270862,-0.126082,-0.00778091,-0.50298,-0.48969,0.829264,-0.626176,0.467237,-0.920578,-0.551972,-0.259525,0.990811,0.00814048,0.281303,-0.0578734,-0.674631,-0.934703,0.719117,0.765605,-0.577448,0.967869,0.471831,0.90324,-0.310889,-0.549271,-0.305552,0.1404,-0.859449,-0.710028,0.945303,0.707907,-0.230736,0.17632,0.484637,-0.45248,0.164059,-0.699304,0.458014,0.88147,0.18616,-0.8985,-0.801146,0.374112,-0.3858,-0.342334,0.388117,0.982209,-0.548668,0.98891,-0.448727,0.366916,0.0305157,0.766398,-0.503766,0.0775137,0.452151,-0.684154,-0.561263,-0.979479,0.126164,-0.768326,0.11755,-0.855814,-0.236652,0.820401,-0.765042,-0.781015,0.839672,0.556525,0.103546,-0.786036,0.63715,-0.452233,-0.768047,-0.0426828,0.0596682,-0.618259,0.49322,0.542914,0.380285,0.260519,-0.461721,
-0.638452,0.756577,-0.188784,0.132407,-0.758312,-0.496121,-0.450655,0.692324,0.456973,-0.0953629,-0.701712,0.258068,-0.427431,0.86214,0.28983,0.102313,-0.168481,-0.352032,0.138782,0.594366,-0.900019,-0.45225,-0.329904,-0.0866584,0.786698,0.580366,-0.897532,0.94935,-0.692387,0.0300421,-0.779287,-0.971008,0.959172,-0.318706,-0.247046,0.766398,-0.661656,0.685503,-0.523965,-0.601399,-0.26352,0.382357,0.323828,0.800176,-0.223594,-0.756844,0.970528,-0.943517,-0.670233,-0.850626,0.139533,0.611361,-0.457349,0.516917,-0.541095,-0.0236677,-0.283764,-0.0847163,-0.427185,-0.581649,-0.324228,0.964213,-0.515247,0.975284,0.20301,-0.274033,0.49079,-0.890913,0.748248,-0.84675,-0.222203,0.963395,-0.71958,0.105857,0.42516,-0.14891,-0.477108,0.510517,-0.423206,0.737596,0.755118,-0.782392,-0.175347,0.83163,0.956379,0.799829,0.959845,-0.966068,0.335448,0.333656,-0.680007,0.876005,-0.417869,0.270102,-0.362469,-0.734024,-0.155739,0.715435,-0.658653,-0.312711,
0.963956,-0.554664,-0.9813,0.709304,-0.700411,0.400493,-0.791437,0.0449013,0.00303379,-0.77764,0.763471,0.228561,0.0807292,-0.768967,0.778919,-0.608771,0.919928,0.527798,0.987926,0.526345,0.559272,0.591063,0.616452,0.994014,0.111199,-0.473671,0.819969,0.675554,-0.957344,0.867543,-0.124435,-0.14518,-0.397626,0.533315,-0.607829,-0.751648,-0.68352,-0.141335,-0.45744,0.994985,-0.437508,0.876091,0.263509,-0.912082,-0.816045,0.899331,0.795623,-0.734644,0.158062,-0.788929,0.0334124,0.456851,-0.0527907,0.773015,-0.951485,-0.56482,-0.95299,-0.276192,0.848128,0.822948,0.129405,-0.267502,-0.637597,0.94902,0.0268866,0.390426,0.466389,-0.750572,0.518891,0.555278,-0.0233301,0.555071,-0.59511,0.108535,0.124887,-0.421981,0.202867,0.193671,0.358631,-0.0447145,0.258444,0.949746,0.873551,-0.486368,0.33266,0.547961,-0.585575,-0.723659,-0.0130484,0.0980113,0.727859,0.800595,-0.269857,0.225012,0.254162,0.711554,-0.910698,-0.532212,0.908275,-0.676349,
0.314892,0.67404,0.299185,0.980213,-0.382931,0.910411,0.167719,-0.237136,-0.914007,0.283261,-0.473616,0.851654,0.308497,-0.769524,-0.677632,0.49191,0.41537,0.990922,0.133689,-0.37149,0.477323,-0.0763364,0.0548795,0.207374,0.501251,-0.609793,-0.231387,-0.207333,-0.779858,0.700733,-0.849328,0.991459,0.495674,-0.238736,-0.507676,-0.414068,0.515884,-0.0674786,-0.130415,0.0565333,-0.913025,-0.0222622,-0.938108,0.293574,0.194122,0.757771,-0.241946,0.538519,0.746845,-0.343011,-0.781648,-0.68173,0.0597884,0.331127,-0.860323,0.731536,-0.926234,0.383298,-0.252024,0.652162,0.997609,0.303963,-0.767051,0.775928,-0.461327,0.350154,-0.885057,-0.458706,0.743901,0.933929,-0.360377,-0.0363708,0.681251,0.0606395,0.634712,-0.390651,-0.195537,-0.036118,-0.651695,0.885906,0.590964,0.802295,0.98652,-0.178371,0.580977,0.796628,0.323444,-0.904882,0.00771867,0.0723615,0.308201,0.311065,-0.0553315,-0.744132,-0.45111,0.380917,0.151268,-0.672796,-0.555908,0.310761,
-0.817599,0.153655,0.93034,0.972131,0.949781,-0.114226,0.756682,-0.0450413,0.497185,-0.987967,-0.847875,-0.184436,0.0812298,-0.920542,-0.340428,-0.489609,0.0314333,-0.195308,-0.223624,0.728244,-0.562151,-0.380598,-0.609878,-0.645649,-0.903059,-0.0831064,-0.279629,-0.0599726,-0.138779,-0.368789,0.528424,-0.74999,-0.816795,-0.511504,0.615989,-0.950977,-0.947174,-0.181246,-0.0933795,0.283481,-0.535554,0.704506,0.354342,-0.00920527,0.334124,-0.480934,-0.425743,-0.433354,0.550687,-0.983214,0.386157,-0.909673,0.250345,0.0655781,-0.329872,0.724998,0.367711,0.826309,-0.637943,0.250423,0.944358,-0.251301,0.877839,-0.138652,0.58506,0.391115,-0.466868,-0.274808,-0.923395,-0.742849,0.94816,-0.0946782,0.964328,-0.499267,-0.139686,-0.494129,0.251916,0.323645,-0.56271,-0.476889,0.608211,-0.351926,0.271001,0.0408595,0.444364,-0.94852,-0.49837,0.418465,-0.217068,0.851646,-0.796816,-0.810828,-0.315086,0.509675,-0.658593,0.552937,-0.205308,-0.607063,0.747045,0.595552,
0.296451,0.640933,-0.590333,0.215057,0.310745,-0.819945,-0.609986,0.408652,-0.470627,-0.818786,-0.802758,-0.743839,0.264475,-0.243595,0.813307,0.660265,-0.105504,-0.209627,-0.174121,-0.0909369,-0.408588,0.569137,-0.76298,0.0336911,-0.840511,0.525865,0.281335,-0.405872,-0.481391,-0.408775,0.0912586,0.445228,-0.557899,0.53511,0.0421993,-0.131251,0.41437,0.15478,0.376406,0.0638607,0.878756,0.932516,-0.391959,-0.282675,0.321478,0.972515,0.391892,0.959295,-0.71644,-0.590271,0.522201,-0.910621,0.401312,0.267099,-0.0107248,0.582133,0.080891,-0.518324,0.270222,-0.173707,-0.740823,-0.515012,0.469763,0.354722,0.860711,-0.496483,-0.942798,-0.239996,0.916581,-0.0424876,-0.740457,0.353395,-0.50175,-0.677823,-0.166175,0.300236,-0.276765,-0.118696,-0.0441487,-0.964729,-0.21102,-0.442341,-0.93322,-0.282419,-0.372588,0.130623,0.41903,0.117538,-0.0906747,-0.0287387,-0.922143,0.570115,-0.590977,-0.24249,-0.427243,-0.624266,0.201952,-0.579099,-0.261349,0.242647,
-0.118298,-0.817397,-0.629055,-0.142167,0.887206,0.15819,0.149267,-0.0893378,-0.175509,-0.154367,0.00178691,0.58121,-0.619292,-0.466303,0.135502,-0.328227,-0.674832,0.783696,0.116564,0.00711435,-0.167025,0.621144,-0.326944,0.218526,-0.0459703,0.827567,-0.311659,-0.24355,0.907112,-0.3274,-0.704521,0.192189,0.379364,0.0662434,0.853684,-0.546197,-0.939815,-0.708624,0.151324,0.112245,-0.464149,0.964072,-0.876374,0.980142,0.509254,0.0721771,0.634399,-0.414815,-0.991227,0.402985,-0.592828,-0.620626,0.612397,-0.950114,-0.835116,0.609928,0.207838,0.16427,-0.273777,0.0154566,0.553395,0.294301,-0.313401,-0.779706,0.930382,0.731126,-0.513751,-0.116024,-0.605336,0.269744,-0.263306,0.6634,0.208429,-0.742408,-0.141513,0.957654,-0.0370624,0.996866,0.911151,0.345299,0.589267,-0.358605,0.1899,-0.0623785,-0.135878,-0.111765,0.118479,0.828653,0.852089,-0.036341,0.142103,-0.730987,-0.769325,0.0653306,-0.867473,0.811953,-0.602519,0.258206,-0.602578,0.487297,
0.954862,0.57293,-0.79312,0.858664,0.66625,0.355701,0.435467,0.801026,0.182223,0.337537,0.842719,0.0895176,0.892795,-0.263295,0.881008,-0.0670533,0.837311,0.807805,-0.463856,-0.92999,0.88359,-0.768648,-0.873023,-0.0369632,0.0585181,-0.762236,-0.114836,0.5419,-0.228267,-0.395892,0.126501,0.528161,-0.337098,-0.912992,0.331123,-0.257304,0.725957,-0.393356,-0.534403,0.545791,0.0279036,-0.879347,-0.259333,0.706649,-0.972034,0.105502,-0.312936,-0.203892,-0.672595,0.0415524,-0.388718,-0.272429,-0.728232,-0.20481,-0.572299,0.953833,-0.918811,-0.329248,-0.402035,0.438345,-0.304152,0.829421,0.278702,-0.199767,0.0198032,0.82732,-0.927945,0.642708,-0.39683,-0.65081,-0.419242,0.874704,0.482715,0.778546,0.874414,0.691279,-0.557104,-0.757494,-0.665387,0.424878,0.110619,0.167492,0.63566,-0.0647931,-0.283583,0.128821,-0.119136,-0.770889,0.778602,-0.386607,0.098454,-0.677558,-0.1209,0.9781,-0.504657,-0.858883,-0.952246,-0.019068,0.193107,-0.236432,
0.494704,-0.917002,-0.0175184,0.376914,-0.377228,-0.810394,0.797772,0.980448,0.190526,0.752869,0.196461,-0.909764,0.761657,0.340793,-0.625707,-0.277936,0.10716,-0.157777,0.22923,0.0927365,-0.254665,-0.81033,-0.167306,-0.115714,0.735797,-0.300469,0.454648,-0.783959,-0.591017,-0.48133,-0.271414,0.76214,0.061436,-0.696349,0.793011,-0.0257627,0.858329,-0.357764,-0.438484,-0.39504,0.198911,-0.527525,-0.121331,-0.525285,0.505387,-0.691388,0.288149,0.9088,0.899783,0.267913,-0.87953,0.996976,-0.109571,0.934434,-0.449305,0.757024,0.608909,-0.255453,0.859542,0.316861,0.442554,0.960184,0.905021,0.241781,0.754611,-0.110859,-0.659789,0.664035,-0.664989,-0.219371,-0.400993,0.142034,0.419823,-0.774795,-0.78273,0.155192,0.0863488,0.942936,0.412073,0.306327,-0.0807095,-0.879588,-0.214282,0.635658,-0.402843,0.738813,0.0674646,-0.955997,0.748687,-0.216841,0.0135089,-0.479738,-0.730263,0.662079,0.155797,0.522823,-0.676539,0.269618,-0.108216,0.14133,
0.232939,0.77764,-0.144306,-0.921573,-0.820681,-0.838463,-0.745103,-0.308011,0.951696,0.384168,0.0790396,0.759058,-0.622747,0.317844,0.636596,-0.828191,-0.281459,-0.0339016,-0.905085,-0.718518,-0.176763,-0.992893,0.261092,-0.40453,-0.625962,0.270145,-0.871756,-0.391705,0.270529,0.172077,-0.474535,-0.0312376,0.262652,0.10427,0.42484,-0.619234,0.664523,0.753901,-0.644688,-0.0804785,0.524977,0.744619,0.822186,0.342445,0.861313,-0.875346,-0.44236,-0.0995234,-0.861573,0.407551,0.703655,-0.884894,0.298149,0.033286,-0.522649,0.425037,0.510002,-0.758057,-0.168286,0.0943646,-0.351445,0.390156,-0.160819,0.464398,0.511554,0.709792,-0.488919,-0.529888,0.412582,0.635959,0.648787,-0.480576,-0.52943,-0.766684,-0.594351,-0.234451,-0.847087,-0.658532,0.194345,0.256191,0.0973499,-0.0432965,0.35853,0.481167,-0.319536,0.104567,0.575097,0.0375558,-0.994215,0.261693,-0.0961503,0.615611,-0.806103,-0.419383,-0.893032,-0.0871349,0.518154,0.933659,-0.926083,0.22894,
0.143034,0.681882,-0.812797,0.77804,-0.703519,-0.16244,-0.04423,0.762447,0.808798,-0.252632,0.469412,0.87667,0.88991,0.762024,-0.903447,-0.0599621,0.117916,0.749162,0.596084,-0.817558,0.213337,0.192408,0.600488,-0.862163,-0.52535,0.196462,-0.25337,0.0577948,0.729851,-0.540499,0.931186,0.0301731,0.172623,0.41954,0.857699,0.952635,0.396787,-0.196695,0.228879,-0.385577,-0.520346,0.0900856,0.645606,0.38377,0.257073,-0.863064,-0.21601,-0.198766,0.803642,0.878911,-0.488334,-0.72285,0.376909,-0.666605,-0.227868,0.857323,-0.00113813,0.389182,0.843454,-0.662896,0.268742,-0.451161,-0.886068,0.136195,0.611068,0.966711,-0.644885,0.676297,0.401635,-0.43164,-0.0914446,0.0722616,-0.45872,0.601019,0.300945,-0.0742443,-0.728421,0.0569678,-0.0733203,-0.335754,0.0271867,-0.668462,0.372935,0.256228,0.38591,0.611096,-0.0188714,-0.530481,0.948948,0.962308,0.140473,-0.266021,0.883032,0.481433,0.797893,0.242354,-0.55898,-0.285465,0.0201818,0.243246,
0.0862014,0.248302,-0.923817,0.521056,-0.33758,0.95075,0.537329,0.952529,0.559328,-0.404803,-0.89033,0.876876,-0.969074,-0.694532,-0.712671,-0.741489,-0.816931,-0.626255,0.900647,-0.177492,-0.692329,0.385514,-0.396097,-0.199069,-0.449538,-0.464756,-0.381356,-0.35617,0.922817,0.547904,0.428068,0.910088,0.492725,0.50223,0.449792,0.696265,-0.938242,0.189815,0.21482,-0.0212292,-0.367949,0.794409,0.200872,-0.970165,0.463639,0.963644,0.629252,0.218834,0.373124,-0.798622,0.104257,0.296726,0.128156,0.4088,0.487026,-0.26639,-0.273419,-0.325435,-0.645915,0.404009,-0.190916,-0.815814,-0.0438185,0.967046,-0.730759,-0.485181,0.933927,-0.651347,0.318424,-0.598886,0.813903,0.35707,-0.919147,0.962309,0.374118,-0.042514,-0.169683,0.690187,0.0286716,-0.843296,-0.309454,-0.0975843,0.37471,0.954617,-0.540359,0.165171,-0.440404,0.761767,0.456283,0.50634,-0.838997,-0.835593,-0.850888,-0.341956,0.584742,-0.989174,-0.753307,-0.833926,0.798489,0.399787,
-0.716195,-0.102678,-0.733917,0.295036,0.401242,-0.943358,-0.234052,0.25074,-0.575909,-0.302741,0.858128,-0.427597,0.209491,-0.681663,0.638618,0.100032,0.363495,0.584082,-0.282631,0.787753,0.831803,-0.988052,0.759572,0.865307,0.208157,0.939399,0.740032,-0.993722,-0.337887,0.495313,0.673228,-0.924363,-0.170531,-0.512202,0.867769,0.899209,0.906492,0.526152,0.0629094,-0.486784,0.507507,0.2432,0.0996197,0.31834,-0.0137006,0.394196,-0.486358,-0.537562,-0.193969,-0.109751,-0.28777,-0.283051,0.290191,-0.770804,-0.521768,0.811468,0.958413,-0.266341,0.210744,0.37422,-0.213023,0.072377,-0.69799,0.714394,-0.435301,-0.989228,-0.670396,0.821375,0.851934,-0.113801,0.562041,-0.595681,0.636818,0.682449,0.107846,0.905409,0.932003,0.892706,-0.118871,-0.942988,-0.857148,-0.915788,-0.202791,0.655096,0.48499,0.826199,0.235989,-0.155789,-0.312897,0.740047,-0.0800228,-0.948499,0.755357,0.588608,-0.913401,0.814477,0.204429,-0.731317,0.906072,-0.0886342,
-0.0142842,-0.667099,0.473647,-0.854031,-0.60669,-0.93468,-0.165123,-0.184162,0.0183459,-0.699522,-0.766232,-0.951867,0.457905,0.0621501,0.949068,-0.903106,-0.583534,-0.47878,-0.482767,0.602984,0.789192,0.88674,-0.799351,-0.214769,-0.00963144,0.822982,0.39614,-0.92058,-0.600494,-0.99266,-0.315461,-0.268351,0.86427,0.716867,-0.494919,-0.767095,0.89831,0.612437,-0.751322,0.247064,0.409199,0.781964,-0.427236,0.181138,0.754961,0.549612,0.193703,0.732396,0.748912,-0.162424,-0.713036,-0.84079,-0.929904,0.56749,-0.564459,-0.193631,0.629232,-0.420018,-0.234784,0.598758,-0.654006,-0.198068,0.491518,0.908238,0.411521,0.958721,-0.768605,-0.760345,0.324446,-0.391722,-0.477977,0.0406838,0.591824,-0.594195,0.500653,-0.259007,-0.668146,-0.656405,-0.301851,-0.970158,0.906844,-0.921479,0.425726,0.883199,-0.891212,-0.888112,0.416753,-0.209471,0.632524,-0.211635,0.507374,-0.685065,-0.389168,0.915905,0.969604,-0.725627,0.920985,0.559017,-0.706051,0.556643,
-0.378888,0.896042,-0.567857,0.785812,0.334924,0.654227,-0.47265,-0.521049,-0.65879,0.169639,-0.879249,-0.221445,-0.855805,-0.486955,0.523622,-0.48187,0.891902,-0.671653,-0.471243,-0.192251,0.129526,-0.159204,0.630955,0.64459,-0.901702,0.162979,0.653889,0.332674,-0.110355,0.398832,0.110982,0.526197,-0.5694,0.248974,0.690512,0.928292,0.693323,-0.876657,0.953259,-0.788553,0.880994,0.111332,-0.172126,-0.600844,-0.411548,-0.468081,-0.589956,-0.169584,0.592433,-0.872127,0.298135,-0.496259,0.151438,0.722753,-0.103732,-0.992762,-0.118796,0.391481,0.685346,0.364977,0.623319,-0.0266411,0.0211904,-0.1215,-0.345035,-0.0602593,0.213523,-0.84157,-0.257268,0.0793901,-0.355091,0.399139,-0.545163,0.356771,0.894958,-0.646391,0.566748,0.881601,0.238649,-0.878612,-0.258518,-0.391913,-0.943881,-0.408147,0.33139,0.509848,-0.0454645,-0.508826,-0.727428,0.125928,-0.325903,0.629134,0.319181,-0.926107,0.395074,-0.724031,-0.497877,0.156394,0.538691,0.222822,
-0.890513,-0.309551,0.801484,0.664135,-0.971233,0.573877,0.267829,-0.188593,-0.808857,0.281775,-0.357245,0.337725,-0.834121,0.433285,0.668015,0.292117,-0.741417,-0.504386,0.743232,-0.10615,-0.314335,0.938064,-0.171083,-0.659163,-0.373157,-0.691797,-0.475806,0.522711,-0.0113511,0.975384,-0.835308,-0.558045,0.524524,0.268464,0.319835,-0.493621,-0.50792,0.649915,-0.776558,-0.465643,0.488363,0.431844,-0.50405,0.122008,0.155469,-0.307598,0.474954,-0.473672,-0.168665,-0.0410658,0.390126,-0.573695,-0.390518,-0.363982,-0.135663,0.0248079,-0.301334,-0.77833,-0.647266,-0.438445,0.693575,-0.340767,-0.514704,-0.555881,0.478992,0.404893,0.748756,0.527385,0.6577,0.840331,-0.624979,-0.326266,-0.865257,-0.115984,-0.89552,0.816645,-0.428333,-0.816875,0.179052,0.499089,-0.916331,0.209853,0.608784,0.586972,-0.773271,-0.624451,0.0424395,0.23568,0.0255997,-0.313676,-0.0510862,0.580873,-0.0657546,-0.310177,-0.972459,-0.576972,-0.807925,-0.337521,-0.69292,-0.0504582,
-0.992046,-0.607807,-0.0486277,-0.520512,-0.286358,0.448247,-0.658693,-0.411241,-0.690417,0.597315,-0.00578441,-0.453001,0.297139,0.801317,0.31179,-0.198228,0.775155,-0.81725,-0.0448068,-0.155617,-0.675095,-0.531078,0.398588,-0.629931,0.513864,-0.458397,-0.505213,-0.384778,0.272903,0.656576,-0.301417,-0.702242,0.986533,-0.604394,0.881534,0.274663,0.13866,-0.306413,-0.935142,0.423636,-0.426035,0.843894,0.533723,-0.244937,-0.105206,0.0793674,0.291694,0.00154809,-0.97971,0.975,0.566711,-0.062809,0.603104,-0.643296,0.868682,0.192828,0.180739,0.236814,-0.49831,0.0149899,-0.350383,0.530959,-0.0373167,0.506677,0.399198,-0.937921,-0.0654407,0.456887,0.422082,-0.799015,-0.885499,0.906349,-0.193037,0.353166,-0.824258,-0.264983,-0.371556,-0.514047,0.207297,0.257542,0.317281,0.0933658,-0.536592,-0.0394067,-0.46814,-0.716588,-0.836683,-0.0335004,0.512269,0.681126,0.705478,0.258375,0.487705,-0.0834229,0.669726,0.639202,-0.462594,-0.0886815,-0.715178,0.257699,
0.381358,0.0780874,-0.632457,-0.114241,0.777753,-0.41834,-0.249079,-0.243934,0.383706,-0.117907,-0.521466,-0.355164,-0.671241,0.126631,-0.471944,0.302898,-0.066794,0.629453,-0.422296,0.718625,0.523096,-0.8702,-0.856238,0.299353,-0.882043,0.798003,0.0855687,0.307278,0.52939,0.481091,0.598006,-0.85643,0.0421797,0.421417,-0.0484644,-0.373778,-0.965451,-0.249472,-0.0569336,-0.570368,-0.19263,0.575482,0.105435,-0.104531,0.865174,0.90291,0.915578,0.497778,0.825213,-0.321406,0.186844,-0.442292,0.79123,0.923656,0.30641,-0.684908,0.824639,0.0436266,-0.919258,0.170439,0.384433,0.754423,0.499874,0.79786,0.217359,0.987471,0.283639,-0.322721,-0.406686,-0.836928,-0.152435,0.760712,0.404491,0.445742,0.2698,0.449098,0.411637,0.202538,0.311954,0.238011,0.353531,-0.454849,-0.755665,-0.840995,-0.947756,0.8963,0.858971,-0.442341,0.781519,-0.894113,-0.278405,-0.679009,-0.980481,-0.695435,-0.655027,0.552877,0.0157712,-0.286293,0.843988,0.63003,
0.0589185,0.45993,0.609055,-0.565744,0.538308,-0.0881891,-0.839279,0.615178,0.880211,0.338652,-0.676492,0.153326,0.3755,-0.816126,0.0758092,-0.948535,-0.00225929,0.404885,-0.463357,-0.811333,0.926501,-0.686629,-0.886447,-0.725023,0.489781,-0.323652,0.492794,0.0565943,0.269162,-0.676127,0.705068,0.64874,-0.450536,-0.516168,0.522832,-0.330736,0.224739,0.661312,0.997047,-0.731856,-0.284799,0.919272,-0.810444,-0.0781576,-0.392327,-0.915032,0.947846,-0.867258,-0.479776,0.457934,-0.691445,-0.699835,0.591479,0.735476,-0.305031,-0.0460601,0.02927,-0.544596,0.0172399,-0.84107,-0.458788,-0.58021,0.0131684,-0.29913,-0.996773,-0.815217,0.518915,0.302888,0.97144,-0.811191,0.920866,-0.0661814,-0.420103,0.522269,0.66817,-0.583684,-0.701342,0.264092,-0.452195,0.0667081,-0.450927,0.572706,0.120121,0.2346,-0.380151,0.739465,-0.0733573,-0.375631,-0.257384,0.14688,-0.229442,0.509288,0.871347,0.769934,-0.63424,-0.555765,-0.270261,-0.470349,-0.179769,0.405996,
0.912673,-0.384455,0.827924,-0.497146,0.57792,0.1736,0.70191,0.385839,0.704478,0.196286,0.873256,-0.597799,0.085529,-0.457146,-0.129135,0.490552,-0.0697666,0.813484,-0.948679,0.178198,-0.893294,-0.850022,-0.840885,0.40068,-0.99551,0.142654,0.131843,-0.831413,0.555672,-0.158662,-0.348232,-0.080695,-0.622465,-0.194288,-0.954797,0.717891,0.499714,0.68404,0.944626,-0.622783,-0.854778,0.109614,-0.218207,0.365025,0.342169,0.812672,0.794505,-0.57981,-0.517305,0.401699,0.570891,0.182334,-0.74478,0.95694,0.303665,-0.759875,-0.964404,0.605444,-0.553618,-0.13878,-0.672744,0.701853,-0.408954,0.355974,0.32488,-0.399604,-0.882856,-0.19831,0.0610323,-0.249398,0.971893,-0.350402,-0.481403,0.638805,0.133658,0.617774,0.0461179,0.48087,-0.0715385,-0.225746,-0.326837,0.0041973,0.904847,0.29006,-0.926035,0.180916,0.491926,0.480773,0.362003,0.636602,-0.278483,-0.290742,0.139906,-0.297668,-0.370813,0.719622,0.889703,0.495881,-0.809276,0.715415,
0.943908,-0.0670187,0.860514,-0.639911,0.961681,0.867983,-0.609824,-0.488343,0.120653,-0.0601034,0.355941,-0.968954,0.351703,-0.0394506,-0.255459,-0.000784089,-0.99207,0.447581,0.95773,-0.871748,-0.990502,0.871954,-0.337089,0.237625,0.679675,0.944885,0.540668,0.0293961,-0.721222,0.863867,-0.0456792,0.557465,0.915673,0.339164,0.650153,-0.489091,-0.366532,-0.764844,0.365103,-0.347529,-0.153017,-0.209329,-0.503957,0.115038,0.865892,0.244519,-0.748031,0.631724,-0.418917,-0.0893021,-0.0400892,-0.817283,0.851824,-0.995041,0.514851,0.377311,-0.870352,-0.792125,-0.295466,0.132139,0.566274,0.807086,-0.699756,0.936294,0.0564656,-0.391602,-0.891002,0.721083,0.989691,0.984713,0.295493,-0.26193,0.575091,-0.31153,-0.170413,0.24332,-0.699728,0.201614,0.615983,0.0955916,0.566457,0.736765,-0.700654,-0.480357,-0.698659,0.0717267,0.963962,-0.500802,0.616031,0.667874,0.700232,-0.287144,-0.471244,0.638923,0.268246,-0.0904537,0.420578,-0.626818,-0.905175,-0.398838,
-0.328231,0.568071,0.813954,-0.159886,-0.816927,-0.837473,0.344,-0.551236,-0.866612,0.633598,-0.0912534,-0.617005,-0.341464,-0.569036,0.5074,0.145741,0.694136,-0.319725,-0.711711,-0.792714,0.716891,0.291028,-0.53929,0.41777,-0.740212,0.243553,0.389587,-0.0788344,-0.587602,0.268646,-0.501833,0.886844,-0.28966,-0.930633,0.517846,-0.990581,-0.243745,-0.826104,-0.661251,-0.633919,0.378315,-0.53616,-0.711445,-0.152168,0.243891,-0.0668829,0.524969,0.875011,-0.230271,-0.615355,0.982107,0.454937,0.114177,-0.245153,-0.616996,0.337958,0.0174516,-0.239606,-0.874241,0.826632,-0.199565,0.707964,-0.248341,0.552305,-0.0505694,-0.546824,-0.93958,-0.255653,-0.407296,0.325081,0.161252,0.643997,0.00296958,0.175233,0.808749,-0.385259,0.855323,-0.657433,-0.736653,-0.502235,0.418899,-0.947084,-0.161341,0.451436,0.402677,0.838001,-0.719599,0.155017,0.593286,0.959096,-0.327145,-0.30225,-0.155517,0.811918,0.492508,-0.244966,-0.305927,0.239543,-0.383336,0.565564,
0.665254,0.861737,-0.536989,-0.547572,-0.897396,0.739003,-0.426033,-0.389944,-0.180804,-0.760711,-0.671788,-0.668815,0.869805,-0.35509,0.640837,0.112749,0.365184,0.404494,-0.626642,-0.227659,-0.652881,-0.0531579,-0.346395,-0.11044,-0.575889,0.780364,-0.0180001,-0.955954,-0.888422,-0.486646,0.933998,-0.612285,-0.620959,-0.220345,0.74136,0.234607,-0.941824,-0.888355,0.680767,0.225643,0.24942,0.784701,0.628335,-0.403513,-0.162233,-0.676872,0.198618,-0.786005,0.133253,0.0575176,-0.842227,0.721775,-0.654246,0.584184,0.943651,0.913186,-0.714275,0.933942,0.0753215,-0.78809,0.47598,0.646324,-0.362191,-0.0216315,-0.879566,0.289319,-0.114523,0.295326,-0.453189,-0.0240053,-0.460326,-0.712299,0.0940041,0.572381,-0.29103,-0.115652,0.729415,-0.413781,0.617018,-0.447074,-0.474748,-0.518599,-0.446917,-0.493507,-0.628966,-0.695847,0.583614,-0.758628,0.811708,-0.319724,0.938391,0.710827,0.957054,0.784192,-0.344495,-0.263251,0.496433,-0.626432,-0.566344,-0.78942,
0.353662,-0.0293704,0.607108,0.976813,0.640071,-0.629684,-0.730619,-0.685232,0.798064,-0.0479126,-0.706187,-0.934024,0.47735,0.65029,0.764213,0.90803,-0.416716,0.326761,-0.779488,0.106407,-0.520229,0.685228,0.436451,-0.185524,-0.427923,-0.258106,-0.303714,-0.979077,0.17736,0.871242,0.416502,0.389735,0.580913,-0.668125,0.281823,0.668445,-0.0249129,0.0908798,0.363617,0.614186,-0.188062,-0.218805,-0.970674,0.0810018,0.399429,-0.145368,-0.160956,0.113959,0.884879,-0.535405,0.707279,0.466828,0.429752,0.585504,-0.385705,0.221958,0.339357,-0.87461,0.174978,-0.896788,0.807331,0.770264,-0.428617,0.894515,-0.998858,-0.331805,0.252746,-0.234007,0.590367,0.463693,-0.658897,0.633399,0.0555716,0.202078,-0.0934381,0.805279,-0.809615,-0.360523,0.620781,0.877102,0.944394,0.339253,-0.935941,-0.967419,-0.964608,-0.156742,0.279809,-0.958094,0.973582,-0.968846,0.943774,-0.519514,0.847012,-0.22228,0.057044,-0.457246,-0.226016,-0.734791,0.83606,0.125222,
-0.18373,-0.595275,0.497502,-0.158698,0.743342,0.96181,0.180553,-0.814967,-0.0370926,0.927214,-0.535089,0.905337,0.289313,-0.664733,0.946083,0.0164924,0.965436,0.426799,0.659392,0.654987,-0.768485,-0.157409,-0.413956,0.158664,0.576385,0.544367,-0.792536,0.549287,-0.158458,-0.753008,-0.17953,-0.562693,-0.0301665,0.0238843,-0.395354,0.848537,-0.561146,0.17904,-0.741041,-0.979186,-0.186664,0.792018,-0.328802,0.975634,0.588125,-0.102116,0.997391,0.915122,-0.104618,-0.679481,-0.0889571,-0.888662,-0.786366,0.427545,0.347843,0.652501,0.429791,0.737982,-0.222166,0.984483,0.135598,-0.163927,-0.46102,0.111377,0.2482,-0.916155,-0.392986,0.122925,-0.117761,-0.862147,-0.849364,-0.546401,-0.543001,-0.114148,-0.974153,-0.771217,-0.43716,0.57643,-0.544464,-0.853849,-0.0895659,0.255491,-0.602961,0.426312,-0.618359,-0.962161,0.764636,-0.956354,0.522429,0.474861,-0.991101,0.165433,-0.0857387,-0.0219009,0.123949,-0.270866,-0.301151,0.573833,-0.629533,0.278183,
0.7872,-0.726558,-0.847628,-0.055747,0.613099,-0.773073,0.316513,0.737458,-0.925156,0.530618,0.691002,0.157964,-0.240575,0.456505,-0.170589,0.656857,0.227861,0.212706,-0.30235,0.260481,0.0362437,-0.351405,0.603862,0.887583,0.983757,0.696385,0.806827,-0.994956,-0.07791,0.120806,-0.651244,0.50178,0.724081,0.485918,0.982095,-0.985441,-0.691594,0.175985,-0.726715,-0.576063,0.362639,-0.350082,0.905247,-0.361647,0.891763,-0.490848,-0.491609,0.324132,-0.463756,-0.466863,-0.52465,-0.735361,0.931883,-0.323327,0.745068,0.414745,-0.768981,-0.965362,-0.531737,0.126592,-0.761828,-0.325134,-0.247559,0.0929055,-0.965173,0.03785,-0.43946,-0.656243,0.472374,0.666614,0.757618,0.114248,-0.847485,-0.723387,-0.106521,-0.00966243,0.664085,-0.170029,-0.569928,-0.52089,0.647336,0.342693,0.186323,-0.737955,-0.927345,0.141272,-0.982051,-0.805242,0.342358,0.605051,-0.211982,-0.0368899,-0.661838,0.55273,-0.671072,0.32756,-0.471806,-0.0264175,-0.757819,0.79015,
-0.952381,0.147478,0.709486,0.719724,-0.174739,-0.0606781,0.265885,-0.189556,0.565973,-0.205695,-0.756193,0.475026,0.792944,-0.972564,0.970146,0.543691,-0.44804,0.201898,-0.265123,-0.676956,0.990806,0.328709,-0.800645,-0.79971,0.262782,-0.678974,-0.729205,-0.748326,-0.0470432,-0.415314,0.631073,0.201195,-0.361646,0.747872,-0.375592,-0.943202,-0.2047,0.60537,0.202636,-0.514993,-0.322984,0.364288,0.623477,0.804266,-0.809163,-0.391937,0.45987,-0.313209,0.308198,-0.164437,-0.81867,0.854013,-0.179838,-0.212528,0.218281,0.122141,0.237668,0.0995858,-0.399843,0.250975,-0.828735,0.346509,0.472349,0.176889,0.463548,0.996772,-0.149075,-0.383953,-0.126061,-0.532421,-0.129633,-0.233878,0.37095,-0.193909,0.168857,-0.80998,0.974832,-0.0608932,-0.0619159,-0.794577,0.364216,0.448294,0.661243,0.755041,0.637182,-0.277459,-0.52225,-0.382799,0.3332,0.754954,0.174675,-0.338238,-0.428279,-0.881895,0.246242,0.00403911,0.328304,0.560115,0.400618,-0.901762,
0.851289,-0.279456,-0.930348,-0.0863076,0.378612,-0.172049,0.293054,0.605891,0.254168,-0.910895,0.849758,-0.966741,0.0897668,0.594156,0.581002,0.167817,-0.774448,-0.503751,-0.859663,0.858124,0.38106,-0.695201,0.624438,0.879808,0.26051,-0.396942,0.952419,-0.777904,-0.431701,0.616971,0.205995,-0.68351,-0.974776,0.952425,0.481547,0.0716963,0.983678,0.751728,-0.731716,0.431975,0.704491,-0.0945223,0.337622,-0.289455,-0.426397,0.208676,-0.70432,-0.969284,0.304618,0.0709224,-0.0420912,-0.891473,-0.34139,-0.631185,-0.791074,-0.277416,0.529178,-0.622198,-0.879663,0.646676,-0.791585,-0.222331,0.497958,0.120253,-0.610352,0.615253,0.265924,0.95606,0.05403,-0.0353074,0.760006,0.166474,-0.083733,0.510913,-0.380809,0.489658,-0.957795,-0.354945,0.931447,-0.131087,0.698063,-0.0548992,-0.0382742,0.271673,-0.561314,0.82228,0.562707,-0.832631,0.616331,0.764319,-0.194454,0.66818,-0.613549,0.250901,-0.493367,-0.594497,-0.967937,-0.594105,-0.488659,-0.7788,
-0.983259,0.389839,0.288986,0.384629,-0.452993,0.855438,0.534167,0.491502,0.533366,-0.818244,-0.0340348,-0.0362873,-0.218849,0.564366,-0.125841,-0.248663,0.65205,-0.439769,-0.703735,-0.0253014,0.0232305,-0.745283,-0.224014,-0.847876,-0.00481326,-0.0333768,-0.704209,0.792544,-0.204151,-0.113069,-0.298448,-0.782641,0.165494,-0.85835,0.121737,0.135299,-0.300152,-0.122038,0.6019,0.31776,0.402053,-0.465791,0.350457,0.57143,-0.05519,0.29891,-0.214948,-0.665997,-0.782126,0.648815,0.847387,0.729249,0.563558,0.879504,-0.414569,-0.493419,0.446405,-0.215305,0.725027,-0.961213,0.438268,-0.282124,-0.173885,0.153116,-0.249405,0.801499,-0.491689,0.367528,0.893017,0.378412,-0.635431,-0.641275,0.952645,0.339765,-0.242522,-0.320632,-0.390579,0.56552,-0.133843,-0.565824,0.647749,-0.305796,0.944368,-0.893849,0.958674,-0.580857,-0.223678,-0.950331,-0.401645,-0.843424,0.254417,0.114775,0.0423237,-0.166267,0.0230927,-0.441924,0.137244,0.58187,-0.777844,0.230747,
-0.738461,0.986699,-0.934689,0.155711,0.256368,0.465368,-0.556373,-0.143452,0.873105,-0.357286,0.210554,-0.381414,-0.228834,-0.429469,-0.757067,-0.940316,0.243982,-0.91448,0.0588918,0.793883,-0.190528,0.550159,-0.719201,-0.512709,0.051007,0.989507,0.0974556,-0.672452,-0.920671,-0.609344,0.0614717,0.362333,-0.900224,0.756605,-0.921238,-0.80412,0.502712,0.420535,-0.604544,-0.212861,0.305835,0.68947,-0.279021,0.305089,0.719772,-0.433796,0.28522,-0.0232941,0.352174,0.455598,-0.138865,0.458676,0.344183,0.518996,-0.247869,0.913459,0.0539296,-0.268155,0.390883,0.757642,0.677193,0.0627356,0.60672,0.798883,-0.551145,0.36589,-0.747312,0.866575,0.180415,-0.572588,-0.35855,-0.636093,0.864494,0.583119,0.503884,-0.0209396,-0.405035,0.809571,-0.339282,-0.335771,0.248499,0.0743578,-0.0261245,0.818483,-0.514438,-0.156032,-0.172129,0.379054,-0.0151335,0.800234,0.220662,-0.866373,0.702693,-0.0288762,-0.126794,0.520339,-0.981539,-0.936492,0.627642,-0.943821,
-0.447781,-0.576184,-0.348989,-0.905685,-0.183729,-0.450538,-0.314435,0.363652,-0.898464,0.234096,0.884396,0.463616,0.310393,-0.763898,0.277454,0.204369,-0.175752,0.551452,-0.458566,0.45949,0.674834,0.391306,-0.653097,-0.486116,0.809428,-0.661778,-0.979712,0.483059,0.855135,0.462778,0.870172,-0.00616079,-0.873041,-0.685052,-0.660992,0.338801,-0.899242,0.149706,-0.00563912,0.714099,0.0951573,0.730559,0.178635,0.74286,0.642743,-0.54033,-0.823862,-0.744212,0.596282,0.559738,0.610516,-0.084453,0.567874,0.780592,0.688084,0.787319,0.328508,0.409682,-0.766546,-0.051156,-0.89308,-0.262769,-0.419877,-0.753603,0.20443,-0.215896,0.673471,0.931314,-0.743183,0.479187,0.469012,0.243086,0.518603,-0.0594011,0.0323122,0.52566,-0.407125,0.565173,0.868407,0.245724,0.262884,-0.67085,-0.0532783,0.0581356,0.499742,0.190559,-0.350129,0.911142,-0.356105,0.467526,-0.47648,-0.880473,-0.446015,0.119817,-0.511325,-0.479128,0.678622,0.383592,-0.747379,0.417747,
-0.835717,-0.782053,-0.912404,-0.269703,0.749587,-0.334253,0.323751,-0.555077,-0.747504,-0.0390155,0.533318,-0.854978,-0.937972,-0.424658,-0.548414,0.558505,-0.567556,0.712589,0.16081,0.129715,0.814735,-0.355583,-0.617831,0.549005,0.254776,0.455316,-0.982904,0.819714,-0.0334215,0.800971,0.874616,-0.646918,0.863227,0.869784,-0.0918854,0.855522,-0.664799,-0.656309,-0.673202,0.355439,0.196006,0.187623,-0.501585,-0.0705639,-0.903281,-0.735813,0.877657,-0.643202,-0.597156,-0.154289,0.485735,-0.581826,-0.260254,-0.46982,-0.642524,0.963116,0.917781,0.168102,-0.261365,-0.946695,0.829567,0.00153781,-0.308592,-0.838615,0.0930428,0.33477,0.688017,-0.166453,-0.729299,0.557593,0.28071,-0.0210086,-0.990388,-0.725313,-0.606365,0.4645,0.633651,0.1438,-0.350542,-0.277238,-0.668378,0.392666,-0.537403,-0.10245,-0.991564,-0.198697,-0.453917,0.280583,-0.0688409,-0.938222,-0.361939,0.268444,-0.68255,-0.635933,-0.563803,0.854805,-0.890242,0.603431,0.777136,0.836785,
-0.557928,-0.462313,-0.444503,-0.543711,0.903581,0.942596,0.420395,0.963123,0.465836,0.752825,0.752643,0.298678,0.680866,0.603837,0.359586,0.34649,0.11675,0.664792,-0.106698,-0.839182,0.00599634,0.276428,0.483346,0.0320077,-0.512002,-0.72051,-0.818444,0.809692,-0.459335,0.797272,-0.946677,-0.351473,0.0136564,-0.865996,-0.196239,0.0160096,0.508262,0.375497,-0.282485,-0.288291,0.0763556,-0.104597,-0.468097,0.328054,-0.738559,-0.937707,-0.779051,-0.523384,0.936266,0.224594,-0.649787,0.855515,-0.711294,-0.188826,-0.146727,0.423551,-0.202129,-0.377855,0.351924,0.546512,0.968745,-0.570508,-0.138059,-0.288041,-0.502193,-0.874472,-0.895508,0.605715,0.312457,0.803677,-0.918117,-0.108267,0.5071,0.965866,0.0569888,-0.285299,-0.99748,-0.512741,0.576572,-0.853819,0.606903,0.9348,0.956826,0.125859,-0.671542,-0.439821,0.474048,0.11949,0.654093,-0.259137,-0.416104,-0.715841,0.107293,-0.278116,-0.198388,-0.568492,0.477712,-0.406194,-0.537552,-0.150581,
-0.272107,0.786309,-0.0134003,-0.229401,0.275323,0.860168,0.115078,-0.47387,0.546171,-0.309251,0.705814,-0.375394,0.152561,0.767558,0.434455,-0.974986,-0.343293,0.699307,-0.303919,0.703386,0.393678,0.887963,0.00216303,0.718328,-0.549994,0.150149,-0.558346,-0.687986,-0.110736,-0.88321,0.598389,-0.237222,-0.813979,0.751338,0.0367257,-0.512039,0.71937,0.356696,-0.633823,-0.815159,0.00638155,-0.532554,0.193049,-0.819074,0.0720294,0.63108,0.462896,0.529481,0.303576,-0.987727,-0.571156,0.25125,0.123592,0.939099,0.802282,0.589552,0.222276,-0.212603,0.220873,0.835892,0.871738,-0.398978,0.317897,0.335792,-0.812056,0.88692,-0.338228,-0.849758,-0.412576,0.748694,0.682025,-0.562994,-0.376856,-0.401422,0.654759,-0.692511,-0.0330466,-0.455704,-0.0660078,0.525092,-0.941524,-0.484105,0.568878,-0.280779,-0.573961,-0.452508,-0.22599,0.903947,-0.312917,-0.0609391,0.691496,-0.770017,-0.560888,0.0137244,-0.479351,-0.488094,-0.453115,0.274904,0.644499,0.827523,
0.283689,-0.709788,-0.833586,0.611883,-0.694962,-0.800614,-0.213634,-0.116458,-0.00138789,0.337016,0.446703,0.718941,-0.00726827,-0.603618,-0.810107,0.682748,-0.0321636,0.826798,-0.242034,-0.57772,0.908401,0.899001,0.695117,-0.281634,0.868853,-0.129884,0.572665,0.379789,0.886642,-0.474796,-0.507701,0.952009,-0.162542,-0.132638,0.779815,0.97997,0.265924,-0.454388,-0.583113,0.307769,0.597087,0.339301,0.149539,0.830035,0.467919,0.484659,0.102588,-0.696689,0.571941,0.483235,0.682446,0.983656,-0.0136606,-0.0558723,0.725905,-0.0970928,-0.962445,-0.428923,-0.14102,-0.555098,-0.722918,0.837219,-0.623078,0.193606,0.35413,0.731614,0.850418,-0.355208,0.392847,-0.150492,-0.493585,0.513083,0.595636,0.314506,0.136949,0.707703,0.0955954,0.366403,0.209673,-0.486027,-0.155472,0.790702,0.0635745,0.718249,-0.26505,-0.11745,0.12172,0.347181,-0.956323,-0.725783,0.729519,-0.672873,0.397424,0.072542,0.661332,-0.795211,-0.103654,0.38737,-0.415296,-0.788275,
-0.0172236,-0.253056,0.328083,0.516003,-0.301644,-0.453134,-0.783497,0.826626,0.698069,-0.591906,-0.407263,0.228974,-0.538676,0.039956,0.522896,0.902597,-0.686403,-0.147053,-0.788053,0.945687,0.0397287,0.504598,0.690669,0.227205,0.0549172,0.326571,0.283205,-0.11238,-0.580452,-0.876225,-0.65269,0.232445,-0.579721,-0.118124,-0.94256,-0.272239,0.22753,0.442849,0.769623,-0.00596291,0.000586722,0.988725,0.757342,0.435586,-0.305194,-0.993666,-0.890629,0.276262,-0.962222,0.290031,-0.0517281,-0.137962,0.791823,0.560306,-0.726512,0.79699,-0.908776,0.457072,0.551093,-0.502521,0.742718,0.63832,0.974043,0.87656,0.448855,0.547167,-0.951176,-0.72003,-0.822307,-0.970198,-0.382484,-0.0159686,0.346251,-0.790312,0.523548,-0.40874,-0.885561,-0.133479,0.576482,0.801824,-0.294728,0.208708,-0.92589,-0.0460845,-0.0358137,0.832122,-0.771168,0.928277,0.705653,0.599528,-0.0623282,-0.60927,0.73891,0.708639,0.251293,0.124565,-0.950238,-0.706482,-0.0543903,0.683706,
-0.378787,0.938351,0.180205,0.639877,0.736021,-0.750887,0.952869,-0.342693,0.0581435,0.876003,0.603461,-0.471253,-0.871078,0.835556,0.589022,-0.741456,0.672301,-0.229475,-0.0939674,0.9039,0.634289,-0.977453,-0.653225,-0.556822,0.143367,0.818214,-0.162738,0.130937,0.568371,-0.647683,-0.667771,-0.242749,0.846044,-0.647291,0.331158,-0.016696,-0.620114,-0.662017,0.823347,0.201469,-0.430537,0.116849,-0.322444,-0.792781,0.130139,-0.805619,0.0844413,0.953748,-0.144429,0.229967,-0.657175,-0.249714,0.247147,0.871116,0.363829,0.997597,0.775985,-0.627283,-0.713642,-0.0789555,-0.209668,0.916783,0.947388,0.848014,-0.138288,-0.93283,0.704577,0.570231,-0.490592,-0.680272,-0.594011,0.0307774,-0.476449,0.592076,0.305341,-0.69895,0.528589,0.257994,-0.267077,-0.663693,0.161803,-0.773828,0.105633,0.789376,-0.0888611,-0.750628,-0.236038,0.102383,-0.534978,-0.217295,-0.237401,-0.141941,-0.233926,-0.984413,0.928171,-0.697571,0.758345,0.264294,0.280937,-0.778068,
-0.897127,0.449315,0.598058,-0.0609331,0.373356,0.853652,0.831095,-0.8642,0.1156,-0.966366,-0.162462,0.960886,0.957602,-0.0756094,-0.26636,0.10579,-0.956786,0.682081,0.849024,0.587124,-0.519216,-0.853033,0.318038,0.8851,0.522465,0.703138,-0.87461,0.292333,-0.814415,-0.0973114,-0.113525,0.666348,0.495988,0.217495,-0.460607,0.883418,-0.308248,0.42678,0.132627,-0.465203,-0.591765,-0.889065,-0.114292,0.765013,0.0289159,0.411697,0.84703,-0.76877,-0.907568,-0.939935,-0.0952918,-0.6882,0.307875,-0.834769,-0.76485,0.138937,0.422392,-0.822447,-0.40356,0.378406,-0.391812,-0.642078,0.576878,-0.417417,0.451951,-0.806398,-0.267826,0.726063,0.950395,0.841328,0.580502,0.650012,-0.276912,-0.485068,-0.0884315,-0.0135445,-0.907003,-0.035517,-0.0262941,0.151902,0.395442,0.107829,0.453782,-0.647205,-0.38233,0.544036,-0.0805715,-0.868463,-0.022182,0.621235,-0.990873,0.276619,0.0983715,-0.133064,0.460679,0.348662,-0.173658,-0.714342,-0.283673,0.574145,
-0.66039,0.270697,-0.454961,-0.190886,0.942749,0.457159,0.775619,0.42095,-0.145897,-0.345954,-0.0359166,0.33789,-0.413518,-0.701618,0.698017,-0.0726001,-0.399278,-0.755093,0.680558,0.119167,0.1691,0.977106,0.984411,-0.840185,-0.784664,0.953638,0.769669,0.581276,-0.563481,0.42869,0.784543,-0.86423,-0.809138,-0.842891,-0.0664489,-0.520025,0.546237,0.846423,0.436069,0.100529,0.90382,0.22079,0.9223,-0.957531,0.477682,-0.439037,-0.974398,-0.128714,0.691864,-0.201513,-0.71055,-0.0987898,0.621623,-0.25913,-0.670983,0.573597,-0.0966172,-0.574884,0.340492,0.744969,0.675951,0.997607,-0.000714336,0.365184,-0.712285,-0.93588,0.958742,0.64726,0.0312149,-0.747863,0.0308903,0.331472,-0.0529339,0.00994225,-0.74689,0.416015,-0.0264824,-0.989958,-0.795439,0.771372,0.32268,-0.227765,0.0794429,-0.233639,0.428184,0.717614,0.371674,0.609346,0.984301,0.79334,-0.804675,-0.402003,0.0387654,0.253424,0.246251,-0.920148,0.453385,-0.402247,-0.127224,-0.955347,
0.448776,-0.971139,0.67199,-0.73008,-0.804281,-0.199916,0.994103,0.723951,-0.126325,0.32143,0.595949,-0.0661784,0.908426,-0.93209,-0.304806,-0.371536,0.812756,-0.725175,0.503077,0.845214,0.889067,-0.387202,0.574735,-0.930782,-0.918711,0.362677,0.994094,0.743071,-0.630923,0.533894,-0.349112,-0.344203,-0.352118,-0.79973,-0.486617,0.684081,0.513077,0.331377,0.831822,0.833576,-0.47762,-0.60663,-0.403455,0.625496,-0.474987,0.825391,-0.191009,0.824985,0.08798,0.844365,-0.572377,-0.961573,-0.309263,0.608957,0.919487,0.543153,0.512239,-0.572687,-0.358808,0.544309,0.732677,-0.486927,-0.215437,0.159999,-0.782593,0.0862696,0.566778,0.881999,-0.44452,-0.0828658,0.269037,-0.958742,0.746849,-0.351193,0.718174,0.044872,-0.134333,0.0662901,0.321839,-0.8248,-0.909473,-0.69966,-0.429735,-0.223992,-0.942623,-0.582691,0.81909,0.859599,0.403155,-0.408867,-0.947974,0.162046,0.196601,-0.467064,-0.180067,-0.800456,-0.0665159,-0.717399,-0.448623,-0.638791,
-0.831654,0.82868,-0.252938,0.800399,0.991785,0.38595,-0.610257,-0.1273,-0.237135,-0.0515214,0.219042,-0.275027,-0.225667,-0.609577,-0.314362,0.705332,-0.715782,0.336704,0.780995,0.65075,-0.701523,-0.982274,0.874891,0.992656,0.266458,0.0405906,0.605473,-0.162756,-0.781891,-0.665625,-0.927983,0.708168,-0.259733,-0.159675,-0.324668,0.507894,-0.902174,-0.171944,0.0257197,0.259,-0.476018,-0.762136,-0.983913,0.847702,-0.518531,-0.25101,0.812824,0.434311,0.0458055,0.616081,-0.817684,-0.79026,-0.701349,0.239073,-0.030094,0.94235,0.357055,0.749867,-0.224369,0.579972,-0.417291,0.0197082,-0.61963,-0.720274,-0.870081,-0.91055,0.603901,0.950833,-0.0709575,0.883842,0.621523,-0.413018,0.298493,-0.149716,0.033854,-0.292196,0.98728,0.0170733,-0.144875,-0.850999,0.431745,0.991056,-0.196855,0.613145,0.839541,-0.143821,-0.928963,0.941756,-0.440738,-0.633819,-0.996462,-0.810314,0.246009,-0.0970039,-0.0472996,0.347838,-0.550165,-0.669291,0.0411795,-0.19731,
-0.218747,-0.721272,-0.276812,-0.775154,-0.397098,0.0678353,0.462853,0.469733,0.0656058,0.189347,0.637909,0.33629,-0.856325,-0.465039,-0.253475,-0.111373,0.134512,0.566886,0.0700488,-0.896171,0.646638,-0.688038,0.87164,0.375816,0.288313,-0.683519,0.794118,0.838232,-0.232192,0.409579,-0.788429,0.988433,0.945757,0.0298101,0.35204,0.877141,-0.048667,0.787208,0.606194,0.421665,0.185329,0.40108,-0.64074,-0.205024,-0.895947,0.494256,0.310726,0.410977,0.603212,0.562946,0.795401,0.872639,-0.627247,0.670057,0.106726,-0.0581754,-0.698114,-0.280239,-0.705571,0.250551,-0.735555,-0.0767932,0.898365,-0.391163,-0.600824,0.734546,-0.607824,-0.511544,0.604283,-0.70755,-0.103127,-0.609352,0.189432,-0.324017,0.988946,0.94532,-0.202019,0.480282,-0.597491,-0.836592,-0.922504,-0.78316,0.571822,0.0352347,-0.713071,-0.971089,0.0139012,0.195495,-0.607355,-0.302041,-0.217981,0.262087,-0.962378,-0.650344,-0.383235,0.423718,0.614079,-0.840748,0.500328,0.76772,
0.0935804,-0.933172,-0.694783,0.271684,0.141981,0.149682,0.66222,0.6709,0.287817,0.142289,0.96074,-0.639486,-0.290788,-0.496713,-0.742447,-0.965625,-0.411216,-0.182982,-0.878646,0.687817,0.843459,0.576109,-0.148311,-0.7923,-0.271513,-0.598943,0.0842305,0.384321,-0.000239293,-0.975691,0.650867,-0.537113,0.833199,-0.0299724,0.119256,0.149762,0.797903,0.857122,0.76828,-0.23033,0.491362,0.209641,-0.289076,-0.000119958,-0.861796,0.158057,-0.357646,0.499861,-0.777358,0.655622,0.772675,-0.279159,-0.154941,0.0911758,0.985684,0.149143,-0.994798,0.438423,-0.839902,0.498834,0.820525,0.691329,0.89758,0.555777,0.564185,0.980769,-0.610415,-0.0434628,-0.339505,-0.951547,-0.877251,-0.197695,0.0422419,0.405701,-0.389653,0.306515,0.430977,0.66509,0.247588,0.89384,0.38382,-0.402775,-0.57831,0.396844,0.588885,-0.708624,0.831685,0.230561,-0.383112,0.190032,-0.00723582,0.33745,-0.106609,-0.163521,-0.371724,0.367094,-0.452383,0.540036,0.795857,-0.749705,
-0.724128,-0.401679,-0.997397,-0.0418904,0.726066,-0.329329,0.661606,-0.496774,-0.090625,-0.874503,0.396071,0.933746,0.946016,-0.0315932,-0.748107,0.0822306,-0.412174,-0.73192,0.910517,0.153702,-0.228365,0.863937,0.556689,0.303968,-0.386931,0.867307,-0.734636,0.983296,-0.877906,-0.223007,0.237547,-0.912641,0.75757,0.945663,0.0587351,0.395856,0.456652,0.0442796,0.930604,-0.566319,0.716671,0.798952,0.762282,0.201263,0.939647,0.413756,-0.563202,0.0384959,0.147122,0.812751,-0.934155,-0.0464553,-0.0425042,-0.154079,-0.750464,0.152753,0.842944,-0.484827,0.326671,0.271149,0.677753,0.00568885,0.986618,-0.493715,-0.107586,-0.506217,0.468097,-0.0697551,0.691813,-0.386525,0.693582,-0.494214,0.751525,0.566549,-0.390806,-0.60219,0.452707,-0.0902955,0.0728369,-0.706844,0.901025,-0.603596,-0.128715,-0.680891,-0.590808,0.71002,-0.0830077,0.244527,-0.90948,0.602733,-0.120912,-0.716842,0.980832,0.551327,-0.802424,0.00346795,0.460833,0.605704,-0.875524,0.442232,
0.47116,0.863094,-0.61408,0.632377,-0.383597,-0.242127,-0.763447,-0.491109,-0.436777,-0.331726,-0.176183,-0.599531,-0.730924,-0.333466,-0.540525,-0.179403,0.718441,-0.722774,-0.0874008,-0.38973,0.0614762,-0.764355,-0.429641,0.939332,-0.183364,-0.522906,-0.914115,0.172749,0.690703,-0.462807,-0.231371,-0.282101,0.782693,0.788047,-0.681707,-0.511672,-0.408727,0.798256,0.842298,-0.790274,0.818838,0.94463,-0.643532,0.518776,-0.783103,0.354495,-0.717613,0.768871,-0.156739,-0.0515496,-0.0248388,-0.720556,-0.512889,0.163399,0.823543,-0.876071,0.911617,-0.125996,-0.57188,0.453334,-0.896876,0.387798,0.723297,0.466194,-0.170473,-0.806098,0.60571,0.340196,0.830336,-0.955203,0.454155,-0.420546,0.805917,-0.988612,0.662181,0.365683,-0.741119,0.25757,-0.247524,0.290451,0.655722,-0.170583,0.451553,-0.906134,0.0635289,-0.7028,-0.884152,-0.745101,0.900485,0.380012,0.771441,0.737692,-0.107121,-0.741434,0.00108026,0.581813,0.697561,-0.911967,0.781664,-0.548672,
0.108718,0.748927,0.473028,0.795884,0.331316,-0.775866,0.569462,-0.700134,0.76833,-0.288309,-0.0324218,0.0245565,0.624582,0.0433565,-0.315862,-0.149437,-0.867938,-0.682359,-0.081619,-0.378518,-0.136836,-0.549125,0.255862,-0.34389,-0.531284,-0.158838,0.638921,0.103947,0.557844,-0.289488,-0.364976,0.393726,0.74356,0.0423921,-0.76614,-0.843345,0.124698,0.280553,-0.0825994,0.709054,0.867242,0.240264,-0.631294,0.0742951,0.981926,0.179055,-0.889662,-0.908911,-0.967577,0.490879,0.330903,-0.0483571,0.725191,0.0015921,0.0175086,-0.0789719,-0.785287,0.997151,0.316152,0.16463,-0.58347,-0.261322,0.45116,-0.136468,0.435066,-0.832155,-0.560608,-0.442016,-0.984921,0.32714,0.596634,0.880963,0.800679,-0.0806404,-0.589485,-0.497706,0.234711,-0.812996,0.252443,0.142321,-0.687935,-0.501022,-0.387699,0.442408,0.705344,-0.0483804,0.592533,0.203602,-0.0322532,0.649126,0.315734,-0.870303,-0.845813,-0.979926,0.0193999,-0.459253,-0.715083,-0.0421567,0.702725,-0.575209,
-0.821776,-0.0767855,-0.303137,-0.452193,0.026093,0.305352,0.306601,-0.504748,0.991708,-0.277407,0.63067,0.333795,-0.854313,-0.578183,-0.705173,0.059811,-0.249549,0.594346,0.547457,0.227804,0.759953,-0.752753,0.161737,0.606124,0.869575,0.951342,-0.572712,0.900117,0.403721,-0.938014,0.459956,0.549529,-0.186993,-0.922011,0.654015,-0.447378,0.217151,-0.951839,-0.989123,-0.0813966,0.429158,-0.336316,0.483511,-0.798422,0.594319,-0.841666,0.945027,0.140316,0.897819,-0.192971,0.578767,0.0343894,0.474935,0.192354,0.79189,-0.00589313,0.852426,-0.643919,0.635558,0.704284,0.251157,0.52384,-0.871,-0.0944775,0.602041,0.605389,-0.882026,-0.311435,0.516583,0.140024,0.783093,0.196496,-0.271278,0.232969,-0.365299,-0.822033,0.762709,0.0300221,-0.67807,-0.606226,0.852401,0.696006,-0.183206,0.0881374,0.505793,-0.256272,0.22956,0.0209736,0.797571,0.69377,0.419863,-0.0675047,0.778072,0.262219,0.907963,-0.725048,0.23801,-0.102724,-0.22351,0.674846,
-0.494504,0.413083,0.631982,-0.911284,0.668744,-0.734973,0.859293,0.985324,0.0933077,-0.868369,0.490439,-0.4038,0.0249416,0.913486,0.419081,-0.00363544,0.155664,-0.214546,-0.836909,0.390041,0.670799,0.364528,0.822906,0.211887,-0.678034,0.0834593,0.203428,0.010465,-0.645247,-0.124131,0.644038,0.954316,0.918609,-0.838945,-0.0866018,-0.910966,-0.735516,0.720826,-0.618288,0.795128,0.761945,-0.133628,-0.667954,0.854808,0.553892,-0.130906,0.0692965,-0.139781,-0.224878,0.334573,-0.400052,0.454615,-0.324358,0.639327,-0.0158642,0.754834,0.269458,-0.16014,0.406312,-0.811272,-0.991208,0.214956,0.558374,-0.903433,0.475908,0.470787,-0.10933,0.991865,-0.0646208,0.203175,-0.0826079,-0.983962,-0.973766,0.285067,0.984733,0.5532,-0.0219837,0.7252,0.943577,0.946806,-0.789016,-0.395779,0.673342,0.161576,0.394908,-0.165233,0.695895,0.132099,-0.23387,0.0644657,0.260088,-0.0610197,-0.984788,0.900043,0.649821,-0.000858236,-0.351279,0.256025,0.040181,0.419825,
0.842811,-0.277135,0.126736,0.205758,-0.798798,0.917445,-0.216968,-0.952161,-0.0773329,-0.349717,-0.974248,0.905139,-0.500313,0.790333,-0.0547459,-0.253855,0.832388,0.435448,0.945206,-0.806981,0.520066,-0.28762,-0.444653,-0.801987,0.855873,0.580849,-0.554631,0.119413,0.85423,0.0485555,0.444778,0.582677,-0.325007,-0.590106,-0.80133,-0.693609,0.420275,0.375713,0.202916,-0.426572,-0.744497,0.388654,0.466583,-0.584554,-0.68733,0.7515,0.5143,-0.621592,-0.0658392,-0.485601,-0.13898,0.430254,-0.284501,0.840786,0.142285,-0.82722,0.287405,-0.479931,-0.657069,-0.818727,0.0843216,0.382598,-0.967694,0.521321,-0.362757,-0.274343,0.30748,0.464104,0.769524,0.962762,-0.0617688,-0.313987,-0.404489,0.473471,0.740513,0.783465,-0.8975,0.112748,0.129216,-0.186505,-0.774144,0.797106,0.461801,-0.127502,-0.507326,-0.733712,-0.403467,0.0756671,-0.67417,0.687384,0.952295,-0.322189,0.381017,-0.0358063,0.849401,-0.966184,0.868669,-0.566788,0.122216,-0.471575,
0.753767,-0.0224777,-0.20776,-0.938215,-0.878895,0.741689,-0.482683,0.718897,-0.695901,0.179382,-0.736838,0.68208,0.511803,0.128479,-0.6651,0.715306,-0.250952,0.589217,0.349026,-0.851117,0.357213,0.428773,-0.271358,-0.238251,-0.050329,-0.761956,0.815925,0.645159,-0.29008,-0.152529,-0.583384,-0.0959808,0.919044,-0.731322,0.474062,-0.433738,0.362188,0.565331,-0.247916,-0.754003,-0.0600805,-0.562393,-0.573488,0.456156,0.337588,-0.686287,0.363902,0.662192,-0.248688,0.00751521,-0.431886,-0.543182,-0.701471,0.142356,-0.274217,0.149454,-0.563019,0.799058,0.800088,-0.124297,-0.860689,0.691049,-0.84212,0.77748,0.157788,0.796987,0.81146,-0.361217,-0.712598,-0.748491,-0.855328,-0.702418,-0.259257,-0.865911,-0.793983,0.75181,-0.611801,0.109649,0.912577,0.891436,-0.604056,0.870035,-0.16906,-0.566544,-0.880889,-0.982935,-0.161246,0.322846,0.981917,0.772051,-0.784614,0.114735,0.483872,0.981794,0.117311,0.690731,-0.831374,0.13422,0.266901,0.183961,
0.299278,-0.679284,-0.795777,0.964394,0.451809,-0.308846,-0.842498,-0.225091,-0.651193,0.410495,0.967913,-0.399081,0.177905,-0.5714,0.0538046,-0.201761,-0.540231,-0.793544,0.55046,-0.924382,-0.626606,0.838012,-0.657606,0.140245,0.433221,0.253425,-0.671959,-0.961808,-0.453325,-0.677551,0.583068,-0.445873,0.40457,-0.680399,-0.640901,-0.188079,0.264113,-0.34373,-0.410923,0.765934,-0.361791,0.649717,0.753833,-0.832781,0.755705,-0.0882998,0.141738,-0.0907948,-0.119403,-0.234994,0.0631978,0.422588,-0.49925,0.523726,0.381924,0.555668,-0.00182552,0.191339,-0.905229,0.819993,0.959145,0.139995,-0.610882,-0.320896,-0.183515,0.540129,0.82279,0.754386,0.946273,0.429777,-0.173298,-0.0960557,-0.922235,0.161982,-0.421784,0.32906,0.311588,-0.19192,0.526308,-0.499383,-0.333585,-0.384946,-0.673082,0.650964,0.396009,-0.414995,-0.641332,0.781587,-0.258151,-0.131391,-0.560872,-0.210778,0.392975,0.773878,0.778485,0.983126,-0.00707501,0.153374,0.751326,0.981354,
-0.0848953,-0.0927136,0.952057,-0.126877,0.895649,-0.367204,0.84581,-0.0874042,0.11566,0.929486,-0.694509,0.291527,0.560271,0.0563851,-0.530578,-0.691435,0.341923,0.855769,0.143842,0.394129,-0.179935,-0.0815972,-0.695435,0.601304,-0.846328,-0.570999,-0.505683,0.0899662,0.753637,0.932321,-0.623514,-0.173775,0.341758,0.0254188,-0.678729,0.839105,0.146376,-0.0907329,0.279126,-0.557197,-0.411455,0.00987755,-0.501218,0.431705,0.976066,0.818722,0.025487,0.18251,0.198177,-0.177143,-0.257346,-0.399955,-0.617358,-0.596072,-0.92706,0.550012,0.0336314,-0.86943,-0.458947,-0.0289568,0.224083,0.654591,0.7051,0.796045,-0.852895,0.758778,-0.888677,-0.397466,0.992079,0.335561,-0.876187,-0.993239,0.570637,-0.0594124,0.910283,-0.877403,0.351469,0.94768,0.62487,0.165757,0.513589,-0.638892,0.34032,0.142635,-0.898046,0.821932,0.510624,-0.467448,-0.316047,0.145238,-0.930795,-0.10514,-0.524697,-0.546699,-0.530865,0.868952,-0.774621,-0.90129,-0.424804,-0.283632,
0.423605,0.786624,-0.256293,-0.574942,-0.397841,-0.181361,0.746217,-0.825307,0.109775,-0.0823492,0.171528,0.258738,0.3217,0.184877,0.433629,0.325382,0.875357,-0.762113,-0.447691,0.518959,-0.736269,-0.534485,-0.426372,0.0059461,-0.568033,-0.0391487,0.450045,0.706518,-0.0123828,0.826161,-0.266743,0.321841,-0.558872,-0.715744,0.132794,-0.876282,-0.59537,-0.0480849,-0.456049,0.351086,-0.581441,-0.160837,0.274913,-0.932875,0.125074,-0.408208,-0.279096,-0.175747,-0.707797,-0.844793,0.772519,0.305101,0.749604,-0.742002,0.846217,0.0997621,0.172163,-0.476644,-0.795421,-0.685397,0.307963,0.045453,0.34243,0.201844,-0.654221,0.4924,-0.540069,0.541096,-0.97287,-0.157757,-0.0707869,0.671648,-0.407208,-0.709307,-0.176008,0.638964,0.541081,-0.181201,-0.900334,-0.405725,0.496588,0.213467,-0.254861,0.669531,-0.584881,-0.754939,-0.890978,-0.0708787,-0.697052,0.190154,-0.564736,0.382187,0.889325,-0.321674,-0.268929,0.298073,0.237566,0.845839,-0.89294,-0.179229,
0.834363,-0.157965,0.0401526,-0.230824,-0.103165,0.591005,0.387006,0.305176,0.226351,0.561521,-0.431793,0.0865142,-0.936261,0.148233,0.12848,-0.733614,-0.582483,0.388705,0.44013,-0.125903,-0.114137,-0.295198,0.474138,0.635134,0.508938,-0.169166,0.556813,-0.466361,0.660247,0.138538,-0.602223,-0.897294,-0.688689,-0.969034,0.0633293,0.255408,0.863533,0.122608,-0.480274,-0.220456,-0.621409,-0.0303079,-0.797289,0.479189,-0.657018,0.218684,-0.203249,0.688215,-0.770032,-0.302582,0.130305,0.381383,-0.37631,0.873153,-0.985606,-0.00227222,-0.668023,0.305982,0.00266445,-0.344361,-0.0309362,-0.384814,0.211996,-0.421228,0.83043,0.138291,-0.140319,0.710224,-0.562192,-0.589537,-0.190444,0.254155,-0.776728,0.913846,0.804863,-0.328627,-0.157032,0.0488495,-0.778765,-0.852865,0.0328008,-0.0608847,-0.378413,-0.138606,-0.0112229,-0.0932565,-0.830155,-0.720336,0.193182,0.930605,-0.561102,0.301044,-0.119587,-0.820689,0.437358,0.954354,-0.788714,-0.150019,0.914015,0.986992,
0.0614347,0.642494,-0.432065,0.421012,-0.71972,0.101039,-0.354045,-0.901023,-0.631677,0.354622,0.368734,-0.495134,0.438212,-0.354046,-0.543214,-0.782577,-0.250418,0.213241,0.318878,-0.926148,0.606094,0.231602,-0.011595,-0.262512,0.505174,-0.856393,0.669554,-0.341915,0.4054,-0.968299,-0.910695,-0.158723,0.147594,-0.000671362,0.982693,-0.192545,-0.109313,-0.436524,0.532247,0.944585,0.0994588,0.166777,0.815554,0.288391,0.756117,0.285739,0.48732,0.714639,0.472999,-0.346535,0.562095,0.651287,-0.728213,0.225475,-0.642056,-0.5986,0.481022,-0.791547,0.476767,0.804409,0.457104,0.147267,0.431037,-0.934435,0.807566,-0.0588824,-0.869167,0.473191,-0.455789,0.460861,0.98181,-0.519989,0.0779702,-0.224679,0.487587,-0.352558,-0.532894,-0.983894,-0.493516,0.108156,-0.91069,0.929012,-0.181542,-0.419599,-0.255887,-0.326925,0.375508,-0.0174342,-0.48452,0.510282,-0.377923,0.802555,-0.94357,-0.301587,0.595329,-0.485834,0.781417,-0.284032,0.510718,0.172288,
0.397933,0.65384,0.558323,-0.0566119,0.315221,0.939562,0.815557,0.42971,0.469891,0.292118,0.495469,0.13866,0.626357,0.59683,-0.895235,0.329254,-0.604373,0.373451,-0.541472,-0.649489,0.856015,0.955081,0.723201,-0.463582,0.317679,-0.934168,-0.507515,0.780385,-0.0947762,0.896649,-0.588835,0.366067,-0.665715,0.748011,0.526189,-0.0273379,0.729007,0.717522,-0.182068,0.541776,0.87174,0.76804,0.294697,-0.579367,-0.511167,-0.729069,-0.638942,0.386283,-0.11907,-0.025006,-0.846116,0.702284,0.481384,-0.382873,0.843058,-0.063909,-0.195363,0.22699,-0.3311,-0.496712,0.686357,-0.213159,-0.0599378,0.781588,0.40791,-0.503215,-0.938662,-0.223241,-0.165225,0.571221,0.161055,-0.130318,0.490566,-0.969831,0.893932,-0.843666,0.738786,0.0903304,-0.806504,0.994562,-0.793826,0.771821,0.839101,0.999231,0.469586,-0.320573,-0.724395,0.0589537,0.520097,-0.751759,0.453341,-0.749713,-0.156418,0.747687,0.574584,0.559653,0.955527,0.911088,-0.178769,0.967828,
0.410779,0.082473,-0.425604,-0.599347,-0.385975,-0.232087,0.0223059,0.447878,0.760088,0.595768,0.79652,0.867859,0.657541,0.689878,-0.216025,-0.565707,0.000225833,0.945109,-0.465144,0.25337,0.829408,0.228732,0.653748,-0.347407,-0.32054,0.739809,-0.635118,-0.359727,-0.802732,0.283281,-0.481483,0.261121,0.7349,0.340606,-0.441041,-0.809352,0.162177,0.41128,0.938295,-0.483394,0.515944,-0.877886,-0.316976,-0.501443,-0.496701,0.409529,-0.940826,-0.822886,0.348298,0.789642,0.373494,-0.286852,0.0268467,-0.055,-0.423343,0.852912,0.468057,-0.621631,0.96262,0.88876,0.0236299,0.958651,0.424704,-0.337298,0.83858,0.846294,-0.684215,-0.10819,-0.473785,-0.342855,0.111541,0.443307,-0.137314,-0.474199,-0.63709,0.268079,0.741693,0.130438,0.644062,-0.463193,0.305156,0.990322,-0.381835,0.561484,-0.241462,-0.214869,-0.570604,-0.830038,-0.322434,0.447549,-0.92633,0.250446,0.084726,0.148225,0.585109,-0.437733,0.472387,-0.457734,0.924036,0.650591,
0.747449,-0.747386,-0.495502,-0.11267,-0.0682947,-0.993265,0.536282,0.705977,-0.11923,0.231019,0.274487,0.285803,0.982554,-0.123921,0.436598,0.798249,0.190656,-0.731194,0.174163,-0.26093,0.314422,-0.749278,-0.475964,0.493577,-0.187695,-0.380096,0.0473614,-0.656901,-0.178781,0.895461,-0.483567,0.641122,-0.545677,0.380743,0.105385,0.195279,0.294246,0.947197,0.416883,-0.652006,-0.12707,0.573801,0.664547,-0.943362,0.837331,0.370746,-0.69296,-0.580836,0.150945,-0.740159,-0.288881,0.554993,-0.596991,-0.620701,0.82353,-0.0398502,0.782552,0.567141,-0.100073,0.0638386,0.349058,0.693442,0.795163,-0.828803,-0.277762,0.294183,-0.254913,0.0844143,0.744445,0.110092,-0.226447,-0.915603,0.174672,-0.43242,-0.783384,0.255659,-0.774713,0.642497,-0.101865,0.0524811,0.309187,0.153593,0.983182,-0.225484,-0.356911,-0.274952,-0.397296,0.529006,0.139863,0.159795,-0.472194,0.174266,-0.729871,0.832884,-0.60249,0.203617,-0.0616417,0.183064,0.670013,0.321723,
0.0829667,0.0922642,-0.589516,-0.625875,-0.97015,-0.724932,0.218415,-0.930975,0.99527,0.362403,0.803426,-0.716826,0.751753,-0.45267,-0.513973,0.963338,-0.733072,0.44353,0.745095,0.922179,-0.361547,-0.167101,-0.606856,-0.489601,0.00462765,-0.317834,-0.767292,-0.0830493,-0.12087,-0.90931,-0.419242,0.313018,-0.265575,0.135165,-0.21925,-0.959729,-0.155824,0.138007,0.183088,0.381506,-0.72528,-0.780639,0.255622,0.0484595,0.179176,-0.0542546,-0.363124,-0.693042,0.128952,0.282909,-0.00679965,-0.47784,-0.0274025,-0.24291,0.369071,-0.458929,0.766444,-0.772767,-0.747953,0.0459424,0.795368,-0.26311,-0.822733,-0.765953,0.942639,0.882155,0.537288,-0.463617,-0.668612,0.085352,0.713554,-0.97306,0.0911026,0.104323,-0.822868,0.846638,0.0886648,-0.130628,-0.623406,-0.389935,0.518918,-0.796125,-0.0221417,-0.962821,-0.380824,0.508644,0.153346,0.527628,-0.467964,-0.624979,0.939314,0.771704,-0.485279,-0.219715,-0.183825,-0.78118,-0.112348,0.627244,0.373036,0.26319,
0.475487,-0.5264,0.156485,-0.262817,0.00599003,0.742223,-0.838229,-0.162095,0.895251,-0.638753,0.662547,0.905042,-0.888365,-0.591775,-0.0429078,-0.432822,-0.522161,-0.877683,-0.138493,-0.722942,0.136639,-0.811419,-0.679944,0.141628,-0.849673,-0.160495,0.460758,0.943644,-0.0406824,-0.641734,-0.18663,0.0126249,0.3269,0.990861,0.323512,-0.624467,0.806932,-0.0835148,0.122511,0.517297,0.883762,-0.948228,-0.149136,-0.26956,-0.930807,0.121514,0.0353086,0.740048,-0.713048,-0.484928,0.054623,-0.345721,0.0840147,0.193233,0.372925,0.416527,-0.382494,0.866118,-0.226567,0.18911,-0.11565,-0.0730909,-0.464608,0.885509,-0.633807,-0.534465,-0.539733,0.476181,-0.835631,0.731898,0.426666,-0.838752,0.529498,0.753866,0.183045,0.396041,-0.599646,0.240339,0.662628,-0.0927133,0.487055,-0.00660102,-0.640106,0.174231,-0.136256,-0.794198,-0.233041,-0.872878,-0.309662,0.534734,-0.538196,-0.651139,-0.662031,-0.978513,-0.511709,-0.761954,-0.317321,0.921198,-0.911121,-0.278452,
0.636823,0.695949,-0.93193,0.950412,-0.899008,-0.305135,0.129063,0.725116,-0.829817,-0.34749,-0.495902,-0.204058,-0.386001,-0.567612,-0.601986,0.7292,0.880898,-0.151071,0.702887,-0.956194,0.197724,0.465894,0.7927,0.379819,-0.407607,-0.133912,0.71072,0.655562,0.379301,-0.838496,0.971529,-0.676847,0.964767,0.742059,-0.645498,-0.953435,0.668937,0.385998,0.246185,0.227942,0.975265,-0.466079,0.387892,-0.026118,-0.27275,-0.789627,-0.017384,-0.566125,0.531665,0.184666,0.809891,-0.264426,-0.598613,0.586633,0.453005,-0.719341,0.190062,-0.288814,-0.331655,0.813025,0.188888,0.871473,-0.856102,-0.835485,0.116753,-0.513334,-0.7393,-0.923334,0.225835,-0.546881,0.850985,-0.122509,-0.0835084,0.244749,0.891595,-0.838848,0.309519,0.547235,-0.125988,0.950714,0.628142,-0.709219,0.374937,-0.797725,-0.67464,-0.0302714,-0.441874,0.0259098,0.95158,0.570107,0.00624683,0.482533,0.377295,-0.878334,0.861999,-0.255503,0.396971,0.517753,0.73348,0.419619,
0.237805,-0.32303,-0.507046,-0.126643,-0.607904,0.34176,-0.724694,0.504236,0.43758,-0.010618,-0.480499,-0.145041,0.439149,-0.703512,-0.76035,0.703379,0.531086,-0.109951,-0.693581,-0.087415,-0.657282,-0.862142,-0.740037,-0.404741,0.942,0.765316,0.811825,-0.624699,-0.0348087,-0.551365,0.987183,-0.678389,-0.170845,-0.583826,0.445341,0.649849,-0.217011,-0.278105,0.821228,-0.0447274,-0.840616,-0.91118,0.59094,-0.411789,0.675281,0.704011,0.423986,-0.985885,0.725992,0.394498,0.965334,-0.797181,0.287139,0.908104,-0.879145,-0.0681127,-0.140389,-0.82798,-0.56905,0.743572,-0.924502,-0.359931,-0.0280088,0.555584,-0.697239,-0.448438,0.00335738,0.700171,0.655577,-0.100929,-0.261627,0.372762,-0.942563,0.589481,-0.168033,-0.8567,-0.187438,0.503052,-0.876264,0.526967,0.520704,-0.990511,0.196474,0.731651,-0.157613,0.589244,-0.126844,0.579449,-0.652222,0.598986,0.560465,-0.92438,0.577653,-0.312294,0.220573,0.43712,0.34946,0.397474,-0.812318,-0.531594,
0.195474,-0.398596,-0.444745,-0.919145,0.434777,-0.611705,-0.818084,0.873753,-0.53741,-0.431951,-0.162946,0.149231,-0.0667098,-0.545123,-0.902571,0.315357,-0.0897468,0.589384,0.657555,-0.738121,-0.782907,-0.806988,0.464746,-0.523355,0.348961,0.191335,-0.725444,0.661804,0.362694,-0.776927,0.19511,-0.901232,0.834932,-0.789622,-0.116766,0.553047,-0.472685,-0.909555,-0.242617,0.752289,-0.87597,0.0667493,0.643557,0.396028,0.417872,0.659033,0.481093,-0.664845,-0.945838,-0.371831,0.73197,0.979504,0.280698,0.161602,-0.57404,0.81685,-0.273373,-0.232772,-0.781787,0.753103,-0.141678,0.429998,-0.112836,-0.945004,0.262783,-0.56987,0.673019,-0.740937,0.744125,-0.116066,0.731156,-0.662631,0.0666291,-0.337236,0.854973,0.377171,-0.118253,-0.940343,0.0126072,-0.0493996,0.139362,-0.687822,-0.399901,0.15234,0.592498,-0.846424,-0.706457,0.325189,0.193151,0.214924,0.936024,-0.196932,-0.934011,-0.672215,-0.31508,0.389673,0.295448,-0.876138,0.238437,0.631931,
-0.427677,0.371459,-0.699376,-0.320279,0.26972,0.0653964,0.580356,-0.203665,0.998437,-0.731772,-0.583185,-0.157455,-0.21357,0.4258,-0.0872547,-0.297546,0.514162,0.0330647,0.141322,0.162196,-0.735856,0.256298,-0.106613,-0.165846,0.560095,0.855637,-0.114827,0.653934,0.377839,-0.150956,0.779636,-0.680004,-0.145709,0.076529,-0.261083,-0.231936,-0.42441,-0.865678,-0.170391,0.239805,0.470722,0.290984,0.328587,-0.787211,0.433414,-0.675231,0.335038,0.721304,0.0211213,0.395401,-0.787906,0.412789,0.846813,0.192283,-0.272456,-0.919905,0.550746,0.49164,-0.0880389,-0.41704,0.557175,0.0545666,0.406079,-0.317704,-0.164665,-0.699131,0.285647,-0.379881,-0.218471,-0.086632,0.734784,-0.968051,0.814996,0.27452,0.580674,-0.0278066,-0.590547,-0.482545,0.493695,-0.142281,-0.210903,0.69399,-0.317863,0.394953,0.0623608,0.847672,0.468074,0.0672049,-0.0653639,0.815936,0.0372345,-0.326165,0.438711,0.628667,0.0738635,0.270314,-0.246681,0.210625,-0.680684,0.39586,
0.143991,-0.632202,0.82407,0.839592,-0.591213,0.911737,-0.333927,-0.660827,0.148443,-0.587771,-0.317468,-0.776278,0.595057,0.481986,-0.704913,-0.821804,-0.740006,-0.121136,0.854274,-0.868451,0.133993,-0.589422,0.56263,-0.545411,-0.458125,0.724471,-0.0717409,-0.119735,0.242829,0.55848,0.00281955,-0.838581,-0.401372,0.281835,0.545412,0.675502,0.488008,0.613693,-0.171419,-0.325164,0.672135,-0.114663,0.997484,0.777786,0.239766,0.80112,0.483447,-0.441942,-0.929557,-0.932732,-0.248667,0.58596,-0.42158,0.663348,0.637598,0.81703,0.342385,-0.765978,0.762539,-0.524233,-0.357566,-0.153721,0.474755,0.477923,0.111332,-0.706289,-0.475754,-0.602909,-0.248342,-0.117576,0.964289,0.167066,0.876083,-0.0863477,0.217211,-0.405264,0.787144,0.980485,0.646945,-0.393438,0.203398,0.491644,-0.885586,0.740626,-0.26238,-0.821882,0.241185,0.956391,-0.828455,0.871121,-0.0208542,-0.86557,0.341451,-0.794011,0.41847,0.0959167,-0.348813,0.139504,-0.848142,0.762325,
0.524681,-0.152402,-0.765329,-0.280682,0.0802446,0.733695,0.819031,-0.514098,-0.267065,-0.160717,0.651878,-0.808424,0.372256,-0.239669,-0.312785,0.799208,0.244259,-0.964805,0.0424161,-0.250741,-0.712066,-0.118699,0.443801,-0.963764,-0.975009,0.352812,0.948701,-0.103507,0.400516,0.389715,0.574911,-0.891794,-0.194163,0.845047,-0.747407,-0.857434,0.189476,0.565473,0.332056,-0.97207,0.568299,-0.101395,0.840993,-0.442872,0.379331,0.331499,-0.842014,-0.891276,0.88326,-0.70442,0.230682,-0.359647,0.559779,0.4703,0.678757,0.627443,0.287361,0.14526,-0.0846803,-0.228621,0.675496,-0.615593,0.776172,0.552513,-0.460865,0.446887,0.79369,-0.278115,-0.628875,-0.565244,-0.983039,0.722864,-0.328074,0.933819,-0.850332,-0.246889,0.711165,0.642179,0.345058,-0.175824,0.876871,-0.0434225,-0.194237,0.700593,0.22482,0.811161,0.848878,0.829449,-0.319775,0.369199,0.59372,0.0248086,0.114234,-0.741592,-0.943133,-0.72677,-0.232082,0.779606,-0.782266,0.81945,
-0.923179,-0.574522,0.387362,0.393241,0.353509,-0.237544,0.627365,0.74277,-0.518866,-0.929653,-0.557177,-0.589863,0.614488,-0.61136,-0.948092,-0.651755,0.293308,-0.596064,0.313303,0.104635,-0.176956,-0.911268,0.694752,-0.258995,0.674749,0.700816,-0.763874,-0.0881961,0.0377471,0.11633,-0.133133,0.605219,0.37628,-0.538928,0.913972,-0.79979,0.525636,-0.258968,0.466027,-0.669002,0.297802,0.829287,0.437502,0.605188,-0.863925,-0.137258,-0.73431,0.709871,-0.65885,0.938416,0.770068,0.643917,-0.575705,-0.26046,-0.819499,-0.146082,-0.00910069,0.459058,-0.912725,0.0160515,0.842425,-0.771016,-0.944151,-0.741717,-0.700511,0.827043,-0.92582,-0.909012,-0.137623,0.220089,0.409979,-0.697282,-0.77642,-0.913214,0.938288,0.764995,0.420245,-0.335569,0.133038,-0.265541,-0.495085,-1.00641,-0.0427167,-0.638421,0.763624,-0.279844,-0.51731,-0.604961,0.302291,-0.780675,0.61478,-0.876203,-0.972924,-0.717502,-0.0815798,-0.325742,-0.0053724,-0.943559,-0.582003,-0.998833,
