0.0926331,-0.0609659,-0.363787,0.63301,-0.165521,
0.236393,-0.627672,-0.157733,0.140081,0.22551,
-0.68879,-0.645579,0.807116,0.458726,-0.0958432,
0.567721,-0.91313,0.480947,0.513959,0.798276,
0.181749,-0.0199371,-0.487212,0.827746,0.106883,
-0.576067,0.766737,-0.454354,0.317025,-0.896251,
-0.898278,-0.822022,-0.379928,0.915881,-0.372628,
-0.37336,0.344813,-0.775854,-0.332524,-0.571427,
-0.593291,0.794284,0.236333,-0.361811,-0.812731,
-0.915314,0.368001,-0.484397,0.653346,0.725719,
0.234262,-0.82898,0.892605,0.347012,-0.364044,
0.38996,-0.984106,-0.985583,-0.698895,0.042854,
-0.793739,-0.293571,-0.875707,-0.483151,-0.365058,
-0.255498,-0.372332,0.451973,0.203364,-0.863992,
-0.644929,-0.0626851,0.919147,-0.183927,0.0929571,
0.0293688,-0.0293698,-0.289099,-0.673481,-0.511972,
0.543735,0.372968,0.842581,0.987926,-0.976507,
0.811427,-0.792989,-0.86946,-0.227315,0.545076,
0.197368,-0.704328,-0.0770029,0.96203,0.659297,
-0.534941,-0.355707,0.380995,0.93619,-0.997448,
0.998588,-0.529857,0.687002,0.847802,-0.0763923,
0.46545,-0.604941,-0.304782,-0.992831,0.341492,
0.0109247,-0.429412,-0.837598,0.0635794,0.136616,
0.922994,-0.56021,0.851739,0.0553902,0.775522,
-0.78606,0.0827759,0.636704,-0.0453017,-0.983064,
-0.72093,-0.424477,-0.56768,-0.842152,0.0273638,
-0.201775,0.696925,0.819052,0.325908,0.369803,
0.953323,0.63028,-0.979796,-0.0413239,0.656422,
-0.444485,0.483438,0.877742,0.542766,-0.180525,
-0.180031,-0.42507,0.390827,0.72232,0.285419,
-0.927594,0.141258,0.44265,0.755956,-0.349353,
-0.691271,0.809801,-0.618276,-0.222456,-0.823646,
0.472491,0.962757,-0.00639152,-0.673822,-0.533828,
-0.541642,0.235957,-0.448478,0.985646,0.414044,
-0.207455,-0.539372,0.886072,-0.049055,-0.51642,
-0.939489,0.868584,-0.180344,-0.564258,-0.728005,
-0.476197,0.703364,0.45944,-0.826548,0.360265,
0.282232,-0.74935,-0.548598,-0.748941,0.814787,
0.781879,0.487537,0.916335,-0.00374392,0.537288,
0.168595,-0.235719,-0.906015,0.370801,0.602663,
-0.584671,-0.982668,0.892312,-0.0999783,0.572435,
0.440108,-0.91554,-0.151286,0.674393,0.237708,
-0.455329,0.865004,0.617943,-0.918763,0.581424,
0.707329,0.106908,-0.379648,0.208603,-0.974765,
-0.152817,-0.748132,0.979607,0.673249,0.849115,
0.057814,0.103527,0.284557,0.834391,0.449043,
-0.514721,0.376145,0.827109,0.000208372,-0.198256,
-0.0378358,-0.362231,-0.647399,-0.15707,0.0653982,
-0.681147,-0.883243,0.963612,0.780504,0.800604,
0.183015,-0.333524,0.440484,0.354408,-0.822677,
-0.488113,0.789336,-0.374511,-0.496585,0.961155,
-0.240805,0.153331,-0.344101,0.81632,0.532153,
-0.185094,0.989633,0.782245,-0.350361,0.332301,
-0.755235,0.355039,0.716249,0.217758,0.464922,
0.294147,0.113101,-0.772949,-0.589643,-0.673114,
-0.267545,-0.650602,0.761267,-0.859742,0.288904,
-0.22859,0.290068,-0.630039,-0.818252,-0.470219,
0.310586,0.00603961,0.772032,0.932852,-0.0564903,
0.679915,0.894871,0.768341,0.358192,0.820084,
-0.894659,-0.171934,-0.891728,0.557448,-0.62022,
-0.297942,-0.256591,-0.439322,-0.846312,0.359239,
-0.947379,0.808122,0.117963,-0.498147,0.600619,
0.776366,-0.950869,0.0493256,-0.39237,-0.743613,
0.39285,-0.318113,-0.809515,-0.508216,0.107915,
0.343373,-0.801016,-0.515335,-0.932797,0.817297,
-0.0611874,0.687665,-0.834858,0.979251,-0.971532,
0.209822,-0.199518,0.993049,-0.835529,0.149113,
-0.194352,0.943098,-0.125875,-0.776709,-0.164633,
0.577208,0.0641168,0.0174789,-0.200186,0.118246,
-0.260361,-0.756244,0.777639,-0.534127,-0.930891,
0.877173,0.323036,-0.280068,0.0802415,0.262482,
0.476755,0.693548,0.329358,0.0198327,-0.492505,
-0.0624241,0.0346279,-0.583529,0.386334,0.371699,
-0.817038,0.982576,-0.733361,0.153709,-0.306243,
-0.386177,0.173103,0.214042,-0.717394,-0.53012,
0.0787196,-0.334967,-0.784945,0.224034,0.4532,
0.291442,-0.858307,0.479408,-0.778893,0.813784,
0.725286,0.12781,-0.933057,0.540077,-0.562103,
0.868966,0.432227,0.736492,-0.351487,-0.741152,
0.0233098,0.570515,-0.387553,-0.280137,0.586498,
0.213918,0.782832,0.554028,-0.359486,0.110512,
0.00695504,0.988924,-0.026165,0.761762,0.0884296,
0.242263,-0.405085,-0.224681,-0.524184,-0.0278766,
0.183437,-0.163059,0.289941,-0.904033,-0.292524,
0.650654,-0.0134281,0.0669669,-0.724296,0.795392,
0.695478,-0.500673,-0.114072,-0.824414,-0.543472,
0.871708,-0.106608,0.549265,0.230417,0.542186,
-0.859757,-0.614937,0.720996,0.598971,0.927875,
0.463354,-0.978352,0.378781,0.826669,0.00314168,
-0.187532,0.8682,0.506853,0.48626,0.364502,
0.0891481,0.620298,0.659775,0.363714,-0.45438,
-0.0735498,-0.659655,-0.646301,0.676779,0.532174,
-0.0648615,-0.192529,0.877591,-0.600057,0.646475,
-0.8835,-0.580944,0.545395,-0.759055,-0.100513,
-0.760444,0.184906,-0.344836,0.591386,0.316771,
0.000123489,-0.445847,0.778337,-0.542436,-0.945077,
-0.315119,0.195935,-0.693579,-0.358168,0.477616,
0.165361,-0.301739,0.0521866,0.379054,-0.276441,
0.407341,-0.326513,-0.540218,0.736076,-0.173563,
0.224837,0.293153,0.889059,0.381274,0.754866,
0.731156,-0.609126,-0.47193,0.975717,0.0142436,
0.533173,0.932799,-0.899584,0.330094,-0.286979,
0.0490951,-0.624719,-0.494882,-0.185339,0.649608,
0.215464,0.433534,0.207014,0.531795,-0.849026,
0.232761,0.214072,0.638037,-0.150621,-0.535577,
0.745168,-0.192938,-0.0472812,-0.929944,-0.387149,
0.479773,0.785232,0.261518,0.412423,0.0368261,
0.576877,-0.607874,0.189747,-0.545192,-0.557417,
-0.683032,0.688692,0.506164,-0.243013,-0.126344,
-0.838292,0.424065,-0.5867,-0.732555,0.287738,
-0.626076,-0.571702,0.315784,0.201481,-0.487325,
-0.487872,0.648524,0.621945,-0.218665,0.115951,
-0.475078,-0.846472,0.461785,-0.32213,-0.194151,
0.922815,0.97484,-0.000331425,-0.242814,-0.879504,
0.586109,0.470665,0.626817,-0.539959,0.559885,
-0.675674,-0.478975,-0.245804,0.87016,-0.0127696,
-0.152559,0.22571,0.0604804,0.483419,0.743364,
0.406794,0.566567,-0.772567,-0.791934,-0.436155,
-0.162401,0.39984,0.243879,-0.0771507,0.385963,
0.395042,-0.854907,0.760013,0.00250272,0.526009,
-0.196148,0.0808018,-0.325142,-0.201792,-0.668388,
0.0316261,0.400786,0.189402,0.1931,-0.978667,
-0.810865,0.202439,-0.588694,0.535247,0.52627,
0.402083,-0.539258,0.0747999,0.992597,-0.338059,
0.273316,0.587897,0.541997,0.203192,-0.474112,
-0.330956,0.543632,-0.581047,-0.0457626,-0.336214,
0.110843,-0.426104,0.719687,0.68711,-0.205085,
0.84796,-0.2649,0.958145,0.693932,0.8789,
-0.230958,-0.0139537,-0.401527,-0.208522,0.609606,
-0.955751,-0.249179,0.0386374,0.241096,-0.473616,
-0.257582,-0.524223,-0.042895,0.694294,-0.704347,
0.86056,0.645076,0.993962,0.244094,-0.11275,
0.629444,0.802766,-0.784261,0.489718,-0.0846239,
-0.911202,-0.784144,0.1306,-0.829115,-0.840549,
0.858751,0.880968,-0.864769,0.535318,-0.106181,
-0.740421,0.498115,0.453568,0.266471,0.131113,
0.908845,-0.501334,0.192601,-0.249568,0.322221,
-0.889989,-0.0186776,0.915468,0.297718,-0.413001,
-0.472546,-0.847203,-0.140843,-0.0955549,0.946006,
0.987748,0.105065,0.47669,-0.195658,-0.742065,
0.156634,-0.0542628,-0.995545,-0.0440126,0.340227,
-0.212147,-0.542173,-0.133142,-0.28975,-0.50754,
0.444724,-0.915156,0.187559,-0.980861,0.610512,
-0.0879829,0.0455328,-0.314754,0.499772,0.705002,
-0.203018,-0.957759,0.0773335,-0.934821,-0.954066,
-0.361771,0.122993,0.173927,-0.28457,0.978809,
0.45596,0.564696,-0.883158,0.692787,0.273359,
-0.311859,-0.932866,0.291567,0.34528,-0.501594,
0.722371,-0.868674,-0.250895,-0.209743,-0.524275,
0.277851,0.923137,0.47365,0.779869,-0.817274,
0.086933,-0.310105,-0.525128,-0.626184,-0.793065,
-0.409511,-0.449238,-0.715716,-0.200649,-0.239059,
-0.888974,0.492366,-0.0372837,0.866586,0.860069,
-0.392081,0.686729,-0.701448,0.593216,-0.503098,
0.552748,0.0895114,0.95874,-0.0837382,0.841654,
-0.356304,-0.376473,-0.126119,-0.892131,0.10298,
0.98013,0.724134,-0.032595,-0.620575,0.218774,
0.79919,0.698162,0.474113,-0.0613333,-0.753072,
-0.77377,0.818579,-0.0352204,-0.665776,0.00499258,
-0.789793,-0.806172,-0.198237,-0.816839,-0.977105,
0.397103,-0.566874,0.875437,0.895328,0.122986,
-0.82773,0.261654,0.706605,0.709172,0.6889,
0.656101,0.844942,0.689732,0.844777,-0.0921456,
0.141087,0.713968,-0.0756897,-0.31397,-0.313405,
0.401358,-0.157209,0.597006,0.477322,0.759718,
-0.0631519,-0.759782,0.273716,-0.357878,-0.950504,
0.248772,0.504254,-0.759053,-0.896819,-0.138537,
0.766756,-0.816912,-0.744598,0.960614,0.777594,
0.567421,0.979614,0.28704,-0.861892,-0.081061,
-0.148224,0.520132,0.346305,-0.676077,-0.372935,
0.955853,0.473005,-0.80725,0.713771,0.723896,
0.381072,-0.393121,-0.225789,0.625871,0.66078,
-0.476175,-0.832693,0.243496,0.588407,-0.498187,
0.102231,0.577536,0.45888,-0.420632,-0.707017,
0.216469,-0.615235,-0.99496,-0.623203,0.357389,
-0.0371185,0.401731,-0.72871,-0.86086,-0.834465,
-0.218084,0.810337,-0.103034,0.119566,0.036949,
-0.106259,-0.338716,-0.131374,-0.159865,0.404732,
-0.934519,0.249557,-0.550654,0.251609,0.423435,
-0.220201,0.831646,0.7469,-0.851663,-0.837455,
0.697986,0.715104,0.798072,0.948277,0.863235,
-0.983224,-0.207445,-0.904423,-0.0932944,0.769552,
-0.134179,-0.870063,-0.743524,0.744225,0.655051,
0.951018,-0.833228,0.862892,-0.0457808,0.293537,
0.0494667,-0.69774,0.881177,0.75584,0.451919,
0.126243,-0.822953,0.284582,0.765487,0.701854,
0.914607,0.539837,-0.0910913,-0.31464,0.143832,
-0.0823463,0.370355,-0.0992512,-0.751207,0.13945,
0.377494,0.597282,-0.697501,-0.37963,0.370773,
0.329456,-0.980147,-0.378124,0.700285,0.326924,
0.680399,-0.468253,-0.952876,0.854461,0.819159,
-0.44524,-0.583447,-0.0362611,-0.999108,-0.717101,
-0.488977,0.481085,-0.515393,-0.226224,-0.861037,
-0.467801,0.725188,-0.980333,-0.0518194,-0.576843,
-0.474356,0.448437,-0.837319,0.471898,-0.0698213,
-0.755251,-0.601783,-0.538422,-0.0682609,-0.86451,
0.055936,0.928191,0.933741,-0.0659362,-0.67054,
-0.378962,-0.684198,0.698328,0.280299,-0.971529,
0.24013,0.436118,-0.206576,0.139284,0.848459,
0.317922,-0.618491,0.892065,0.526985,-0.116947,
-0.670615,0.117149,0.613394,0.726073,0.70451,
-0.725608,-0.812141,-0.0506438,-0.0560615,0.811552,
-0.972783,-0.0963973,-0.591084,0.307934,-0.581876,
-0.531326,0.097246,-0.591567,-0.725837,0.837519,
-0.253489,0.841847,-0.916527,0.516499,0.446461,
-0.855298,-0.732086,0.0435685,0.630251,0.0131657,
0.132823,-0.813033,-0.879714,0.495846,0.963518,
0.134966,-0.758328,0.673467,-0.126319,-0.0860786,
0.146347,-0.571219,0.347131,-0.604643,0.261884,
0.851735,0.0610748,0.0326567,0.0678285,0.633357,
-0.808625,-0.801489,0.0839141,-0.129351,-0.706171,
0.660409,0.227109,-0.867352,0.954564,-0.122683,
-0.0139538,-0.117287,0.347355,0.132095,-0.15977,
-0.272493,-0.229004,-0.988581,0.0956311,-0.348388,
0.688908,-0.0652132,0.457433,0.488827,-0.90947,
0.680579,-0.13669,0.535011,-0.507008,0.0882,
-0.443465,0.302427,-0.221401,-0.0528015,0.911899,
-0.18708,-0.200087,0.766507,0.942694,0.459228,
0.919066,0.503184,-0.922056,0.175015,-0.962808,
-0.682843,0.360348,0.0985206,-0.548785,0.6808,
-0.854412,-0.492397,-0.536796,-0.922415,0.660567,
0.923287,-0.463209,0.137252,0.200202,0.779247,
0.339331,0.468466,-0.835881,0.193135,-0.631805,
0.0264586,-0.2331,0.626226,0.295535,0.443121,
0.294266,-0.919197,-0.460987,0.372923,-0.688871,
0.98532,0.618122,-0.529765,-0.802172,0.863726,
0.780979,-0.556896,0.766975,0.386384,0.151655,
0.813776,0.731731,-0.375636,-0.507243,0.296606,
-0.294525,-0.050846,0.285687,0.6667,-0.382737,
-0.195748,-0.441954,-0.501983,0.152592,0.312178,
0.685671,-0.437856,-0.686607,0.53569,0.186037,
0.224033,0.171689,0.0481085,-0.10271,0.795899,
-0.272015,0.417336,-0.338239,-0.0985336,0.73769,
-0.0905696,0.863827,0.367646,0.616239,-0.606058,
-0.549299,0.124205,-0.432917,0.49668,0.420603,
0.43399,0.934984,0.480906,-0.808985,0.717364,
0.267679,0.579204,-0.808796,-0.268285,-0.838487,
0.845689,-0.203524,0.941914,-0.772266,-0.102993,
0.438973,-0.404502,0.837976,0.215691,-0.748521,
0.907008,-0.310108,-0.909526,-0.627099,0.297739,
0.310157,0.10741,-0.21211,0.919951,-0.933609,
-0.790753,-0.793168,-0.942754,-0.925742,-0.267875,
-0.784824,0.824519,0.0610326,0.133455,-0.276787,
0.107491,-0.579173,0.459913,0.149933,0.782282,
0.170007,-0.947947,0.934457,0.330992,0.683448,
-0.597642,0.67351,-0.392419,0.845045,0.3221,
0.239729,-0.695783,0.321422,0.265497,0.533756,
0.480715,0.107666,0.879446,0.373072,0.642637,
-0.949656,0.855462,-0.667557,0.925042,-0.259506,
-0.0618891,0.841791,-0.503919,-0.588762,0.670544,
-0.99507,0.0857887,0.0195964,-0.437336,0.525005,
-0.807602,-0.793915,0.099347,0.995355,0.055226,
0.0760337,-0.259217,0.777963,-0.386947,-0.437389,
-0.995055,0.850608,-0.8966,0.472908,0.901254,
-0.616601,-0.410153,-0.801533,0.151713,0.80989,
0.17152,-0.449637,-0.447122,0.673654,-0.854916,
-0.295217,-0.213494,0.834817,-0.651105,-0.121932,
-0.944601,-0.000661992,0.0735593,0.627476,0.731134,
-0.298847,-0.483835,-0.0133396,0.551978,-0.444487,
0.0165455,-0.176496,-0.201067,0.739809,-0.309698,
0.715894,-0.323453,0.568073,0.530558,-0.715974,
-0.649116,-0.470875,0.411288,-0.00171677,-0.885838,
-0.168836,-0.973857,0.0448315,-0.0322703,0.795936,
0.0691148,-0.940118,0.197724,-0.316184,0.884391,
0.569487,-0.70778,-0.746031,-0.538526,-0.129803,
0.0412747,0.380007,-0.614118,0.547481,-0.0627304,
-0.368113,0.934777,0.101179,-0.239622,0.746719,
-0.667495,-0.918347,-0.848247,0.449876,-0.992219,
-0.478063,0.362118,-0.208097,0.647157,0.918985,
-0.272767,-0.936691,0.17132,0.729949,0.47039,
0.899334,0.290657,-0.427165,0.763949,0.368825,
0.180726,0.90942,0.154995,0.0747402,0.78364,
0.734755,0.170788,-0.104715,0.808475,0.0935377,
0.248366,-0.696536,0.363291,-0.851627,0.992557,
-0.716999,-0.62335,0.218232,-0.586541,0.725637,
0.673429,-0.597905,-0.891346,-0.00555778,0.433449,
0.822561,-0.37435,0.133534,0.896517,0.529714,
-0.332367,0.77618,-0.565923,0.645156,-0.42962,
0.116926,-0.522986,-0.532481,-0.324941,-0.243571,
-0.272111,0.856775,-0.418771,0.27521,0.351405,
-0.827086,0.432148,-0.565187,0.494558,-0.0460323,
0.156968,0.473959,-0.654137,0.710445,-0.937909,
0.359187,-0.586127,0.0705075,-0.742545,-0.627782,
0.248137,-0.62548,-0.326495,-0.634746,-0.929179,
0.944667,-0.694854,-0.118536,0.380512,-0.249342,
0.906629,0.666014,-0.876826,-0.724176,0.944913,
-0.6181,-0.792696,-0.598054,0.280684,0.654847,
0.994272,0.105957,0.312748,-0.958888,0.466806,
0.930189,-0.592185,0.0801669,-0.436567,0.974115,
0.145055,0.244275,0.425549,-0.213016,-0.478753,
-0.267116,-0.0654593,-0.875858,0.915619,0.437472,
0.300842,-0.694682,-0.978362,0.898324,-0.901179,
0.285901,0.0556262,-0.266704,-0.871598,0.218837,
0.19514,0.850172,-0.801574,0.441722,0.353119,
-0.471733,0.0995695,0.0514818,0.353594,-0.743707,
-0.802015,0.377198,-0.311578,-0.262041,0.285463,
0.891216,-0.608212,0.835771,-0.424344,-0.796815,
0.926179,0.640754,0.652805,0.0379248,0.135475,
-0.385761,0.323668,0.759047,0.382069,-0.680049,
0.596353,0.301397,-0.54825,-0.0835471,-0.336298,
0.45495,-0.987344,0.788959,0.634763,0.444476,
0.263565,-0.729882,0.920786,0.531712,-0.0653265,
-0.394373,0.540708,0.384248,0.939394,-0.114774,
0.316099,0.350794,0.513958,0.118569,-0.731918,
0.218958,-0.738765,-0.262433,-0.522184,-0.29095,
-0.0468542,-0.957649,0.904873,0.226042,-0.231502,
0.486755,-0.690161,0.378399,-0.0606395,0.680026,
0.504358,-0.780689,-0.443685,0.0266901,-0.357323,
0.885263,0.0707336,-0.644706,0.142269,0.334928,
0.455306,-0.67603,-0.866768,-0.963627,0.207577,
0.348835,0.700732,-0.53153,-0.97811,-0.93014,
0.222937,0.409266,-0.16846,0.172978,-0.370098,
-0.688263,-0.753083,0.779967,0.790532,0.498638,
-0.741818,0.814693,0.0710599,-0.333897,0.758238,
-0.287672,0.216072,0.538804,-0.189252,-0.784829,
0.409628,-0.817542,-0.117492,0.593412,-0.617855,
0.394702,0.846804,0.420664,-0.215645,0.223065,
-0.393204,-0.29726,-0.569477,0.414452,-0.860306,
0.00741198,-0.442513,-0.214633,0.936831,0.219502,
0.492108,0.195998,0.611175,-0.0406704,0.985582,
-0.835356,-0.991613,-0.918027,0.53558,0.601439,
0.950343,-0.467909,0.141586,0.784436,0.396493,
0.384083,0.293129,0.469249,-0.297443,0.639369,
0.15574,-0.628832,0.132101,0.792944,-0.0221656,
-0.935119,-0.786021,-0.353532,-0.837829,-0.262838,
-0.435903,-0.49652,-0.967621,-0.141888,0.722517,
-0.370545,0.00186988,0.435052,0.79016,0.468347,
0.781405,-0.847928,-0.96652,0.811823,0.109971,
-0.34664,0.930011,-0.0603772,-0.017111,-0.017617,
-0.319967,-0.578205,-0.396292,-0.549365,0.536732,
0.879555,0.391966,-0.742204,0.915318,-0.132125,
-0.0662292,0.305197,0.967732,0.966242,-0.470482,
0.601651,-0.501529,-0.474475,0.0455812,-0.592784,
0.585187,0.191898,-0.734334,0.0508881,-0.403691,
0.342767,0.774769,0.353117,0.417626,0.455983,
0.112423,0.760912,-0.697329,-0.206136,0.142975,
0.457407,0.3139,0.92895,0.775731,-0.0154778,
-0.194292,-0.320198,-0.780237,-0.0815991,-0.0578339,
0.129698,-0.55089,0.917244,-0.120644,-0.294289,
-0.889434,-0.313779,-0.0559365,0.654015,0.928639,
-0.028449,0.141534,-0.536775,-0.291278,-0.200939,
-0.913325,-0.252824,0.783556,-0.488776,-0.380882,
-0.578356,0.0040194,0.904342,-0.459975,-0.933904,
-0.578523,-0.80074,-0.240893,0.233623,-0.725153,
0.357226,0.911288,0.647435,-0.799177,0.0538434,
-0.490718,0.178474,0.0353942,0.820634,0.813863,
0.329089,0.159301,-0.62052,-0.171751,-0.627527,
-0.860053,-0.164916,0.0666538,0.388229,0.682429,
0.0702975,-0.850958,-0.744677,-0.0488119,-0.507545,
-0.374767,0.726659,0.717131,-0.786838,-0.393734,
-0.992471,-0.4938,0.279103,0.151625,0.483902,
-0.339307,0.917273,0.834299,0.888412,-0.400851,
0.495545,-0.0256432,-0.224162,0.782295,0.301562,
0.0732427,-0.574237,0.230051,0.500257,-0.0475542,
0.278184,-0.841811,0.707474,-0.397936,0.182375,
-0.710922,-0.820462,-0.238296,0.466597,-0.994389,
0.57774,-0.988944,-0.625438,-0.273331,0.475793,
0.542578,0.7442,0.38047,0.535568,0.95498,
-0.370471,-0.276855,0.931197,-0.891999,0.494274,
-0.249135,-0.20499,-0.60506,-0.36164,-0.799051,
-0.706586,-0.778804,-0.616587,-0.862995,0.537416,
0.14802,-0.579939,0.287191,0.472016,0.43461,
-0.359851,-0.720393,-0.662863,0.717785,0.122967,
-0.899351,0.270047,0.330817,0.497754,0.406632,
0.559253,-0.195059,0.0614074,0.341376,0.844584,
-0.718646,0.233213,-0.25226,-0.727556,-0.821863,
-0.0448014,0.384097,-0.880479,0.163066,-0.235551,
0.390236,0.742819,-0.861495,-0.745878,0.88683,
0.15277,-0.0523915,-0.597809,0.921113,0.0315244,
-0.0614385,-0.622429,0.667201,0.831282,0.0395036,
0.4695,0.389262,-0.917342,-0.516053,0.826705,
-0.733474,-0.444226,-0.502458,0.960955,-0.584389,
0.749041,0.413425,0.131088,0.478535,-0.0802799,
0.757329,0.732976,-0.348027,-0.999037,-0.981681,
0.5914,0.869508,-0.0164705,0.528923,-0.894945,
-0.192889,0.741253,0.226037,-0.846027,0.820157,
0.16061,-0.0700673,0.775396,-0.271383,0.652718,
-0.803137,0.810042,-0.13264,-0.820493,-0.0641288,
0.90513,0.768265,-0.137411,0.565464,-0.606885,
0.956446,-0.175394,-0.729626,-0.322785,0.947512,
-0.214432,-0.333703,0.775947,-0.241167,0.371173,
-0.897557,0.0717605,-0.892786,-0.620547,-0.872395,
-0.789249,-0.447237,-0.55649,-0.156777,-0.361656,
-0.84191,-0.835287,-0.429425,-0.162723,0.234315,
-0.296443,0.874843,-0.524721,0.850013,-0.535508,
-0.255132,0.136024,0.940065,-0.542177,-0.778202,
0.796467,-0.647825,0.0622247,-0.0981245,0.475338,
-0.742822,-0.255269,0.0591849,-0.321083,0.993315,
0.338298,0.394424,-0.691684,-0.292013,-0.99656,
0.918968,-0.77969,-0.218163,0.438055,0.527152,
-0.337449,0.46312,0.28867,-0.327722,0.124719,
0.220489,-0.912594,-0.489623,-0.990583,0.0694532,
-0.906762,0.492825,-0.463406,-0.844303,0.917425,
0.514351,0.0574716,0.0983233,0.306724,-0.856128,
0.93986,0.620961,-0.459091,0.83544,0.669565,
-0.355094,-0.386155,0.596812,-0.207372,-0.12571,
-0.0270423,-0.621453,-0.902894,-0.110232,-0.964766,
0.950449,-0.81056,0.732356,-0.808674,0.748415,
-0.546476,0.171357,-0.0418957,0.843773,0.833563,
-0.283072,-0.97655,-0.385605,0.362526,0.469595,
0.480363,-0.729985,-0.24081,0.230627,-0.898904,
0.588088,0.318863,0.523082,-0.90105,-0.497611,
-0.522001,-0.981616,0.726344,0.597697,-0.620684,
0.00173353,-0.0104034,0.453282,0.0409689,-0.101598,
0.830918,0.381128,0.942201,0.867612,-0.263444,
0.841107,0.055006,0.27387,0.316046,-0.121142,
-0.0988393,0.795939,-0.883208,0.062686,0.48243,
-0.212078,0.0143744,0.197389,-0.243823,0.433072,
0.109961,-0.102592,-0.561028,-0.386652,0.189724,
0.0638914,0.922448,0.365645,-0.976782,0.149327,
-0.525857,0.955759,0.917443,0.722817,0.115621,
-0.60746,0.0169896,-0.126617,0.875488,0.803786,
-0.101451,0.77792,0.82282,0.44651,0.622581,
0.209585,-0.6324,0.199111,0.0581646,-0.868276,
-0.575938,0.782151,0.268301,0.253162,-0.691701,
-0.201306,-0.165672,-0.345618,-0.191328,0.11215,
-0.0206677,0.321704,0.606256,-0.837981,0.85338,
-0.809769,-0.524431,0.31261,0.46302,0.20104,
-0.0915915,0.835321,0.736952,0.447379,0.100974,
-0.990742,-0.905545,0.867881,0.232088,-0.458843,
-0.776329,-0.356028,0.498116,-0.388131,-0.743315,
0.836675,0.222946,-0.824966,-0.645815,0.704957,
0.277844,-0.075091,0.78208,0.462393,-0.882729,
-0.855134,0.690278,-0.109199,0.718066,-0.438426,
0.567867,0.315456,0.310124,0.46801,-0.302789,
-0.24397,-0.457124,-0.944063,-0.419803,-0.340287,
0.432759,0.643679,0.207077,-0.453377,0.309036,
0.605182,0.310864,-0.703788,-0.676946,0.822408,
-0.537768,0.749756,0.903255,-0.890026,0.701465,
0.830837,-0.426254,-0.908347,-0.582144,-0.199811,
0.404301,-0.565209,0.0819093,0.826448,0.78512,
-0.722233,-0.642055,0.0082603,-0.608408,-0.734985,
0.420852,-0.3507,0.923304,-0.22112,-0.540489,
0.373094,-0.268586,-0.747635,0.494613,-0.458726,
0.927227,-0.276662,-0.440761,0.349641,-0.607475,
0.323067,0.151522,0.360205,0.687251,-0.860486,
0.568533,0.229597,-0.510101,0.013002,0.874681,
0.169193,-0.403362,-0.664707,0.21338,0.886047,
-0.480092,-0.251225,-0.608438,-0.891461,0.315023,
-0.461748,0.268037,-0.674329,0.0912748,-0.554495,
-0.103292,-0.717862,0.879143,0.697512,-0.444667,
0.902077,-0.430439,-0.21218,0.0686388,0.115223,
0.729172,0.475709,-0.415888,0.774661,0.470266,
-0.970816,-0.531395,0.0802347,0.574302,0.222253,
0.484125,-0.551917,-0.971758,-0.919349,0.344597,
-0.161988,-0.0399595,0.197508,-0.204884,-0.0370149,
-0.993029,0.304556,0.670654,0.193551,-0.068764,
0.486224,0.5855,-0.139827,-0.887001,0.556317,
0.394667,-0.48131,-0.51913,-0.341997,0.129547,
0.311211,-0.994962,0.222431,0.373374,0.785946,
0.483218,-0.9341,-0.787753,0.881721,0.0951496,
0.763195,0.958327,0.743411,-0.0988096,-0.156467,
-0.34181,0.903272,0.579353,-0.0475444,0.754394,
0.148367,-0.77698,-0.848355,-0.399849,-0.0105381,
-0.427187,0.00431256,0.708439,-0.393866,0.0125841,
-0.124815,0.767248,-0.765993,-0.09641,-0.312567,
0.114419,0.703862,0.400127,0.938044,-0.258023,
0.388627,-0.888189,-0.529359,-0.212537,-0.368902,
0.653213,-0.259064,-0.19117,0.51093,-0.521889,
-0.453274,0.0180676,-0.676109,-0.815149,-0.245909,
0.046882,0.996005,-0.0156179,-0.223452,-0.394371,
0.560729,-0.668749,0.531973,0.214882,-0.383686,
0.969065,0.312453,-0.5345,0.866445,-0.539809,
0.0129117,0.691334,0.145736,-0.270748,0.172211,
-0.970365,-0.538048,-0.844591,-0.370528,0.774368,
-0.937854,-0.762391,-0.618826,0.182375,0.253851,
0.0060192,0.992955,-0.891721,-0.670559,-0.914032,
-0.495196,0.22565,0.241667,-0.243813,0.962832,
-0.598178,0.125099,0.107965,-0.308887,-0.442949,
-0.0223341,0.58503,-0.699642,0.954809,0.500573,
0.0784391,-0.253033,-0.851371,0.02887,-0.194886,
-0.47604,0.808028,0.820394,0.792547,-0.489214,
-0.347638,-0.118855,-0.979462,-0.909689,-0.764545,
0.138262,-0.112075,-0.0533898,-0.959024,0.000270359,
-0.751463,-0.867039,-0.912024,-0.675519,-0.995385,
0.259526,-0.48064,0.334648,-0.491623,0.0970901,
-0.130027,-0.124114,-0.941385,0.328605,0.727161,
0.898079,-0.242188,0.0393812,0.0572508,-0.759974,
0.234974,0.499944,-0.950797,-0.369017,0.724765,
-0.939328,0.260491,0.266004,0.282603,0.910568,
-0.128244,-0.557229,-0.32291,-0.117245,0.883579,
-0.373772,-0.699558,-0.639628,0.712545,0.423483,
0.328729,0.314261,0.0489667,0.419406,0.578504,
-0.192406,-0.865634,0.554884,0.283278,0.185893,
0.879071,0.525358,0.394205,-0.854807,-0.0593803,
0.878321,0.327144,-0.787099,-0.413973,0.463556,
0.964433,-0.319089,0.612915,0.660637,-0.591919,
0.0895394,0.736229,0.690325,-0.00147344,-0.604948,
-0.5117,-0.528149,-0.990156,-0.212063,0.0976225,
0.774346,0.819185,0.271108,0.94163,-0.721271,
0.153637,0.253661,-0.59705,-0.778794,-0.782549,
0.510779,0.463539,0.135056,-0.668319,0.766499,
0.434613,-0.882783,0.126297,-0.207274,-0.920455,
0.174848,0.693974,0.94187,0.242394,-0.524778,
0.628462,-0.72058,-0.278072,-0.865577,-0.36857,
-0.225941,-0.0392841,-0.955012,-0.341777,-0.152764,
-0.0973654,0.410728,0.545272,-0.572822,0.756866,
-0.220259,-0.904575,-0.586546,0.785557,-0.835746,
0.764243,0.254257,0.412778,0.0387218,-0.241439,
-0.527992,0.0121601,-0.530833,0.0329317,0.626718,
-0.326396,-0.985675,0.992512,-0.953582,0.882703,
-0.00823901,0.580675,0.539619,-0.238799,-0.607861,
-0.266748,0.645499,0.427508,-0.695088,0.187395,
0.310555,-0.453613,-0.254421,0.208586,0.502004,
-0.353033,0.292122,-0.481681,-0.00390147,-0.880327,
-0.997316,0.108527,0.62231,-0.170293,0.144572,
-0.695161,0.57571,-0.582319,0.24797,0.206777,
-0.350958,-0.581903,0.743295,-0.268371,-0.0578726,
0.612207,-0.247111,0.273675,0.0361013,-0.277436,
-0.130566,-0.195889,0.325378,-0.900995,0.359044,
0.591943,-0.32268,-0.432978,0.900225,0.996641,
-0.520751,-0.190307,-0.636015,0.700437,-0.798373,
-0.847555,-0.43277,-0.507913,-0.0984498,-0.448676,
0.12255,0.668811,0.69505,0.0649587,0.73068,
-0.568595,0.996924,-0.716609,-0.115532,0.416712,
0.518017,0.252816,0.424911,-0.249872,-0.88233,
-0.665811,-0.613616,0.734603,0.885436,-0.254877,
-0.153431,0.183477,0.476338,-0.260672,0.917399,
0.223961,0.194017,0.792107,0.256691,0.731596,
0.718764,-0.781482,-0.556315,-0.135549,-0.721101,
-0.483881,0.227148,-0.134882,0.206691,-0.776411,
0.395058,0.225412,-0.535028,0.520728,-0.603836,
0.178996,0.823225,0.512716,0.324659,-0.687862,
0.683936,0.139345,-0.972203,0.801085,-0.534661,
0.623947,0.513733,-0.103082,-0.796039,0.117381,
0.466237,0.858138,-0.365413,-0.0068282,-0.65211,
0.420087,-0.629037,0.233076,0.64206,0.937123,
-0.110586,0.419033,0.487685,0.565632,-0.0401236,
-0.994513,0.618265,0.314535,-0.835514,0.189917,
0.23736,-0.0715596,0.910159,0.43896,0.703252,
-0.567618,0.540873,0.616085,-0.359031,0.918055,
-0.080286,0.206392,0.013702,0.47671,0.16324,
0.769783,0.587016,-0.235242,-0.129043,0.191801,
-0.874381,-0.175864,-0.484661,0.413751,-0.999813,
0.561339,-0.634055,-0.523347,-0.256968,0.589221,
0.203174,-0.420121,-0.100159,0.191437,-0.994083,
0.0523728,-0.363775,-0.279422,-0.578703,0.999002,
-0.337584,-0.607329,0.77647,0.312771,0.469402,
-0.745326,0.505165,-0.372978,0.638074,0.139275,
-0.310799,0.556628,-0.0430869,-0.247145,-0.39461,
-0.259633,-0.439858,-0.441088,-0.903885,-0.958193,
-0.414726,-0.385821,0.789781,-0.0155483,0.603698,
-0.798341,-0.69275,-0.095322,0.673167,-0.00690846,
0.154637,-0.0232896,0.0783727,0.357271,-0.747027,
0.192254,0.452915,-0.066428,0.0901143,-0.147915,
0.733751,0.298118,0.319745,0.558051,-0.460654,
0.252551,-0.265321,-0.138891,0.0506343,0.202603,
-0.295957,-0.726061,0.332281,0.0901007,-0.73995,
-0.723395,-0.591568,0.212912,-0.709017,0.353123,
-0.0245167,-0.41878,0.480449,0.697326,-0.523296,
-0.570029,-0.714336,-0.704501,0.13356,0.294217,
0.436052,-0.0939443,0.869994,-0.570125,0.965033,
-0.923143,-0.587487,-0.948061,0.25063,-0.662998,
-0.80415,-0.663133,-0.54344,0.141566,-0.888269,
-0.971272,-0.378695,-0.26972,-0.132749,0.603075,
-0.853301,0.827591,-0.102318,-0.240912,-0.289427,
-0.894525,0.324846,-0.653238,-0.385276,0.0267676,
-0.262975,0.260726,-0.832174,0.505021,-0.358787,
0.18588,0.0982511,0.653304,-0.617901,-0.894684,
0.468477,-0.400016,0.685978,-0.0533871,0.403887,
0.246384,0.7211,-0.690873,-0.393982,-0.993617,
-0.0709479,-0.00970427,0.946569,0.253562,-0.00206801,
0.885627,0.499648,0.049287,0.549876,0.769931,
-0.834405,0.333774,0.402868,-0.570402,-0.42526,
0.471347,-0.820933,0.0302092,0.69159,0.0893786,
0.599946,0.995041,0.331824,0.579797,0.748963,
0.339229,0.920237,0.964066,-0.866064,-0.853989,
0.108871,0.674003,0.640154,-0.274963,0.400876,
-0.606618,-0.884694,-0.516372,0.342642,-0.0687754,
-0.982693,-0.209859,-0.0160986,0.990352,0.153744,
-0.288955,0.5784,-0.521887,-0.891017,0.901032,
0.11223,0.269399,-0.526816,-0.299066,-0.874591,
0.463888,0.819773,0.168503,0.882501,0.427658,
-0.690476,0.420983,0.124554,-0.454114,-0.604654,
-0.798519,0.274449,0.0642228,0.493003,-0.192544,
-0.427618,-0.437965,0.326236,-0.819013,-0.166556,
-0.829161,-0.874928,0.30925,0.357082,0.125768,
0.176797,-0.140649,0.754524,-0.501302,-0.274208,
-0.399159,0.651819,-0.761217,-0.236638,0.130042,
0.5704,0.95326,0.0908005,-0.384375,-0.551141,
0.607483,-0.634217,0.79411,-0.633361,-0.380829,
0.0802284,0.117216,0.173569,-0.140674,-0.423212,
-0.383708,-0.427927,-0.752072,-0.447204,-0.552799,
0.352947,0.93036,-0.206865,-0.656619,0.239465,
-0.535959,0.95322,-0.831548,0.231875,-0.540443,
-0.88887,0.00618766,-0.0208137,0.614247,-0.421913,
0.771293,-0.381563,-0.460792,0.939281,0.250723,
-0.634783,-0.309969,0.815566,0.866576,-0.771113,
0.941046,-0.0846152,0.390959,0.559193,0.664018,
-0.855856,-0.288187,-0.751906,0.140969,-0.913853,
-0.559549,0.953357,0.584169,-0.741208,-0.734711,
0.786785,0.80692,0.661667,-0.198004,-0.90867,
-0.111297,-0.513805,0.585508,0.211591,0.112026,
0.24674,0.591415,-0.417837,0.368426,-0.0314775,
0.0870095,0.849881,-0.510007,-0.369676,0.727924,
-0.857699,0.597316,-0.333249,0.281216,0.998827,
0.0799692,0.697339,0.642311,-0.0710384,0.426683,
-0.685678,-0.940521,0.966341,-0.534077,0.481174,
0.154921,0.0213151,-0.456504,-0.472228,-0.122883,
-0.760432,-0.585464,-0.322411,0.329368,-0.627632,
-0.106448,-0.0820422,0.829904,0.675611,0.230348,
0.334249,0.905183,-0.798018,0.923625,-0.74809,
0.035959,-0.52275,0.194945,0.87842,-0.750037,
-0.464218,0.556617,-0.269544,-0.770494,0.587163,
0.293567,-0.366542,-0.496638,-0.661569,0.909323,
0.153558,-0.665055,0.585172,-0.114806,-0.414144,
0.754371,0.0819139,0.492797,-0.422363,-0.172691,
-0.0168931,-0.512327,-0.0664879,0.670131,-0.661464,
-0.229069,-0.326345,0.00424312,0.629563,-0.453386,
0.793205,0.462012,-0.835396,0.917397,0.184423,
-0.0107436,-0.585244,0.885026,0.911137,-0.332774,
-0.74839,-0.742753,-0.29648,-0.658773,-0.0427479,
-0.728326,0.413713,-0.66073,0.0245651,0.375904,
-0.493211,-0.14947,-0.47164,-0.746288,0.69544,
-0.57184,0.671597,-0.477091,-0.993115,0.576583,
-0.704828,-0.476842,-0.021241,0.82953,0.438809,
-0.00443905,0.500978,-0.932277,0.707412,-0.0319952,
0.73943,-0.246949,-0.759379,-0.189152,0.378079,
-0.675958,0.126956,-0.529393,-0.521957,-0.419179,
-0.479496,-0.108887,0.654925,0.546604,0.734007,
-0.667168,0.164017,0.869277,0.262105,-0.981987,
0.906437,0.584686,0.23957,-0.764971,0.354491,
0.881891,-0.284811,0.0103104,0.970694,0.173308,
-0.843003,-0.00788243,0.937277,-0.205633,-0.0601285,
-0.26885,-0.334941,0.674488,-0.0512598,-0.0370316,
0.0376842,-0.515256,0.141358,-0.57023,0.24048,
-0.932124,-0.827939,-0.253997,-0.689704,-0.0655037,
-0.592049,-0.676377,-0.0996191,0.836069,0.215575,
0.26709,-0.470158,-0.492916,-0.677606,0.445417,
0.809281,0.849744,0.767781,-0.197848,0.803345,
0.727055,-0.174259,0.45166,0.792323,-0.631854,
0.323273,-0.164075,-0.146351,-0.563095,-0.887716,
0.670024,-0.568728,-0.176672,0.584269,0.677769,
-0.706384,-0.0297336,0.0212076,0.163774,-0.259282,
0.445028,0.844924,0.349382,0.603946,0.376912,
-0.712562,-0.24766,-0.905275,-0.399787,-0.617125,
-0.971864,-0.572003,0.770787,-0.289115,0.186164,
-0.00334048,-0.666938,-0.244918,0.326837,0.174131,
-0.266159,0.543216,-0.484493,-0.161101,0.28395,
-0.819876,-0.258374,0.491112,-0.993187,-0.313341,
0.765417,0.99465,-0.146445,0.897363,-0.364803,
-0.741483,0.000560274,0.351329,0.172154,-0.90802,
0.732273,-0.734944,-0.169282,-0.704333,-0.741508,
-0.736911,0.708108,0.202601,-0.884667,-0.68652,
-0.808884,0.233291,-0.0380339,0.326213,-0.657907,
0.565266,-0.747188,-0.160307,0.609219,-0.629673,
-0.784928,-0.878573,-0.57906,0.887744,-0.194468,
0.206591,0.63311,-0.923772,-0.0211051,0.739405,
-0.0579905,-0.961019,0.623871,0.96314,-0.174772,
-0.277063,0.695086,-0.911914,-0.961157,-0.775715,
0.844051,0.989958,0.272702,-0.847848,0.872293,
-0.639428,-0.691027,0.658368,0.0153929,-0.587669,
-0.171055,0.57245,-0.86985,-0.248154,-0.794683,
-0.564563,0.363402,-0.22187,0.608675,0.771764,
0.518687,-0.355315,0.908734,-0.00271307,0.993381,
0.782877,0.559827,-0.907417,0.219561,0.531231,
-0.202563,0.717157,-0.822793,-0.946214,0.346261,
-0.460981,0.743449,0.579397,-0.966507,-0.922836,
-0.340732,0.740651,0.206584,-0.719116,0.883316,
-0.777937,-0.0589621,0.326186,-0.808694,0.661906,
-0.590381,-0.644338,-0.676321,-0.138362,-0.730166,
0.231134,-0.113374,-0.140339,-0.823779,-0.953334,
-0.0843682,0.376047,-0.557579,-0.444849,-0.505534,
-0.17544,-0.52972,-0.391812,-0.728095,0.6352,
0.873513,-0.970872,-0.630912,-0.7752,0.65644,
-0.343689,0.0912562,-0.651047,-0.522056,-0.186109,
-0.951969,-0.980511,-0.416844,-0.670045,-0.177154,
-0.766777,-0.940282,-0.0565865,0.0321496,0.6163,
0.811742,-0.645473,-0.563381,-0.716758,0.171597,
0.248975,-0.823983,0.94659,0.537772,0.00182744,
-0.621861,0.579362,-0.322279,-0.777523,0.744829,
-0.504099,-0.719929,-0.414146,-0.350344,0.389657,
0.751597,0.381379,-0.760181,-0.329548,-0.222669,
-0.664396,-0.709949,-0.234613,0.792572,0.299991,
-0.997072,0.0497477,0.407591,-0.311322,0.918682,
0.444627,-0.84865,-0.15327,-0.827975,-0.015779,
0.312463,0.430158,0.659675,-0.969793,-0.410168,
-0.341504,0.990659,0.358288,-0.634944,0.900755,
0.285291,-0.925919,-0.686396,-0.259354,0.255817,
-0.0223858,0.556463,0.0110616,-0.27206,0.275558,
0.498466,-0.914078,0.576594,-0.258363,0.235175,
0.495722,0.75616,-0.242934,0.696221,-0.760806,
0.307226,-0.886733,0.481439,-0.566619,0.212293,
0.267961,-0.29193,0.16448,-0.759227,0.254583,
0.0595005,0.507941,0.471109,0.329505,-0.635303,
-0.277958,-0.112168,0.546289,-0.265743,-0.280213,
-0.790777,0.589035,-0.272258,0.0675414,0.744665,
0.89387,0.298804,0.846503,0.965588,-0.978436,
0.749945,0.395549,-0.889088,-0.110426,0.777017,
-0.971335,-0.963436,-0.0390088,-0.69051,-0.136683,
-0.045127,-0.877125,0.864478,-0.86026,-0.168778,
0.833091,0.70683,0.331747,-0.0825905,-0.241996,
0.0478803,0.287289,-0.949098,-0.679623,0.104522,
0.903565,-0.900171,0.844275,0.664182,-0.165873,
-0.543002,-0.989534,-0.893605,0.139314,-0.726441,
0.625123,-0.675959,-0.764195,0.4413,0.922061,
0.438643,-0.546078,-0.890643,-0.522429,0.396769,
0.104337,-0.94924,-0.518781,-0.882077,0.176135,
-0.902982,-0.302845,0.920214,-0.280729,0.527039,
-0.872597,0.435494,-0.595989,0.44949,-0.769407,
0.637277,0.461498,-0.194529,0.614514,0.916954,
0.154401,0.70487,0.211966,0.966433,0.588439,
0.861754,-0.201192,-0.291008,0.590014,0.155341,
0.897513,-0.568563,-0.679975,0.987466,0.570655,
-0.638941,-0.410742,0.199192,-0.763346,-0.127639,
-0.526085,-0.843616,0.443252,-0.904637,0.99613,
0.766118,0.28716,-0.97012,0.698945,-0.445964,
-0.0857529,0.339922,0.47301,0.0771038,0.488716,
-0.369359,0.766304,-0.700796,-0.101994,-0.675103,
-0.0135887,-0.394772,-0.699703,0.939863,0.246808,
0.418396,-0.266463,-0.184001,-0.532358,-0.214571,
0.408995,-0.23415,-0.453581,-0.860594,0.694772,
-0.639474,0.394109,-0.549261,-0.273513,0.102318,
-0.860779,0.370136,-0.239408,-0.433981,-0.895101,
0.86719,-0.307591,0.698901,-0.974322,0.376982,
0.530955,0.9711,0.79466,0.744488,0.916353,
-0.0243687,-0.358562,0.879083,-0.325444,0.272108,
-0.561246,-0.0368354,0.848759,0.0901581,0.817438,
0.916834,-0.00326756,-0.740566,-0.328154,0.26857,
-0.461213,-0.475472,-0.203533,-0.386281,0.572708,
-0.45009,-0.553787,-0.712901,0.809958,-0.00929741,
0.878918,-0.532907,-0.345172,-0.853213,-0.0930264,
0.739888,0.66176,0.665528,0.199373,-0.631185,
0.985809,0.313773,-0.907875,-0.131998,0.471466,
0.763133,0.662345,-0.718819,-0.78811,0.118865,
-0.691482,0.498232,0.443087,0.617357,0.262597,
-0.476529,-0.833252,-0.246423,-0.230061,0.750747,
0.00792649,0.771693,-0.646077,0.2919,0.515866,
0.756475,-0.268668,0.444579,0.85555,0.0538171,
0.197656,-0.625382,0.753398,-0.189632,0.119176,
0.174894,-0.909261,-0.637163,-0.128509,-0.419755,
-0.36829,-0.583542,0.179006,0.865934,0.858076,
0.370408,-0.546586,-0.477425,0.420508,-0.563892,
-0.563071,0.338344,0.69937,0.274796,-0.726239,
-0.834742,0.60928,-0.139798,-0.140418,0.0404951,
-0.72377,-0.605154,-0.827401,-0.294536,-0.905444,
-0.757002,-0.527366,-0.347451,0.706449,0.850414,
0.384174,-0.515273,-0.879544,-0.536877,0.484613,
-0.125312,-0.805123,0.547214,-0.85015,-0.179259,
-0.942158,0.957589,0.781663,0.384157,-0.517129,
0.82516,0.940555,0.719296,-0.138794,-0.95401,
0.906755,-0.731801,0.165793,0.745294,-0.56727,
0.75917,0.55219,-0.280989,0.114588,0.802171,
0.316224,0.516907,0.910175,0.444662,0.173566,
0.589936,-0.478354,0.474273,0.981961,0.566282,
-0.962177,-0.480075,0.353334,-0.934513,0.301078,
-0.139551,0.420712,0.992718,-0.245868,-0.620065,
0.972789,0.503631,0.744398,-0.592123,-0.736515,
0.393948,-0.180863,-0.341464,0.306091,0.144939,
-0.526298,0.932089,0.205181,-0.196113,0.571509,
0.352623,0.610022,0.148711,-0.730921,-0.478984,
-0.0981784,0.88275,0.478706,0.878614,0.943721,
0.616522,0.453908,0.4461,-0.382343,0.28272,
0.57675,-0.503518,0.0920799,-0.658785,-0.961642,
-0.0342287,-0.745051,-0.361174,-0.271487,-0.772483,
0.738442,0.803346,0.957474,0.882503,-0.795289,
0.788068,-0.844899,0.863844,0.9354,-0.804782,
-0.472256,-0.0565218,-0.996426,0.333088,-0.264877,
0.294007,0.0149097,-0.720692,0.509888,-0.410415,
0.256036,0.93478,0.329773,0.512241,-0.308222,
-0.714271,0.740784,-0.15437,0.248953,0.0730844,
0.50289,-0.909726,-0.65085,-0.354,0.873054,
-0.955326,0.700694,0.0414035,0.683628,-0.846145,
0.405088,-0.00943788,-0.183066,-0.270901,-0.125881,
-0.00773383,-0.502832,-0.489818,0.829392,-0.626277,
0.467081,-0.920511,-0.551871,-0.259435,0.991033,
0.00836972,0.28138,-0.057786,-0.674705,-0.934451,
0.719036,0.765339,-0.57744,0.968115,0.472053,
0.90317,-0.311,-0.549152,-0.305391,0.140423,
-0.859701,-0.710086,0.94548,0.707646,-0.230651,
0.1764,0.48458,-0.452494,0.163879,-0.699498,
0.45808,0.881371,0.185975,-0.898538,-0.801318,
0.374087,-0.385885,-0.342384,0.388153,0.982308,
-0.548476,0.988854,-0.448607,0.366728,0.0305963,
0.766273,-0.503498,0.0773269,0.452361,-0.684058,
-0.561344,-0.979435,0.125978,-0.768267,0.11748,
-0.855893,-0.23669,0.820317,-0.765117,-0.781144,
0.839515,0.556455,0.10366,-0.78596,0.636931,
-0.452369,-0.767808,-0.0428619,0.0594305,-0.618273,
0.493151,0.542763,0.380438,0.260313,-0.461914,
-0.638589,0.756347,-0.188685,0.132476,-0.758462,
-0.496069,-0.450783,0.692253,0.456876,-0.0954077,
-0.70193,0.258282,-0.42727,0.862092,0.289851,
0.102399,-0.168416,-0.352173,0.138728,0.594519,
