-0.899953,-0.452144,-0.330076,-0.0865851,0.786565,0.580213,-0.897473,0.94944,-0.692313,0.0302074,-0.779153,-0.970868,0.959293,-0.318788,-0.246811,0.766297,-0.661853,0.685513,-0.523752,-0.601185,-0.263637,0.382273,0.323924,0.800334,-0.223535,-0.757066,0.970537,-0.943346,-0.670494,-0.850521,0.139624,0.611382,-0.457268,0.51674,-0.541252,-0.0236173,-0.283826,-0.0849024,-0.42724,-0.581756,-0.324243,0.964194,-0.515312,0.975308,0.203123,-0.273863,0.490677,-0.890827,0.748052,-0.846644,-0.222304,0.963625,-0.719724,0.106008,0.425204,-0.148964,-0.477047,0.510398,-0.42316,0.737514,0.755051,-0.782408,-0.17539,0.831578,0.956321,0.799713,0.959825,-0.965936,0.3355,0.333492,-0.68013,0.87619,-0.418061,0.269833,-0.362491,-0.734129,-0.155866,0.71554,-0.658851,-0.312845,0.963899,-0.554781,-0.981263,0.709322,-0.700478,0.400518,-0.791498,0.0448182,0.00297315,-0.777612,0.763382,0.228662,0.0808144,-0.768995,0.778944,-0.608703,0.920003,0.527728,0.987922,0.526426,0.559316,0.591109,0.616383,0.994055,0.111167,-0.473768,0.82003,0.675619,-0.957321,0.867647,-0.124314,-0.14515,-0.397604,0.533268,-0.607725,-0.751711,-0.683637,-0.141324,-0.45729,0.995087,-0.437518,0.876058,0.26359,-0.911983,-0.816046,0.89923,0.795583,-0.73454,0.157954,-0.788895,0.0334245,0.456801,-0.0528174,0.772921,-0.951589,-0.564803,-0.953022,-0.276257,0.84809,0.822845,0.129391,-0.267527,-0.637636,0.949047,0.0269392,0.39049,0.466386,-0.750516,0.518786,0.555334,-0.0233709,0.555205,-0.595191,0.108641,0.124923,-0.422019,0.202895,0.193592,0.358661,-0.0447622,0.258417,0.949746,0.873512,-0.486426,0.332633,0.547866,-0.585625,-0.723593,-0.0130187,0.0979036,0.727809,0.800701,-0.269918,0.224926,0.254153,0.71149,-0.910791,-0.532125,0.908192,-0.676446,0.314867,0.673979,0.299199,0.980217,-0.382963,0.910422,0.167686,-0.237202,-0.914043,0.2833,-0.473653,0.851705,0.308541,-0.769538,-0.677612,0.491957,0.415431,0.990889,0.1337,-0.371448,0.477353,-0.0763193,0.0548502,0.207394,0.501251,-0.609855,-0.231337,-0.20729,-0.779857,0.700795,-0.849241,0.991458,0.495668,-0.238765,-0.507628,-0.414111,0.515818,-0.0674696,-0.130315,0.0565839,-0.913007,-0.0222729,-0.938047,0.293636,0.194107,0.757723,-0.241986,0.538584,0.7468,-0.343001,-0.78166,-0.681784,0.0597439,0.331073,-0.860391,0.731538,-0.926248,0.383279,-0.252052,0.652086,0.9976,0.303946,-0.767076,0.775951,-0.461298,0.350175,-0.885034,-0.458673,0.743841,0.933962,-0.36039,-0.0362909,0.681206,0.0607072,0.634735,-0.390674,-0.195521,-0.0361665,-0.651675,0.885876,0.590956,0.802302,0.986494,-0.178418,0.580968,0.796561,0.323399,-0.904847,0.0077339,0.0722939,0.308182,0.311125,-0.0553461,-0.744154,-0.451115,0.380874,0.151204,-0.672735,-0.555942,0.310698,-0.817601,0.153662,0.930348,0.972141,0.949767,-0.114238,0.75666,-0.0450506,0.49716,-0.987969,-0.847865,-0.184461,0.0812439,-0.92055,-0.340402,-0.489612,0.031458,-0.195295,-0.223623,0.728224,-0.562154,-0.380627,-0.609848,-0.645662,-0.903013,-0.0831287,-0.279617,-0.0599523,-0.138791,-0.368798,0.528457,-0.749991,-0.816794,-0.511523,0.615986,-0.951001,-0.947187,-0.181256,-0.0933463,0.283469,-0.535547,0.704521,0.354352,-0.00919143,0.334103,-0.480925,-0.425755,-0.433354,0.550709,-0.983208,0.38614,-0.909691,0.250312,0.065567,-0.3299,0.724983,0.367704,0.82634,-0.637931,0.250418,0.944361,-0.251311,0.877844,-0.138645,0.58507,0.391099,-0.466843,-0.274828,-0.923413,-0.74286,0.948157,-0.0946967,0.964352,-0.499276,-0.139677,-0.494143,0.251901,0.323665,-0.562719,-0.476878,0.608202,-0.35189,0.270994,0.0408365,0.444381,-0.948534,-0.49838,0.418477,-0.21709,0.851641,-0.796792,-0.81082,-0.315047,0.509701,-0.65857,0.552928,-0.205313,-0.607048,0.747033,0.595573,0.296445,0.640927,-0.59033,0.215059,0.310725,-0.819936,-0.609995,0.408663,-0.470649,-0.818798,-0.802772,-0.743851,0.264492,-0.243602,0.813315,0.660246,-0.105507,-0.209627,-0.174123,-0.0909427,-0.408601,0.56912,-0.762955,0.0336969,-0.84049,0.52586,0.281323,-0.405873,-0.481391,-0.408785,0.0912695,0.445235,-0.557884,0.535109,0.0422136,-0.131263,0.414365,0.154764,0.376409,0.0638604,0.878745,0.932521,-0.391965,-0.282685,0.321477,0.972509,0.391896,0.959273,-0.716424,-0.590268,0.522214,-0.910612,0.401308,0.26709,-0.0107293,0.582131,0.0808853,-0.51831,0.270246,-0.173699,-0.740818,-0.515027,0.469782,0.354721,0.860718,-0.496484,-0.942806,-0.240012,0.916585,-0.0425024,-0.740467,0.353386,-0.50174,-0.677831,-0.166171,0.300235,-0.276776,-0.118688,-0.0441659,-0.964717,-0.211025,-0.442322,-0.933226,-0.282417,-0.372593,0.130632,0.419025,0.117543,-0.0906922,-0.0287335,-0.922128,0.570124,-0.590959,-0.242488,-0.42723,-0.624262,0.201958,-0.579091,-0.26136,0.242664,-0.118327,-0.8174,-0.629035,-0.142137,0.887155,0.158198,0.149227,-0.0892835,-0.175579,-0.154409,0.00175339,0.581171,-0.619244,-0.466327,0.135534,-0.328279,-0.674838,0.783698,0.116556,0.00708734,-0.167071,0.621099,-0.326874,0.218536,-0.0459068,0.827556,-0.311692,-0.243548,0.907115,-0.327429,-0.704503,0.192225,0.379425,0.06623,0.853733,-0.546244,-0.939837,-0.708677,0.151327,0.112234,-0.464198,0.964083,-0.876399,0.980122,0.509255,0.0721506,0.634423,-0.414867,-0.991191,0.403008,-0.592796,-0.620591,0.612387,-0.950145,-0.835137,0.609911,0.207812,0.164292,-0.273703,0.0155001,0.553424,0.294256,-0.313351,-0.779697,0.930415,0.731135,-0.513776,-0.116089,-0.605335,0.26969,-0.263331,0.663359,0.208478,-0.742443,-0.141498,0.957652,-0.0370939,0.996896,0.9111,0.345339,0.589248,-0.358543,0.189903,-0.0623824,-0.135897,-0.111731,0.118488,0.828662,0.852027,-0.0363268,0.142147,-0.730955,-0.76928,0.0653265,-0.867423,0.811973,-0.602492,0.258223,-0.602625,0.487369,0.954863,0.57292,-0.793117,0.858654,0.666239,0.355718,0.435472,0.80102,0.182208,0.337538,0.842717,0.0895055,0.89281,-0.263302,0.881012,-0.0670639,0.837311,0.807794,-0.463857,-0.929995,0.883576,-0.768652,-0.872997,-0.0369503,0.0585379,-0.762235,-0.114849,0.541895,-0.228266,-0.395895,0.126516,0.528151,-0.337099,-0.912984,0.331131,-0.257307,0.725945,-0.393364,-0.534399,0.54579,0.0279122,-0.879343,-0.259337,0.706638,-0.972035,0.105499,-0.312942,-0.20391,-0.672578,0.0415499,-0.388707,-0.272431,-0.728247,-0.204813,-0.572297,0.953839,-0.918815,-0.329229,-0.402015,0.438337,-0.304156,0.829406,0.278713,-0.199767,0.0198004,0.827321,-0.927934,0.642706,-0.396817,-0.650822,-0.419251,0.874697,0.482713,0.778551,0.874419,0.691276,-0.557112,-0.757492,-0.6654,0.424884,0.110617,0.167493,0.635648,-0.0647911,-0.283592,0.128821,-0.11915,-0.770893,0.778591,-0.386605,0.0984715,-0.677545,-0.120883,0.978112,-0.504647,-0.858876,-0.952243,-0.0190637,0.193105,-0.236429,0.4947,-0.917004,-0.0175166,0.376915,-0.377236,-0.810391,0.797767,0.980454,0.190517,0.752864,0.196456,-0.909769,0.761662,0.340791,-0.625702,-0.277945,0.107159,-0.157777,0.22923,0.0927316,-0.254672,-0.810337,-0.167296,-0.115711,0.735807,-0.30047,0.454642,-0.783961,-0.591017,-0.481335,-0.271412,0.762144,0.0614434,-0.696349,0.793019,-0.0257704,0.858327,-0.357772,-0.438484,-0.395041,0.198907,-0.527521,-0.121335,-0.52529,0.505389,-0.691391,0.288153,0.90879,0.899791,0.267914,-0.879524,0.996981,-0.109572,0.934429,-0.449305,0.757022,0.608908,-0.255447,0.859553,0.316865,0.442557,0.960178,0.905028,0.241782,0.754615,-0.11086,-0.659793,0.664027,-0.664986,-0.219378,-0.400995,0.142029,0.419829,-0.774799,-0.78273,0.155192,0.0863456,0.94294,0.412064,0.306332,-0.08071,-0.87958,-0.214283,0.635658,-0.402844,0.738818,0.0674634,-0.955996,0.748678,-0.216838,0.013518,-0.479734,-0.730255,0.66208,0.155802,0.522824,-0.676536,0.26962,-0.10822,0.141339,0.232928,0.777636,-0.144301,-0.921567,
-0.820699,-0.838456,-0.745112,-0.307992,0.951676,0.384154,0.0790257,0.75905,-0.622733,0.317838,0.636602,-0.828211,-0.281465,-0.0339039,-0.905086,-0.718524,-0.176779,-0.992906,0.261112,-0.404524,-0.625947,0.270145,-0.87177,-0.39171,0.27053,0.172066,-0.474535,-0.0312263,0.262672,0.10427,0.424859,-0.619248,0.664518,0.753883,-0.644692,-0.0804786,0.52496,0.744622,0.822176,0.342436,0.861317,-0.875356,-0.442349,-0.0995444,-0.861561,0.407556,0.70367,-0.88488,0.298151,0.0332753,-0.522649,0.425035,0.509997,-0.758051,-0.168262,0.0943787,-0.351436,0.390143,-0.160802,0.464399,0.511565,0.709796,-0.488933,-0.529906,0.412588,0.635943,0.648781,-0.480585,-0.529419,-0.766695,-0.594349,-0.234449,-0.847094,-0.658525,0.194327,0.256202,0.0973472,-0.0432812,0.35853,0.48117,-0.319543,0.104581,0.575099,0.0375571,-0.994234,0.2617,-0.0961362,0.61562,-0.806091,-0.419388,-0.89302,-0.0871282,0.518164,0.933662,-0.926096,0.228959,0.143076,0.681878,-0.812869,0.777998,-0.703552,-0.162468,-0.0442623,0.762473,0.808738,-0.252674,0.469377,0.876624,0.889833,0.762019,-0.903346,-0.0599206,0.11796,0.749177,0.596018,-0.817585,0.213393,0.192371,0.600441,-0.862104,-0.52536,0.196384,-0.253396,0.0577722,0.72988,-0.540501,0.931175,0.0302395,0.1727,0.419574,0.857698,0.952566,0.396828,-0.196681,0.228845,-0.385582,-0.520354,0.0900984,0.645558,0.383687,0.257122,-0.863036,-0.21606,-0.198774,0.803612,0.878926,-0.488299,-0.722754,0.376971,-0.666569,-0.227837,0.857322,-0.00106909,0.389182,0.843479,-0.66292,0.268757,-0.451119,-0.886089,0.136164,0.610993,0.966742,-0.644912,0.676214,0.401667,-0.431628,-0.0914676,0.072192,-0.458681,0.601059,0.300909,-0.0741749,-0.728466,0.0570008,-0.0733493,-0.335795,0.0271764,-0.668479,0.373015,0.256253,0.385944,0.611187,-0.0188869,-0.530454,0.948941,0.962362,0.140422,-0.265987,0.883033,0.481497,0.797929,0.242272,-0.558968,-0.285468,0.0202179,0.243336,0.0861981,0.248275,-0.9238,0.521057,-0.337618,0.950769,0.537327,0.952538,0.559324,-0.404833,-0.890358,0.876863,-0.969064,-0.69453,-0.712685,-0.741517,-0.81696,-0.626269,0.900637,-0.177502,-0.692325,0.385487,-0.396073,-0.199078,-0.449538,-0.464751,-0.38138,-0.35619,0.92281,0.547871,0.42807,0.910115,0.492732,0.502243,0.449807,0.696263,-0.938241,0.189821,0.214824,-0.0212144,-0.367961,0.794418,0.200871,-0.970189,0.463645,0.963631,0.629264,0.218807,0.373131,-0.798605,0.104278,0.296762,0.128184,0.408782,0.487033,-0.266391,-0.273417,-0.325412,-0.645909,0.404032,-0.190924,-0.815804,-0.043806,0.967027,-0.730752,-0.485181,0.93391,-0.651363,0.318432,-0.598883,0.813893,0.357058,-0.919147,0.96229,0.374104,-0.042507,-0.169687,0.690206,0.0286635,-0.843289,-0.309452,-0.0975808,0.374695,0.954626,-0.540342,0.165188,-0.440412,0.761776,0.456265,0.506353,-0.838976,-0.835603,-0.850879,-0.341978,0.584751,-0.98919,-0.753297,-0.833924,0.798487,0.3998,-0.716195,-0.102678,-0.733917,0.295036,0.401242,-0.943358,-0.234052,0.25074,-0.575909,-0.302741,0.858128,-0.427597,0.209491,-0.681663,0.638618,0.100032,0.363495,0.584082,-0.282631,0.787753,0.831803,-0.988052,0.759572,0.865307,0.208157,0.939399,0.740032,-0.993722,-0.337887,0.495313,0.673228,-0.924363,-0.170531,-0.512202,0.867769,0.899209,0.906492,0.526152,0.0629094,-0.486784,0.507507,0.2432,0.0996197,0.31834,-0.0137006,0.394196,-0.486358,-0.537562,-0.193969,-0.109751,-0.28777,-0.283051,0.290191,-0.770804,-0.521768,0.811468,0.958413,-0.266341,0.210744,0.37422,-0.213023,0.072377,-0.69799,0.714394,-0.435301,-0.989228,-0.670396,0.821375,0.851934,-0.113801,0.562041,-0.595681,0.636818,0.682449,0.107846,0.905409,0.932003,0.892706,-0.118871,-0.942988,-0.857148,-0.915788,-0.202791,0.655096,0.48499,0.826199,0.235989,-0.155789,-0.312897,0.740047,-0.0800228,-0.948499,0.755357,0.588608,-0.913401,0.814477,0.204429,-0.731317,0.906072,-0.0886342,-0.0142842,-0.667099,0.473647,-0.854031,-0.60669,-0.93468,-0.165123,-0.184162,0.0183459,-0.699522,-0.766232,-0.951867,0.457905,0.0621501,0.949068,-0.903106,-0.583534,-0.47878,-0.482767,0.602984,0.789192,0.88674,-0.799351,-0.214769,-0.00963144,0.822982,0.39614,-0.92058,-0.600494,-0.99266,-0.315461,-0.268351,0.86427,0.716867,-0.494919,-0.767095,0.89831,0.612437,-0.751322,0.247064,0.409199,0.781964,-0.427236,0.181138,0.754961,0.549612,0.193703,0.732396,0.748912,-0.162424,-0.713036,-0.84079,-0.929904,0.56749,-0.564459,-0.193631,0.629232,-0.420018,-0.234784,0.598758,-0.654006,-0.198068,0.491518,0.908238,0.411521,0.958721,-0.768605,-0.760345,0.324446,-0.391722,-0.477977,0.0406838,0.591824,-0.594195,0.500653,-0.259007,-0.668146,-0.656405,-0.301851,-0.970158,0.906844,-0.921479,0.425726,0.883199,-0.891212,-0.888112,0.416753,-0.209471,0.632524,-0.211635,0.507374,-0.685065,-0.389168,0.915905,0.969604,-0.725627,0.920985,0.559017,-0.706051,0.556643,-0.378888,0.896042,-0.567857,0.785812,0.334924,0.654227,-0.47265,-0.521049,-0.65879,0.169639,-0.879249,-0.221445,-0.855805,-0.486955,0.523622,-0.48187,0.891902,-0.671653,-0.471243,-0.192251,0.129526,-0.159204,0.630955,0.64459,-0.901702,0.162979,0.653889,0.332674,-0.110355,0.398832,0.110982,0.526197,-0.5694,0.248974,0.690512,0.928292,0.693323,-0.876657,0.953259,-0.788553,0.880994,0.111332,-0.172126,-0.600844,-0.411548,-0.468081,-0.589956,-0.169584,0.592433,-0.872127,0.298135,-0.496259,0.151438,0.722753,-0.103732,-0.992762,-0.118796,0.391481,0.685346,0.364977,0.623319,-0.0266411,0.0211904,-0.1215,-0.345035,-0.0602593,0.213523,-0.84157,-0.257268,0.0793901,-0.355091,0.399139,-0.545163,0.356771,0.894958,-0.646391,0.566748,0.881601,0.238649,-0.878612,-0.258518,-0.391913,-0.943881,-0.408147,0.33139,0.509848,-0.0454645,-0.508826,-0.727428,0.125928,-0.325903,0.629134,0.319181,-0.926107,0.395074,-0.724031,-0.497877,0.156394,0.538691,0.222822,-0.890513,-0.309551,0.801484,0.664135,-0.971233,0.573877,0.267829,-0.188593,-0.808857,0.281775,-0.357245,0.337725,-0.834121,0.433285,0.668015,0.292117,-0.741417,-0.504386,0.743232,-0.10615,-0.314335,0.938064,-0.171083,-0.659163,-0.373157,-0.691797,-0.475806,0.522711,-0.0113511,0.975384,-0.835308,-0.558045,0.524524,0.268464,0.319835,-0.493621,-0.50792,0.649915,-0.776558,-0.465643,0.488363,0.431844,-0.50405,0.122008,0.155469,-0.307598,0.474954,-0.473672,-0.168665,-0.0410658,0.390126,-0.573695,-0.390518,-0.363982,-0.135663,0.0248079,-0.301334,-0.77833,-0.647266,-0.438445,0.693575,-0.340767,-0.514704,-0.555881,0.478992,0.404893,0.748756,0.527385,0.6577,0.840331,-0.624979,-0.326266,-0.865257,-0.115984,-0.89552,0.816645,-0.428333,-0.816875,0.179052,0.499089,-0.916331,0.209853,0.608784,0.586972,-0.773271,-0.624451,0.0424395,0.23568,0.0255997,-0.313676,-0.0510862,0.580873,-0.0657546,-0.310177,-0.972459,-0.576972,-0.807925,-0.337521,-0.69292,-0.0504582,-0.992046,-0.607807,-0.0486277,-0.520512,-0.286358,0.448247,-0.658693,-0.411241,-0.690417,0.597315,-0.00578441,-0.453001,0.297139,0.801317,0.31179,-0.198228,0.775155,-0.81725,-0.0448068,-0.155617,-0.675095,-0.531078,0.398588,-0.629931,0.513864,-0.458397,-0.505213,-0.384778,0.272903,0.656576,-0.301417,-0.702242,0.986533,-0.604394,0.881534,0.274663,0.13866,-0.306413,-0.935142,0.423636,-0.426035,0.843894,0.533723,-0.244937,-0.105206,0.0793674,0.291694,0.00154809,-0.97971,0.975,0.566711,-0.062809,0.603104,-0.643296,0.868682,0.192828,0.180739,0.236814,-0.49831,0.0149899,-0.350383,0.530959,-0.0373167,0.506677,0.399198,-0.937921,-0.0654407,0.456887,0.422082,-0.799015,-0.885499,0.906349,-0.193037,0.353166,-0.824258,-0.264983,-0.371556,-0.514047,0.207297,0.257542,0.317281,0.0933658,-0.536592,-0.0394067,-0.46814,-0.716588,-0.836683,-0.0335004,
0.512269,0.681126,0.705478,0.258375,0.487705,-0.0834229,0.669726,0.639202,-0.462594,-0.0886815,-0.715178,0.257699,0.381358,0.0780874,-0.632457,-0.114241,0.777753,-0.41834,-0.249079,-0.243934,0.383706,-0.117907,-0.521466,-0.355164,-0.671241,0.126631,-0.471944,0.302898,-0.066794,0.629453,-0.422296,0.718625,0.523096,-0.8702,-0.856238,0.299353,-0.882043,0.798003,0.0855687,0.307278,0.52939,0.481091,0.598006,-0.85643,0.0421797,0.421417,-0.0484644,-0.373778,-0.965451,-0.249472,-0.0569336,-0.570368,-0.19263,0.575482,0.105435,-0.104531,0.865174,0.90291,0.915578,0.497778,0.825213,-0.321406,0.186844,-0.442292,0.79123,0.923656,0.30641,-0.684908,0.824639,0.0436266,-0.919258,0.170439,0.384433,0.754423,0.499874,0.79786,0.217359,0.987471,0.283639,-0.322721,-0.406686,-0.836928,-0.152435,0.760712,0.404491,0.445742,0.2698,0.449098,0.411637,0.202538,0.311954,0.238011,0.353531,-0.454849,-0.755665,-0.840995,-0.947756,0.8963,0.858971,-0.442341,0.781519,-0.894113,-0.278405,-0.679009,-0.980481,-0.695435,-0.655027,0.552877,0.0157712,-0.286293,0.843988,0.63003,0.0589185,0.45993,0.609055,-0.565744,0.538308,-0.0881891,-0.839279,0.615178,0.880211,0.338652,-0.676492,0.153326,0.3755,-0.816126,0.0758092,-0.948535,-0.00225929,0.404885,-0.463357,-0.811333,0.926501,-0.686629,-0.886447,-0.725023,0.489781,-0.323652,0.492794,0.0565943,0.269162,-0.676127,0.705068,0.64874,-0.450536,-0.516168,0.522832,-0.330736,0.224739,0.661312,0.997047,-0.731856,-0.284799,0.919272,-0.810444,-0.0781576,-0.392327,-0.915032,0.947846,-0.867258,-0.479776,0.457934,-0.691445,-0.699835,0.591479,0.735476,-0.305031,-0.0460601,0.02927,-0.544596,0.0172399,-0.84107,-0.458788,-0.58021,0.0131684,-0.29913,-0.996773,-0.815217,0.518915,0.302888,0.97144,-0.811191,0.920866,-0.0661814,-0.420103,0.522269,0.66817,-0.583684,-0.701342,0.264092,-0.452195,0.0667081,-0.450927,0.572706,0.120121,0.2346,-0.380151,0.739465,-0.0733573,-0.375631,-0.257384,0.14688,-0.229442,0.509288,0.871347,0.769934,-0.63424,-0.555765,-0.270261,-0.470349,-0.179769,0.405996,0.912673,-0.384455,0.827924,-0.497146,0.57792,0.1736,0.70191,0.385839,0.704478,0.196286,0.873256,-0.597799,0.085529,-0.457146,-0.129135,0.490552,-0.0697666,0.813484,-0.948679,0.178198,-0.893294,-0.850022,-0.840885,0.40068,-0.99551,0.142654,0.131843,-0.831413,0.555672,-0.158662,-0.348232,-0.080695,-0.622465,-0.194288,-0.954797,0.717891,0.499714,0.68404,0.944626,-0.622783,-0.854778,0.109614,-0.218207,0.365025,0.342169,0.812672,0.794505,-0.57981,-0.517305,0.401699,0.570891,0.182334,-0.74478,0.95694,0.303665,-0.759875,-0.964404,0.605444,-0.553618,-0.13878,-0.672744,0.701853,-0.408954,0.355974,0.32488,-0.399604,-0.882856,-0.19831,0.0610323,-0.249398,0.971893,-0.350402,-0.481403,0.638805,0.133658,0.617774,0.0461179,0.48087,-0.0715385,-0.225746,-0.326837,0.0041973,0.904847,0.29006,-0.926035,0.180916,0.491926,0.480773,0.362003,0.636602,-0.278483,-0.290742,0.139906,-0.297668,-0.370813,0.719622,0.889703,0.495881,-0.809276,0.715415,0.943908,-0.0670187,0.860514,-0.639911,0.961681,0.867983,-0.609824,-0.488343,0.120653,-0.0601034,0.355941,-0.968954,0.351703,-0.0394506,-0.255459,-0.000784089,-0.99207,0.447581,0.95773,-0.871748,-0.990502,0.871954,-0.337089,0.237625,0.679675,0.944885,0.540668,0.0293961,-0.721222,0.863867,-0.0456792,0.557465,0.915673,0.339164,0.650153,-0.489091,-0.366532,-0.764844,0.365103,-0.347529,-0.153017,-0.209329,-0.503957,0.115038,0.865892,0.244519,-0.748031,0.631724,-0.418917,-0.0893021,-0.0400892,-0.817283,0.851824,-0.995041,0.514851,0.377311,-0.870352,-0.792125,-0.295466,0.132139,0.566274,0.807086,-0.699756,0.936294,0.0564656,-0.391602,-0.891002,0.721083,0.989691,0.984713,0.295493,-0.26193,0.575091,-0.31153,-0.170413,0.24332,-0.699728,0.201614,0.615983,0.0955916,0.566457,0.736765,-0.700654,-0.480357,-0.698659,0.0717267,0.963962,-0.500802,0.616031,0.667874,0.700232,-0.287144,-0.471244,0.638923,0.268246,-0.0904537,0.420578,-0.626818,-0.905175,-0.398838,-0.328224,0.568076,0.813952,-0.159888,-0.81692,-0.837477,0.343999,-0.551227,-0.866596,0.633572,-0.0912526,-0.617001,-0.341463,-0.569038,0.507392,0.145734,0.694117,-0.319711,-0.711734,-0.792703,0.716893,0.291031,-0.5393,0.417761,-0.740224,0.243554,0.389584,-0.0788234,-0.587588,0.268643,-0.501842,0.886846,-0.289653,-0.930643,0.517825,-0.99055,-0.243734,-0.826105,-0.661261,-0.633916,0.378295,-0.536166,-0.71146,-0.152163,0.243888,-0.0668697,0.524976,0.875006,-0.230285,-0.615355,0.982104,0.454946,0.114204,-0.24513,-0.616994,0.337973,0.0174479,-0.239612,-0.874243,0.826645,-0.199572,0.707975,-0.248335,0.552279,-0.0505812,-0.546825,-0.939605,-0.255643,-0.407308,0.325087,0.161235,0.643989,0.00296631,0.175216,0.808758,-0.385268,0.855305,-0.65742,-0.736642,-0.502223,0.418879,-0.94708,-0.161352,0.451459,0.402688,0.837999,-0.719585,0.15503,0.593308,0.959103,-0.327172,-0.302267,-0.155529,0.811906,0.492503,-0.244959,-0.305917,0.239526,-0.383345,0.56557,0.665286,0.861658,-0.536976,-0.547648,-0.897432,0.73911,-0.425966,-0.390038,-0.180864,-0.760646,-0.671775,-0.668866,0.869883,-0.355122,0.640837,0.112733,0.365192,0.404397,-0.626638,-0.227663,-0.652934,-0.0531346,-0.346275,-0.110351,-0.575805,0.780379,-0.0180656,-0.955992,-0.888422,-0.486625,0.934113,-0.612386,-0.621016,-0.220272,0.741395,0.234616,-0.941917,-0.888352,0.680802,0.225639,0.249533,0.784708,0.628344,-0.403572,-0.162244,-0.676895,0.198538,-0.786062,0.133332,0.0574916,-0.84218,0.721726,-0.654362,0.584166,0.943674,0.913223,-0.714292,0.93403,0.0753792,-0.788198,0.475933,0.646242,-0.362177,-0.0216204,-0.879616,0.289337,-0.114403,0.295362,-0.453103,-0.0240546,-0.460362,-0.712313,0.0939468,0.57246,-0.291005,-0.115671,0.729397,-0.413816,0.616981,-0.447068,-0.474743,-0.518657,-0.446997,-0.493518,-0.629024,-0.695874,0.583511,-0.758671,0.811678,-0.319746,0.938472,0.710909,0.957119,0.784273,-0.344463,-0.263216,0.496411,-0.626394,-0.566314,-0.789471,0.353662,-0.0293704,0.607108,0.976813,0.640071,-0.629684,-0.730619,-0.685232,0.798064,-0.0479126,-0.706187,-0.934024,0.47735,0.65029,0.764213,0.90803,-0.416716,0.326761,-0.779488,0.106407,-0.520229,0.685228,0.436451,-0.185524,-0.427923,-0.258106,-0.303714,-0.979077,0.17736,0.871242,0.416502,0.389735,0.580913,-0.668125,0.281823,0.668445,-0.0249129,0.0908798,0.363617,0.614186,-0.188062,-0.218805,-0.970674,0.0810018,0.399429,-0.145368,-0.160956,0.113959,0.884879,-0.535405,0.707279,0.466828,0.429752,0.585504,-0.385705,0.221958,0.339357,-0.87461,0.174978,-0.896788,0.807331,0.770264,-0.428617,0.894515,-0.998858,-0.331805,0.252746,-0.234007,0.590367,0.463693,-0.658897,0.633399,0.0555716,0.202078,-0.0934381,0.805279,-0.809615,-0.360523,0.620781,0.877102,0.944394,0.339253,-0.935941,-0.967419,-0.964608,-0.156742,0.279809,-0.958094,0.973582,-0.968846,0.943774,-0.519514,0.847012,-0.22228,0.057044,-0.457246,-0.226016,-0.734791,0.83606,0.125222,-0.18381,-0.595353,0.497555,-0.158615,0.743311,0.961796,0.180489,-0.814976,-0.0371583,0.927259,-0.535155,0.905436,0.289396,-0.664783,0.946103,0.0165835,0.965507,0.426721,0.659407,0.655067,-0.768465,-0.157325,-0.414036,0.158705,0.576329,0.544302,-0.79247,0.54933,-0.158426,-0.752891,-0.179448,-0.562631,-0.0301163,0.0238392,-0.395217,0.848458,-0.56128,0.179049,-0.740931,-0.979105,-0.186703,0.791953,-0.328733,0.975727,0.588133,-0.102261,0.997368,0.91526,-0.104769,-0.679412,-0.0889573,-0.888695,-0.786398,0.427435,0.347725,0.652487,0.429734,0.737842,-0.222196,0.984439,0.135633,-0.163968,-0.46107,0.111448,0.248285,-0.916044,-0.392988,0.122934,-0.117865,-0.862127,-0.849384,-0.546291,
-0.54305,-0.114053,-0.974115,-0.771237,-0.437115,0.576323,-0.544421,-0.853897,-0.0895845,0.255464,-0.602933,0.42622,-0.618448,-0.962221,0.764645,-0.956334,0.522442,0.474739,-0.991167,0.165558,-0.0858425,-0.0220217,0.123955,-0.270897,-0.301223,0.573913,-0.629637,0.278111,0.786861,-0.727051,-0.847453,-0.0555631,0.612834,-0.773009,0.316212,0.737287,-0.925343,0.530631,0.690497,0.158574,-0.24022,0.456391,-0.170567,0.657142,0.22807,0.212435,-0.302402,0.260944,0.0364522,-0.35111,0.603366,0.887744,0.983384,0.696005,0.807098,-0.99468,-0.0777339,0.121291,-0.650906,0.502077,0.724324,0.485658,0.98262,-0.985662,-0.692038,0.176008,-0.726191,-0.575538,0.362357,-0.350324,0.905545,-0.361181,0.891845,-0.491382,-0.491623,0.324632,-0.464441,-0.466664,-0.524538,-0.735443,0.93201,-0.32373,0.744618,0.414838,-0.769145,-0.965895,-0.531941,0.126313,-0.761825,-0.325191,-0.247709,0.0929913,-0.964869,0.0382331,-0.439751,-0.655988,0.471836,0.666906,0.757426,0.114939,-0.847853,-0.722995,-0.106367,-0.00979519,0.664259,-0.170427,-0.569747,-0.521096,0.647192,0.342678,0.186245,-0.738117,-0.927535,0.140938,-0.982093,-0.804925,0.342576,0.604584,-0.212387,-0.0364752,-0.662338,0.552084,-0.671192,0.327323,-0.472154,-0.026106,-0.758287,0.789734,-0.953117,0.146361,0.709887,0.720131,-0.17539,-0.0605603,0.265184,-0.189996,0.565503,-0.205664,-0.757297,0.476297,0.793736,-0.972817,0.970256,0.544334,-0.447519,0.201297,-0.265245,-0.675998,0.991316,0.329272,-0.801673,-0.799386,0.262051,-0.679881,-0.728591,-0.747705,-0.0467044,-0.414287,0.631922,0.201875,-0.361133,0.747292,-0.374442,-0.943762,-0.205713,0.605455,0.203886,-0.513848,-0.323545,0.363796,0.624183,0.805287,-0.809021,-0.393094,0.459776,-0.312094,0.306727,-0.163967,-0.818456,0.853811,-0.179623,-0.213459,0.217231,0.122299,0.23732,0.0985095,-0.400312,0.25032,-0.828752,0.346393,0.471989,0.177078,0.464215,0.997581,-0.149622,-0.383443,-0.12727,-0.531767,-0.130053,-0.232399,0.370179,-0.193035,0.169173,-0.810286,0.975196,-0.0617196,-0.0615173,-0.795036,0.363901,0.448309,0.661054,0.75461,0.636841,-0.278216,-0.522404,-0.382068,0.333624,0.753908,0.173848,-0.337308,-0.429293,-0.883247,0.246035,0.00343542,0.327502,0.560852,0.399602,-0.902646,0.850223,-0.281125,-0.929727,-0.0856535,0.377618,-0.171887,0.292031,0.605351,0.253496,-0.910944,0.848085,-0.964915,0.0909566,0.593747,0.581093,0.168734,-0.773806,-0.50464,-0.859919,0.859561,0.381844,-0.694394,0.622965,0.880247,0.259376,-0.398245,0.953279,-0.777035,-0.431171,0.618414,0.207249,-0.682397,-0.973982,0.951588,0.483231,0.0709613,0.982196,0.751908,-0.729924,0.433685,0.703577,-0.0952897,0.338628,-0.288035,-0.426213,0.206932,-0.704463,-0.967671,0.302367,0.0716958,-0.0417802,-0.891658,-0.340963,-0.632536,-0.792642,-0.277188,0.528628,-0.623813,-0.880362,0.645853,-0.791612,-0.222458,0.497466,0.120434,-0.609391,0.61649,0.265042,0.95674,0.0522334,-0.0343456,0.75932,0.168572,-0.0848503,0.512109,-0.380337,0.489223,-0.957327,-0.356133,0.932098,-0.131701,0.697551,-0.0548981,-0.0385511,0.271075,-0.561817,0.821241,0.562527,-0.831538,0.616982,0.762791,-0.195748,0.669489,-0.61509,0.248811,-0.493636,-0.595393,-0.969054,-0.593029,-0.490174,-0.780042,-0.984134,0.388134,0.289493,0.385048,-0.454037,0.855729,0.533292,0.490873,0.532673,-0.818282,-0.0356672,-0.0346841,-0.217773,0.563987,-0.125715,-0.247801,0.652643,-0.440699,-0.704051,-0.023983,0.0240279,-0.744586,-0.225308,-0.847332,-0.00584312,-0.0346492,-0.703524,0.793248,-0.203649,-0.111758,-0.297163,-0.781634,0.166195,-0.85897,0.123308,0.134603,-0.301536,-0.12179,0.603579,0.319391,0.401345,-0.46646,0.351379,0.572553,-0.0549782,0.297312,-0.215234,-0.664601,-0.784157,0.649512,0.847775,0.729162,0.563967,0.878274,-0.415928,-0.493145,0.445991,-0.216651,0.724408,-0.96213,0.438148,-0.282218,-0.174347,0.15319,-0.248681,0.802665,-0.492433,0.368148,0.891496,0.379339,-0.636136,-0.639383,0.951529,0.340999,-0.242135,-0.320956,-0.390201,0.564424,-0.133286,-0.56645,0.647292,-0.305908,0.944054,-0.894345,0.958251,-0.581756,-0.224033,-0.949303,-0.401046,-0.844786,0.253247,0.116048,0.0409638,-0.168075,0.0228751,-0.442873,0.136185,0.582916,-0.779117,0.229583,-0.739126,0.9853,-0.934191,0.15594,0.255612,0.465715,-0.556949,-0.144171,0.872689,-0.357281,0.209387,-0.380097,-0.227946,-0.429711,-0.757045,-0.939638,0.244435,-0.915327,0.0586453,0.794894,-0.189982,0.550873,-0.720255,-0.512268,0.0501698,0.988602,0.0979401,-0.671898,-0.920279,-0.608263,0.0624417,0.362925,-0.899823,0.756172,-0.920045,-0.804546,0.501545,0.420778,-0.603188,-0.211579,0.305436,0.688957,-0.27829,0.306063,0.719988,-0.435002,0.285041,-0.0221628,0.350631,0.456086,-0.1385,0.458522,0.344471,0.518052,-0.248818,0.913799,0.0536009,-0.269165,0.390342,0.756757,0.676962,0.0626659,0.606245,0.798982,-0.550621,0.366791,-0.747747,0.867312,0.17927,-0.571819,-0.359098,-0.634565,0.863462,0.584174,0.504179,-0.021293,-0.404636,0.808721,-0.338845,-0.33632,0.248156,0.0741246,-0.0265089,0.818127,-0.514753,-0.156908,-0.17244,0.379807,-0.0146209,0.799152,0.219853,-0.865357,0.701575,-0.0302962,-0.127041,0.519666,-0.982417,-0.935791,0.626669,-0.944909,-0.448099,-0.577049,-0.348784,-0.905612,-0.184066,-0.450308,-0.314668,0.363136,-0.898624,0.234283,0.88373,0.464499,0.310918,-0.764086,0.277363,0.20491,-0.175477,0.550929,-0.45868,0.460298,0.675251,0.391845,-0.653793,-0.485802,0.808824,-0.662311,-0.979308,0.483418,0.855412,0.463569,0.870883,-0.00593435,-0.87295,-0.685297,-0.660364,0.338707,-0.89996,0.149939,-0.00479256,0.714932,0.0950151,0.730168,0.179158,0.74347,0.642767,-0.54107,-0.824144,-0.743441,0.595246,0.559961,0.610605,-0.0847148,0.567959,0.7801,0.687461,0.787568,0.32829,0.409005,-0.766982,-0.0517955,-0.893252,-0.262812,-0.420169,-0.753599,0.204666,-0.21534,0.673252,0.931885,-0.743896,0.479719,0.468667,0.244147,0.51783,-0.0586567,0.0325779,0.525442,-0.406914,0.564472,0.868831,0.245371,0.262676,-0.671113,-0.053571,0.0579208,0.499467,0.18994,-0.350401,0.911572,-0.355595,0.46676,-0.477167,-0.879885,-0.44676,0.118985,-0.511569,-0.479524,0.678017,0.384095,-0.747894,0.416877,-0.835857,-0.782581,-0.912378,-0.269726,0.749467,-0.334115,0.323675,-0.555426,-0.747554,-0.0388001,0.532927,-0.854371,-0.93773,-0.424773,-0.548485,0.558942,-0.567361,0.712258,0.160748,0.130306,0.815053,-0.355159,-0.618375,0.549273,0.254299,0.454985,-0.982614,0.819918,-0.033209,0.801556,0.875044,-0.646837,0.863239,0.869679,-0.091541,0.855516,-0.665209,-0.656115,-0.672731,0.355976,0.195975,0.187336,-0.501255,-0.0702126,-0.903256,-0.73626,0.877396,-0.642666,-0.597872,-0.154205,0.485759,-0.582026,-0.2602,-0.470054,-0.642869,0.963304,0.917691,0.1676,-0.261695,-0.947172,0.82946,0.0015384,-0.308814,-0.838624,0.0931057,0.335146,0.687884,-0.166043,-0.729703,0.557968,0.280512,-0.0202869,-0.990946,-0.72475,-0.606196,0.464418,0.633791,0.143259,-0.35022,-0.277521,-0.668483,0.392386,-0.537543,-0.102557,-0.991785,-0.199072,-0.454111,0.280817,-0.0684128,-0.938714,-0.362499,0.268812,-0.683095,-0.636408,-0.564022,0.854546,-0.890651,0.60375,0.776898,0.836153,-0.557979,-0.462478,-0.444496,-0.543673,0.903588,0.942614,0.42038,0.963017,0.465838,0.752962,0.75253,0.298918,0.680985,0.603759,0.359517,0.346683,0.116817,0.664693,-0.106692,-0.838903,0.00612255,0.276603,0.483163,0.0320793,-0.51218,-0.720616,-0.818275,0.809799,-0.459253,0.797521,-0.946466,-0.351464,0.0136217,-0.86607,-0.196138,0.016059,0.50809,0.375577,-0.282291,-0.288093,0.0763392,-0.104741,-0.467939,0.328222,-0.738624,-0.937894,-0.779186,-0.523146,0.935963,0.224626,-0.649862,0.855362,-0.711334,-0.188906,-0.146927,0.423599,
-0.202213,-0.378077,0.351775,0.546364,0.968725,-0.570531,-0.13812,-0.288046,-0.502147,-0.874333,-0.895543,0.605873,0.31226,0.803807,-0.918189,-0.10797,0.506889,0.966059,0.0571056,-0.285357,-0.99745,-0.512998,0.57676,-0.853891,0.60685,0.934707,0.956763,0.125784,-0.671669,-0.439997,0.473988,0.119564,0.654298,-0.25938,-0.41637,-0.715725,0.107083,-0.278308,-0.198476,-0.568553,0.477552,-0.406036,-0.537658,-0.150857,-0.272155,0.786195,-0.0133397,-0.229388,0.275146,0.86026,0.115011,-0.473837,0.54606,-0.309371,0.705665,-0.375428,0.152711,0.76752,0.434453,-0.97512,-0.343361,0.699284,-0.303968,0.703395,0.393637,0.887847,0.00231357,0.71833,-0.549899,0.150102,-0.558412,-0.687967,-0.110731,-0.883283,0.598506,-0.237146,-0.8139,0.751307,0.0368193,-0.512063,0.719314,0.356624,-0.63374,-0.815092,0.00628188,-0.532526,0.193044,-0.819099,0.0720054,0.631015,0.462928,0.529353,0.303627,-0.987685,-0.571077,0.251315,0.123623,0.939022,0.80222,0.589566,0.22222,-0.212505,0.22098,0.835943,0.871721,-0.399037,0.318022,0.33572,-0.812005,0.886917,-0.338321,-0.849807,-0.412613,0.748658,0.68192,-0.562998,-0.376847,-0.401492,0.6548,-0.692548,-0.0331266,-0.455645,-0.0660732,0.525183,-0.941584,-0.483976,0.568764,-0.280741,-0.573943,-0.452499,-0.226044,0.90404,-0.312985,-0.0609342,0.691559,-0.769989,-0.560801,0.0136519,-0.479287,-0.488103,-0.453094,0.274969,0.644398,0.827586,0.283438,-0.709931,-0.83329,0.612102,-0.695665,-0.80035,-0.213986,-0.115948,-0.00194275,0.336327,0.446238,0.718488,-0.00666435,-0.60378,-0.810028,0.681884,-0.0325528,0.826899,-0.242194,-0.578005,0.907927,0.89829,0.696074,-0.281755,0.869561,-0.129903,0.572213,0.379806,0.886591,-0.475395,-0.507485,0.952373,-0.162039,-0.132799,0.780164,0.979775,0.265846,-0.45494,-0.583049,0.307737,0.596499,0.339532,0.149283,0.829793,0.467829,0.484517,0.102972,-0.697528,0.572518,0.483429,0.682814,0.984081,-0.0135677,-0.0561457,0.725757,-0.0971806,-0.962729,-0.428365,-0.140255,-0.554494,-0.722809,0.836855,-0.622356,0.193395,0.354449,0.731477,0.849984,-0.355742,0.392846,-0.150969,-0.493943,0.512658,0.596078,0.313839,0.137089,0.707572,0.095168,0.366938,0.20915,-0.485421,-0.15572,0.791513,0.0632441,0.718435,-0.264974,-0.117158,0.121726,0.347438,-0.956937,-0.725519,0.730097,-0.672861,0.398061,0.0723875,0.661786,-0.795002,-0.103293,0.387488,-0.41576,-0.787549,-0.0175576,-0.253236,0.328499,0.516275,-0.302635,-0.45275,-0.78395,0.827304,0.697318,-0.592831,-0.407878,0.228286,-0.537909,0.0397939,0.523003,0.901364,-0.68694,-0.146929,-0.788212,0.945183,0.0390702,0.503548,0.69205,0.22701,0.0559348,0.32659,0.28254,-0.112439,-0.580605,-0.877143,-0.652454,0.232934,-0.57908,-0.118277,-0.942083,-0.272572,0.227473,0.442107,0.769681,-0.00605571,-0.000140416,0.989113,0.757003,0.435184,-0.305286,-0.993824,-0.89007,0.27505,-0.961302,0.290285,-0.0511976,-0.137349,0.791928,0.559897,-0.726637,0.796823,-0.909108,0.45794,0.552144,-0.501683,0.742862,0.63784,0.975022,0.87631,0.449303,0.546919,-0.951701,-0.720806,-0.822209,-0.970865,-0.382893,-0.0165977,0.346902,-0.791249,0.523652,-0.408872,-0.886086,-0.132695,0.5757,0.80263,-0.29498,0.209815,-0.926323,-0.0458532,-0.0356565,0.832571,-0.771192,0.928578,0.704711,0.599956,-0.0613788,-0.609289,0.739868,0.708497,0.251924,0.124826,-0.949728,-0.706334,-0.0549363,0.684736,-0.379375,0.93804,0.180833,0.640321,0.734626,-0.750307,0.952195,-0.341727,0.056985,0.874789,0.602554,-0.472098,-0.869851,0.835249,0.589194,-0.743161,0.671628,-0.229395,-0.094127,0.903294,0.633256,-0.978787,-0.651314,-0.55698,0.144802,0.818229,-0.163647,0.130904,0.568218,-0.648809,-0.667372,-0.242094,0.847018,-0.647555,0.33201,-0.0172438,-0.620365,-0.663159,0.823493,0.201399,-0.431604,0.117315,-0.322895,-0.793239,0.130033,-0.806006,0.0852459,0.952112,-0.143212,0.230328,-0.656376,-0.248943,0.247183,0.870434,0.363566,0.997387,0.775426,-0.626215,-0.712094,-0.0778517,-0.209401,0.915953,0.948774,0.847785,-0.137542,-0.933059,0.703825,0.569193,-0.490503,-0.681275,-0.594608,0.03004,-0.475604,0.590879,0.305579,-0.699187,0.527898,0.258945,-0.268205,-0.662571,0.161431,-0.772283,0.105024,0.789641,-0.0888379,-0.750068,-0.236057,0.102777,-0.536309,-0.216814,-0.236088,-0.141784,-0.232658,-0.984707,0.929057,-0.697113,0.759008,0.264569,0.280022,-0.776716,-0.89787,0.448726,0.598848,-0.0604393,0.371421,0.854526,0.830232,-0.862948,0.114009,-0.968013,-0.163801,0.959824,0.959262,-0.0760736,-0.266117,0.103593,-0.957699,0.682059,0.848695,0.586445,-0.520522,-0.854711,0.320483,0.885058,0.524245,0.703087,-0.875884,0.292238,-0.814505,-0.098712,-0.112918,0.667268,0.497351,0.21723,-0.459389,0.882719,-0.308652,0.425318,0.132829,-0.465165,-0.593189,-0.888514,-0.114927,0.764311,0.0288497,0.411089,0.848001,-0.770933,-0.906122,-0.939424,-0.0941144,-0.68707,0.30804,-0.835663,-0.765172,0.138768,0.421679,-0.821109,-0.401494,0.379764,-0.391504,-0.643164,0.578692,-0.417813,0.452836,-0.806553,-0.268902,0.724721,0.950544,0.840052,0.579586,0.649079,-0.275933,-0.486507,-0.0881043,-0.0138165,-0.907968,-0.0343367,-0.0277629,0.15332,0.394901,0.109726,0.452955,-0.646771,-0.382364,0.544823,-0.0806727,-0.867895,-0.0238516,0.621856,-0.989289,0.276943,0.0999269,-0.133524,0.461847,0.349191,-0.172807,-0.713954,-0.284902,0.575875,-0.660976,0.270051,-0.454255,-0.190492,0.940797,0.457994,0.774823,0.422133,-0.147376,-0.347623,-0.037259,0.336761,-0.412081,-0.702028,0.698252,-0.0746606,-0.400212,-0.755133,0.680135,0.118462,0.16805,0.975369,0.986736,-0.840257,-0.783047,0.953537,0.768397,0.581061,-0.563595,0.427215,0.785129,-0.863208,-0.807858,-0.843024,-0.0653602,-0.520687,0.545957,0.845198,0.436251,0.100609,0.902521,0.221366,0.92169,-0.958398,0.477642,-0.439564,-0.973573,-0.130812,0.693191,-0.20095,-0.709421,-0.0975197,0.621956,-0.259951,-0.671223,0.573424,-0.0971669,-0.573495,0.342377,0.746295,0.676177,0.996759,0.000961539,0.364651,-0.711571,-0.936037,0.957709,0.645868,0.0314209,-0.748965,0.0299916,0.330449,-0.0519904,0.00855299,-0.746706,0.415873,-0.0274591,-0.988735,-0.796786,0.772659,0.322192,-0.226051,0.0786845,-0.233185,0.428329,0.718493,0.371496,0.609938,0.982719,0.794027,-0.803203,-0.401786,0.0402666,0.253021,0.247395,-0.919869,0.454217,-0.401882,-0.128252,-0.953625,0.448385,-0.971734,0.672658,-0.729763,-0.805748,-0.19922,0.993624,0.724767,-0.127306,0.320156,0.594998,-0.0670571,0.909553,-0.93241,-0.304796,-0.373055,0.811909,-0.725367,0.502702,0.844693,0.888308,-0.388406,0.576515,-0.930887,-0.917603,0.362719,0.993073,0.742806,-0.631008,0.532745,-0.348645,-0.343439,-0.351288,-0.799723,-0.485815,0.683754,0.512766,0.330635,0.831987,0.833685,-0.4785,-0.606245,-0.40388,0.624799,-0.475032,0.824929,-0.190428,0.823469,0.0888694,0.84489,-0.571535,-0.960572,-0.308955,0.608314,0.91934,0.543068,0.511782,-0.571646,-0.3575,0.545334,0.732741,-0.487489,-0.21428,0.159542,-0.782098,0.0862253,0.566124,0.881026,-0.444341,-0.0836441,0.268323,-0.959581,0.747443,-0.352237,0.718278,0.0447312,-0.135036,0.0672051,0.32096,-0.823856,-0.909842,-0.69859,-0.430392,-0.223674,-0.942505,-0.582082,0.818953,0.859978,0.402012,-0.408396,-0.94686,0.162172,0.197621,-0.46749,-0.179212,-0.800263,-0.0658903,-0.717181,-0.449359,-0.637609,-0.832021,0.828349,-0.252479,0.800765,0.99076,0.386311,-0.610767,-0.126537,-0.237955,-0.0525377,0.218319,-0.275606,-0.224819,-0.609885,-0.314213,0.704279,-0.716317,0.33667,0.780651,0.650423,-0.702113,-0.983107,0.876058,0.992603,0.267255,0.0405137,0.604798,-0.162809,-0.781852,-0.666352,-0.927684,0.708839,-0.258909,-0.159823,-0.324026,0.507573,-0.90242,-0.172607,0.0258199,0.259063,
