-0.0461491,-0.0232875,-0.0170124,-0.00458608,0.0399465,0.0293611,-0.0460317,0.0483271,-0.0355534,0.00131129,-0.0399727,-0.0498376,0.0488213,-0.0164448,-0.0128527,0.0390128,-0.0340737,0.0347499,-0.0269082,-0.0309222,-0.0136511,0.0193097,0.0163227,0.0407008,-0.011619,-0.0389502,0.0493946,-0.048425,-0.0345215,-0.04362,0.00696997,0.0310123,-0.0236525,0.0262331,-0.0278634,-0.00147854,-0.0146514,-0.00461724,-0.0221109,-0.0299415,-0.0167851,0.0489982,-0.026513,0.0495387,0.0101562,-0.0142467,0.0248524,-0.0457196,0.0379721,-0.0434511,-0.0116149,0.0489209,-0.0370783,0.00514904,0.0214111,-0.00774876,-0.0245783,0.0258054,-0.0217946,0.0374027,0.0382656,-0.0402403,-0.00924933,0.0423341,0.0486575,0.0405677,0.0488453,-0.049526,0.0168964,0.0168548,-0.0350041,0.0445731,-0.0216302,0.0136256,-0.0187096,-0.0377446,-0.00813109,0.0363437,-0.0338414,-0.0161401,0.0489226,-0.0285305,-0.0503959,0.0359735,-0.0359443,0.0203183,-0.0406158,0.00205855,1.01753e-006,-0.0399199,0.0387934,0.0114412,0.00397008,-0.0394988,0.039631,-0.0312655,0.0467206,0.0266346,0.0501615,0.0266294,0.0284203,0.0300439,0.0312655,0.0505179,0.00537233,-0.0243875,0.0416973,0.0343016,-0.0491701,0.0440296,-0.00656559,-0.0075655,-0.0204591,0.0269677,-0.031218,-0.0385509,-0.0351622,-0.00748533,-0.0235714,0.0506239,-0.0225169,0.04447,0.0133102,-0.0468333,-0.0418715,0.0457271,0.0404468,-0.037789,0.00793063,-0.0405242,0.00141497,0.023016,-0.00290815,0.0392662,-0.0488508,-0.0290307,-0.0489241,-0.0143086,0.0431501,0.0417583,0.00631795,-0.0138048,-0.0328785,0.0481818,0.00117914,0.0197018,0.0236428,-0.0385109,0.0263163,0.0282594,-0.00134903,0.0281945,-0.0306344,0.00536811,0.00620512,-0.0217227,0.010159,0.00978911,0.0181258,-0.00242017,0.0130647,0.0482382,0.0444448,-0.024999,0.0167581,0.0276904,-0.0301509,-0.0371404,-0.000862339,0.00474232,0.0368753,0.0405995,-0.0139472,0.0113131,0.0127276,0.0362592,-0.0466277,-0.02724,0.0462066,-0.0348628,0.0158577,0.0342183,0.0150571,0.0498454,-0.0196369,0.0464175,0.00862213,-0.0121124,-0.0466738,0.0143926,-0.0244119,0.0432645,0.015499,-0.0396112,-0.0348275,0.0249143,0.0210092,0.0504199,0.00662573,-0.0191747,0.0241489,-0.00411262,0.00255882,0.0105553,0.0254242,-0.0312479,-0.0119997,-0.0107419,-0.0400662,0.0355424,-0.0435092,0.0505,0.0252197,-0.0121296,-0.0257648,-0.0209865,0.0264074,-0.0035507,-0.00680345,0.0026891,-0.0468295,-0.00128813,-0.0481523,0.0147964,0.00964808,0.0384039,-0.0126193,0.0273302,0.0378385,-0.0177284,-0.0399665,-0.0349182,0.00297421,0.0167165,-0.0441794,0.0371083,-0.0475408,0.0194292,-0.0130365,0.0333426,0.0507612,0.0153547,-0.0392123,0.0396806,-0.0234429,0.0179229,-0.045295,-0.0237395,0.0377296,0.0475324,-0.0186802,-0.00215707,0.0345419,0.00293132,0.0321308,-0.020128,-0.0101617,-0.00198875,-0.0334076,0.0452014,0.0300998,0.040749,0.050177,-0.00932435,0.0294824,0.0405198,0.0164767,-0.0464454,0.000259017,0.00358144,0.0158471,0.0159846,-0.00271045,-0.0380457,-0.0231681,0.0193173,0.00749066,-0.0345766,-0.0285972,0.015712,-0.0419545,0.0076745,0.0473492,0.0494345,0.0482269,-0.00591072,0.03865,-0.00241939,0.0253379,-0.0505843,-0.0434916,-0.0094441,0.00412988,-0.0471421,-0.0176343,-0.0252493,0.00165371,-0.00981121,-0.0113659,0.0373358,-0.0284547,-0.0193134,-0.0312578,-0.0332271,-0.0462995,-0.00443666,-0.0146136,-0.00328048,-0.00738756,-0.0190497,0.026779,-0.038426,-0.0419095,-0.0262871,0.0313415,-0.0486025,-0.0486136,-0.00946096,-0.0047956,0.0143116,-0.0273913,0.0358537,0.017906,-0.000424826,0.0172061,-0.0244147,-0.0216315,-0.0218229,0.0285127,-0.0500918,0.0196752,-0.0467351,0.0125807,0.00302442,-0.0171097,0.0367769,0.0184811,0.0420284,-0.0326906,0.012678,0.0480889,-0.0129139,0.0448304,-0.00705222,0.0297225,0.0198304,-0.0238249,-0.0141221,-0.0472672,-0.0379578,0.0484076,-0.00475073,0.049344,-0.025393,-0.00696302,-0.0250035,0.0132035,0.0166324,-0.0287185,-0.0245248,0.0308233,-0.0181177,0.0136252,0.00182799,0.0224668,-0.0486432,-0.0256106,0.0214809,-0.0112523,0.0435331,-0.0407485,-0.0414521,-0.016213,0.0260152,-0.0336251,0.0282382,-0.010509,-0.0310453,0.0382227,0.0304538,0.0151943,0.0326841,-0.0300847,0.0112015,0.0161543,-0.0418341,-0.0312429,0.0207573,-0.0243041,-0.0420213,-0.0412045,-0.0382525,0.013306,-0.0127246,0.0416416,0.0338108,-0.00535098,-0.0107148,-0.00877326,-0.00463937,-0.0208757,0.0290723,-0.0390296,0.00181142,-0.0429115,0.0268257,0.014502,-0.0205121,-0.0246061,-0.0208011,0.00444076,0.0230179,-0.0283298,0.0275539,0.00215314,-0.00685778,0.0209749,0.00773522,0.0189884,0.0030531,0.0446466,0.0473895,-0.0201905,-0.0142575,0.0166604,0.0496724,0.0201705,0.0490124,-0.0365031,-0.0300847,0.0269115,-0.0464827,0.0205905,0.0137696,-0.000430938,0.0297493,0.00409462,-0.0265354,0.013681,-0.00872889,-0.0377437,-0.0261597,0.0240161,0.0179679,0.043715,-0.0255151,-0.0483824,-0.0125216,0.0466177,-0.00246001,-0.0379476,0.0180633,-0.0255806,-0.0344542,-0.00826802,0.0155688,-0.0139262,-0.00587296,-0.00213723,-0.0491966,-0.0105753,-0.022553,-0.0476342,-0.0143336,-0.0191395,0.00651522,0.0213955,0.00609738,-0.00447626,-0.00140164,-0.0471115,0.0288592,-0.0304328,-0.0125617,-0.0220508,-0.032101,0.010036,-0.0298145,-0.0134997,0.0121468,-0.00598214,-0.0417091,-0.0318557,-0.00706756,0.0455643,0.00826842,0.00766903,-0.00447525,-0.00900465,-0.00789132,-3.08643e-005,0.029501,-0.0317352,-0.0239655,0.0069342,-0.01677,-0.0344164,0.0401889,0.00597197,0.000177811,-0.00884737,0.0314411,-0.0169361,0.0109498,-0.00251068,0.0419731,-0.0161104,-0.0126186,0.0461007,-0.0167435,-0.0359157,0.00994827,0.0194767,0.00348013,0.0435787,-0.0279657,-0.0480323,-0.0364044,0.00754786,0.00567316,-0.0238595,0.0491085,-0.0448413,0.0500642,0.0261456,0.00388212,0.03223,-0.0213442,-0.0508157,0.0203962,-0.0304754,-0.0318602,0.0310606,-0.0487247,-0.0428554,0.0309181,0.0104664,0.00815717,-0.0142302,0.000592428,0.0280791,0.0150592,-0.0161652,-0.0399771,0.0473811,0.0371608,-0.0264197,-0.00607554,-0.0311103,0.0135615,-0.0135334,0.0339935,0.0106416,-0.0378068,-0.0072604,0.0486306,-0.00219414,0.0506637,0.0462203,0.0174267,0.0299612,-0.0184699,0.00952657,-0.00341078,-0.00707395,-0.00594765,0.00582897,0.0420477,0.0433215,-0.00215974,0.00700223,-0.0375928,-0.039556,0.00314386,-0.0444631,0.0413798,-0.0309333,0.0130477,-0.0308105,0.0249781,0.0487656,0.0290716,-0.0406604,0.0435715,0.0337705,0.0178981,0.0220782,0.0406951,0.00914211,0.0170699,0.0428583,0.00444102,0.045368,-0.0136313,0.0447311,-0.0037127,0.0426291,0.0410165,-0.0239431,-0.0477433,0.0448796,-0.0394627,-0.0447618,-0.0020712,0.00288106,-0.0391123,-0.0060517,0.0277538,-0.0116274,-0.0201341,0.00634492,0.0267329,-0.0174651,-0.046847,0.0167035,-0.013451,0.0368875,-0.020362,-0.0274627,0.0277381,0.00124651,-0.045106,-0.0134013,0.0359053,-0.0499244,0.00511521,-0.0161455,-0.0106598,-0.0345289,0.00199782,-0.0199471,-0.014031,-0.0373957,-0.0106213,-0.0293981,0.0486075,-0.0468645,-0.0167908,-0.0207885,0.0222567,-0.0156961,0.0421814,0.0140537,-0.0104455,0.000831713,0.0419874,-0.0476445,0.0326098,-0.0205327,-0.0334276,-0.0216021,0.0443815,0.0244177,0.0395078,0.0445289,0.0350174,-0.0286988,-0.0389496,-0.0342411,0.0215841,0.00533305,0.00827406,0.0322717,-0.00358527,-0.0145513,0.00664929,-0.00624948,-0.0396012,0.039554,-0.0199753,0.00484866,-0.0348378,-0.00631568,0.0497958,-0.0260617,-0.0440582,-0.0488092,-0.00116645,0.00959336,-0.012266,0.0250692,-0.0470314,-0.00106985,0.0189186,-0.019557,-0.0416094,0.0405919,0.0499378,0.00945915,0.0382199,0.00990828,-0.0466561,0.0388003,0.0172682,-0.0322041,-0.014379,0.00533771,-0.00832255,0.0114443,0.00452658,-0.0131663,-0.0415599,-0.00870686,-0.00616612,0.0372933,-0.0155767,0.0230343,-0.0402356,-0.0303533,-0.0248456,-0.0140574,0.0386965,0.002993,-0.0357382,0.0403133,-0.00150679,0.0436215,-0.0184238,-0.0226033,-0.0203997,0.00999085,-0.02712,-0.00636363,-0.0271031,0.0256758,-0.0355771,0.0144323,0.0461336,0.04577,0.013522,-0.0451432,0.0507155,-0.00590076,0.0474324,-0.0231654,0.0383459,0.0308333,-0.013343,0.0436094,0.0159516,0.0223239,0.0487933,0.0459678,0.0121211,0.0383492,-0.00597437,-0.033912,0.0337462,-0.0342046,-0.0114406,-0.0207414,0.007037,0.0212691,-0.0397571,-0.0401473,0.00763036,0.00423677,0.0478685,0.0209041,0.0154277,-0.00433542,-0.0450929,-0.011156,0.0322245,-0.0208271,0.0375059,0.00324887,-0.0490632,0.0380011,-0.0112947,0.000515687,-0.0247446,-0.0374615,0.0336949,0.007816,0.0265088,-0.0348534,0.0135366,-0.00567881,0.00691156,0.0117594,0.0395318,-0.00755579,-0.0473197,
-0.555733,-0.560894,-0.555008,-0.54773,-0.521185,-0.531402,-0.527898,-0.498152,-0.55231,-0.522462,-0.496373,-0.586777,-0.545633,-0.539878,-0.569541,-0.546717,-0.566275,-0.59895,-0.517301,-0.553566,-0.544159,-0.524993,-0.582246,-0.535735,-0.538883,-0.563605,-0.562517,-0.550789,-0.537377,-0.518693,-0.521766,-0.563248,-0.544215,-0.500297,-0.561687,-0.546432,-0.510958,-0.524314,-0.526221,-0.525109,-0.51931,-0.57168,-0.544494,-0.555105,-0.569453,-0.547067,-0.51472,-0.571527,-0.538534,-0.549766,-0.57196,-0.537489,-0.554027,-0.573889,-0.574571,-0.515261,-0.554904,-0.545596,-0.543289,-0.520675,-0.534007,-0.541234,-0.570688,-0.553287,-0.523129,-0.540503,-0.508875,-0.559685,-0.556582,-0.563273,-0.568311,-0.531674,-0.583223,-0.538917,-0.535908,-0.535238,-0.515994,-0.547095,-0.521808,-0.504988,-0.581811,-0.539463,-0.527517,-0.53515,-0.560934,-0.507769,-0.539293,-0.511708,-0.55601,-0.558932,-0.571208,-0.554548,-0.5117,-0.493384,-0.546352,-0.523419,-0.547528,-0.549428,-0.594447,-0.523046,-0.541231,-0.49965,-0.490459,-0.46517,-0.47517,-0.49078,-0.502995,-0.506536,-0.512832,-0.540126,-0.568946,-0.516838,-0.515092,-0.534445,-0.517431,-0.545009,-0.535582,-0.535546,-0.517194,-0.536943,-0.516061,-0.507031,-0.517262,-0.538025,-0.486901,-0.546497,-0.501037,-0.52089,-0.434859,-0.391021,-0.312738,-0.293388,-0.271651,-0.356324,-0.467119,-0.524543,-0.557385,-0.53625,-0.500272,-0.530971,-0.541362,-0.55759,-0.578044,-0.568841,-0.506805,-0.472353,-0.475696,-0.471129,-0.433081,-0.459449,-0.471407,-0.45437,-0.530896,-0.509194,-0.474567,-0.468297,-0.345732,-0.235327,-0.167822,-0.111909,-0.0827225,-0.161594,-0.31724,-0.427708,-0.538215,-0.582414,-0.561004,-0.526239,-0.566029,-0.528224,-0.554043,-0.558478,-0.534159,-0.436194,-0.390686,-0.368074,-0.337446,-0.374607,-0.389019,-0.481125,-0.494225,-0.468853,-0.464469,-0.389165,-0.202707,-0.0572889,0.0364456,0.0546546,0.1283,0.0399184,-0.101971,-0.386909,-0.568896,-0.577936,-0.550831,-0.544631,-0.537321,-0.524107,-0.578316,-0.499885,-0.451708,-0.314202,-0.242474,-0.167775,-0.199175,-0.268573,-0.368426,-0.399051,-0.522914,-0.521837,-0.460754,-0.288283,-0.118082,0.0529498,0.194067,0.198271,0.21008,0.191917,-0.00395185,-0.311039,-0.527015,-0.547551,-0.562653,-0.54572,-0.5171,-0.547409,-0.531798,-0.460463,-0.359008,-0.201556,-0.102458,-0.0676729,-0.13957,-0.172855,-0.326949,-0.4099,-0.489293,-0.408542,-0.35621,-0.126858,0.0719943,0.177956,0.209517,0.278869,0.364276,0.298776,0.1492,-0.254851,-0.506171,-0.50915,-0.525458,-0.581064,-0.567726,-0.533964,-0.564628,-0.424612,-0.262738,-0.130497,-0.014822,0.0421664,-0.0502506,-0.202898,-0.266486,-0.440685,-0.463979,-0.459189,-0.207528,-0.0357182,0.111833,0.244927,0.228004,0.297443,0.439281,0.403452,0.181148,-0.234833,-0.50569,-0.544779,-0.514105,-0.491573,-0.55749,-0.531671,-0.539549,-0.366646,-0.16709,0.0392341,0.114327,0.0630541,-0.00842002,-0.149506,-0.285842,-0.449983,-0.449989,-0.430445,-0.141491,0.0676603,0.18278,0.233354,0.249796,0.35534,0.468719,0.311714,0.122404,-0.221441,-0.519674,-0.556099,-0.549599,-0.568597,-0.556424,-0.571584,-0.48263,-0.329815,-0.0209814,0.163658,0.220573,0.209136,0.0184277,-0.205,-0.305675,-0.413891,-0.416431,-0.299746,-0.0679932,0.110882,0.302161,0.34249,0.371145,0.395215,0.439248,0.288338,0.108475,-0.26744,-0.47933,-0.551569,-0.549308,-0.556531,-0.54905,-0.531135,-0.516926,-0.269702,0.0628608,0.278427,0.276897,0.167429,-0.0186035,-0.217906,-0.34663,-0.463892,-0.402497,-0.266139,-0.0473767,0.257867,0.366775,0.359484,0.411895,0.424034,0.407624,0.220697,-0.0563207,-0.273352,-0.534477,-0.554922,-0.564475,-0.534734,-0.521096,-0.526379,-0.494667,-0.23515,0.160292,0.359006,0.332864,0.202212,-0.00481387,-0.186384,-0.335761,-0.400736,-0.352738,-0.208036,0.00749918,0.252702,0.40933,0.461711,0.419842,0.417602,0.316384,0.159922,-0.126178,-0.36669,-0.499496,-0.503836,-0.570042,-0.536146,-0.529185,-0.583044,-0.453368,-0.190667,0.180366,0.347179,0.378058,0.123107,-0.091366,-0.23686,-0.284817,-0.299495,-0.184752,-0.115074,0.0638674,0.271974,0.42788,0.453939,0.386676,0.34352,0.21077,0.0564747,-0.19408,-0.356949,-0.471329,-0.507071,-0.577651,-0.53966,-0.552569,-0.517915,-0.474977,-0.190063,0.169579,0.361559,0.350669,0.128155,0.0205269,-0.145084,-0.174922,-0.17226,-0.0275193,0.076061,0.192562,0.36235,0.419467,0.429321,0.305672,0.334463,0.177565,-0.00172005,-0.192964,-0.347723,-0.480504,-0.536628,-0.576416,-0.5825,-0.575077,-0.546596,-0.523708,-0.194421,0.180739,0.344009,0.324733,0.189034,0.018972,-0.0144328,-0.00272981,0.0443023,0.152267,0.171526,0.241818,0.313857,0.340258,0.302578,0.314789,0.26371,0.132309,-0.0711924,-0.189241,-0.417627,-0.535403,-0.553032,-0.555382,-0.584363,-0.529146,-0.579707,-0.489337,-0.260783,0.0426782,0.236054,0.294074,0.172912,0.167352,0.113959,0.122073,0.119139,0.176292,0.251344,0.236696,0.193986,0.253435,0.230108,0.247889,0.243056,0.107704,0.0276167,-0.21801,-0.365697,-0.527111,-0.51796,-0.559856,-0.565134,-0.549736,-0.541126,-0.562635,-0.339608,-0.0730774,0.152896,0.247412,0.170855,0.201012,0.151897,0.187593,0.204706,0.218792,0.169777,0.144123,0.0876236,0.0411533,0.107473,0.203681,0.227385,0.152625,0.0317086,-0.195653,-0.360209,-0.52336,-0.532498,-0.513158,-0.482072,-0.517042,-0.573035,-0.487956,-0.453561,-0.148948,-0.00402619,0.0854199,0.12678,0.162138,0.204352,0.158727,0.128328,0.136299,-0.014969,-0.0177722,-0.121169,-0.121046,-3.67554e-005,0.118815,0.160914,0.125464,0.0325854,-0.143452,-0.403424,-0.513061,-0.537716,-0.569697,-0.545046,-0.531153,-0.519389,-0.535226,-0.523025,-0.340184,-0.202613,-0.090052,0.0345343,0.037353,0.0189995,0.0106469,-0.0777543,-0.0723439,-0.128406,-0.213656,-0.259405,-0.239896,-0.114716,0.00341281,0.112819,0.0878985,-0.043688,-0.243286,-0.459459,-0.56834,-0.547715,-0.554716,-0.505633,-0.524341,-0.56006,-0.50598,-0.531525,-0.487781,-0.346156,-0.256931,-0.220585,-0.1762,-0.169253,-0.163455,-0.228496,-0.337003,-0.317352,-0.36359,-0.399343,-0.350496,-0.191371,-0.0502527,0.0455152,0.000387172,-0.0589139,-0.248206,-0.445056,-0.557832,-0.549139,-0.513337,-0.568179,-0.545248,-0.52201,-0.526811,-0.549396,-0.524427,-0.485399,-0.422851,-0.371445,-0.387602,-0.340455,-0.393538,-0.431908,-0.403485,-0.448974,-0.435153,-0.468952,-0.416638,-0.233754,-0.123008,-0.0631579,-0.0545933,-0.183075,-0.354687,-0.437723,-0.512439,-0.537872,-0.515439,-0.551564,-0.545269,-0.540388,-0.544745,-0.550679,-0.553605,-0.531105,-0.528099,-0.522616,-0.508042,-0.538505,-0.518108,-0.538677,-0.510326,-0.522403,-0.512131,-0.468059,-0.424716,-0.290078,-0.168153,-0.165223,-0.171124,-0.243386,-0.415792,-0.5012,-0.549376,-0.555807,-0.57899,-0.528372,-0.52946,-0.564529,-0.546971,-0.509179,-0.555231,-0.519432,-0.524112,-0.52477,-0.571029,-0.558888,-0.540221,-0.56019,-0.538931,-0.524546,-0.492833,-0.460959,-0.45553,-0.39271,-0.33426,-0.317282,-0.346762,-0.43084,-0.505925,-0.509354,-0.553354,-0.582189,-0.564834,-0.567901,-0.542532,-0.505572,-0.546599,-0.573075,-0.588108,-0.518169,-0.532791,-0.554533,-0.507839,-0.52621,-0.53166,-0.561469,-0.489828,-0.549688,-0.52151,-0.507021,-0.512019,-0.441826,-0.438927,-0.471244,-0.439628,-0.498478,-0.538143,-0.553488,-0.501673,-0.52126,-0.558903,-0.576078,-0.485372,-0.543754,-0.520724,-0.538594,-0.561617,-0.562438,-0.563899,-0.549746,-0.567802,-0.522119,-0.536153,-0.54178,-0.554634,-0.529498,-0.523003,-0.529888,-0.547198,-0.519536,-0.506507,-0.52284,-0.522735,-0.566844,-0.513442,-0.534959,-0.523525,-0.521136,-0.547502,-0.552223,-0.541649,-0.530222,-0.521375,-0.53219,-0.518161,-0.562944,-0.554339,-0.539578,-0.526758,-0.558111,-0.580553,-0.525809,-0.554575,-0.529563,-0.570724,-0.552397,-0.525464,-0.53101,-0.505378,-0.536184,-0.545426,-0.541028,-0.542589,-0.568069,-0.529586,-0.55907,-0.567038,-0.555775,
0.0257802,0.0344052,0.0356329,0.0127817,0.0244726,-0.00466547,0.0338194,0.0322514,-0.024028,-0.00492096,-0.0369312,0.0127441,0.0190625,0.00356605,-0.0327078,-0.00623928,0.0393098,-0.0218164,-0.0131276,-0.0128615,0.0192253,-0.00642314,-0.0270695,-0.018538,-0.03472,0.00603285,-0.0245499,0.015066,-0.00380644,0.0317717,-0.0219948,0.036297,0.0262912,-0.0448708,-0.0441517,0.0148992,-0.0454779,0.0403604,0.0039632,0.0153068,0.0266229,0.0241723,0.0301632,-0.0441779,0.00175252,0.0210955,-0.0028884,-0.0194955,-0.0497552,-0.0131715,-0.00332303,-0.0295542,-0.0102706,0.0289955,0.00494739,-0.00573274,0.04379,0.0456904,0.0463603,0.0250385,0.0417454,-0.0168506,0.00914009,-0.0230242,0.0399971,0.0467442,0.0152409,-0.0354129,0.0417313,0.00181766,-0.0473731,0.00831422,0.0192315,0.0381601,0.0251133,0.0403578,0.0107194,0.0500138,0.0140869,-0.0168813,-0.0212211,-0.0431785,-0.00818207,0.0384685,0.0202689,0.0223816,0.0133785,0.0225543,0.0206264,0.00992814,0.0155123,0.011732,0.0176457,-0.0236313,-0.0390149,-0.0433843,-0.0488516,0.0453441,0.0434395,-0.0230375,0.0395021,-0.046121,-0.0146895,-0.035194,-0.0505997,-0.0359741,-0.0339082,0.0278156,0.00041657,-0.0150729,0.0427194,0.0318083,0.00262067,0.0230579,0.0306951,-0.0292938,0.0271036,-0.00491127,-0.0433182,0.0310188,0.0446084,0.0169328,-0.0349668,0.00740175,0.018799,-0.0421108,0.00343878,-0.0488991,-0.00056778,0.0201769,-0.0242796,-0.0421266,0.0467181,-0.0356521,-0.045794,-0.0374542,0.024631,-0.0169433,0.0247779,0.00248516,0.0133469,-0.0349538,0.0355893,0.0326967,-0.023436,-0.0267479,0.0267842,-0.0172809,0.0113414,0.0338097,0.0508378,-0.0376398,-0.0149712,0.0465348,-0.0418578,-0.0044925,-0.020525,-0.0473506,0.0477276,-0.045101,-0.0251218,0.0227179,-0.0358067,-0.0362017,0.0297759,0.0371314,-0.0160109,-0.00274706,0.00106428,-0.0282372,0.000443109,-0.0434116,-0.023863,-0.0295549,0.000772851,-0.0149029,-0.0506993,-0.0413218,0.0265223,0.0152217,0.0492418,-0.0418504,0.0466952,-0.00387854,-0.0221257,0.025816,0.0334019,-0.0306372,-0.036615,0.0127859,-0.0237769,0.00303611,-0.0234745,0.0288326,0.00571318,0.0115454,-0.0198344,0.0373652,-0.0041778,-0.0196148,-0.0135468,0.00751245,-0.0116752,0.0263956,0.0452748,0.0396037,-0.0324071,-0.0286768,-0.014194,-0.0243686,-0.00962561,0.0201467,0.0456868,-0.0205377,0.0412615,-0.0265574,0.0284502,0.00791377,0.0352364,0.0192386,0.0355787,0.00961569,0.0442021,-0.0309445,0.00395802,-0.0238003,-0.0070164,0.0245943,-0.0040428,0.0417205,-0.0482215,0.00974029,-0.0448848,-0.043212,-0.0427495,0.0203419,-0.051097,0.00713515,0.00622074,-0.043197,0.027267,-0.00916575,-0.0189083,-0.00549386,-0.0333065,-0.011112,-0.0495912,0.0361319,0.025106,0.0345465,0.0478679,-0.0322583,-0.0441095,0.00520936,-0.0115652,0.0181591,0.0171767,0.0416494,0.0409682,-0.0287995,-0.0253335,0.0214488,0.0290901,0.00912079,-0.0383142,0.0485769,0.0151117,-0.0395784,-0.0503035,0.0298327,-0.0291523,-0.00807405,-0.0354281,0.0347767,-0.0217026,0.017694,0.0161805,-0.0208203,-0.0455046,-0.010533,0.00271197,-0.0131615,0.0492071,-0.0184511,-0.0249587,0.0321419,0.00742772,0.032424,0.00333205,0.0252036,-0.00384991,-0.0116873,-0.0171511,-0.000131355,0.0456542,0.0139546,-0.0480692,0.00869491,0.0246117,0.0238357,0.0178366,0.0319108,-0.0147732,-0.0153348,0.00670514,-0.0156325,-0.0193902,0.0363312,0.0450248,0.0249116,-0.0417651,0.0359787,0.0477875,-0.00404306,0.0446292,-0.0318132,0.0498619,0.0448012,-0.0316236,-0.0254484,0.00570475,-0.00366049,0.0174556,-0.0498034,0.0175912,-0.00210037,-0.0130638,-0.000312702,-0.0507016,0.0228047,0.0485694,-0.0450236,-0.0510625,0.0441097,-0.0176327,0.0117404,0.0342835,0.0478405,0.0271865,0.000853406,-0.0376717,0.0436155,-0.0017336,0.0292078,0.0476161,0.0170441,0.0328166,-0.0254534,-0.0191963,-0.0392325,0.0186035,-0.017896,-0.00758996,-0.0107396,-0.0259219,0.0059653,0.0446051,0.0134667,-0.0374249,0.0317972,-0.0218546,-0.00495525,-0.00245587,-0.0421968,0.043086,-0.0512372,0.0258833,0.0185838,-0.0455406,-0.0415231,-0.0144025,0.00763168,0.0297577,0.0413126,-0.0359305,0.0477086,0.00318338,-0.0194262,-0.0448946,0.0374687,0.0511187,0.0504763,0.0149751,-0.0134848,0.0299187,-0.0147564,-0.00763183,0.0124824,-0.0361825,0.0099165,0.0310667,0.00444792,0.0285328,0.0372194,-0.0362301,-0.0253083,-0.0369352,0.00253748,0.0497774,-0.0244403,0.0326485,0.0347841,0.0363277,-0.0139039,-0.0231331,0.033507,0.014583,-0.004227,0.0216471,-0.0322657,-0.0466762,-0.0207359,-0.0161841,0.0303905,0.0426268,-0.00771906,-0.0416694,-0.0432173,0.0171532,-0.0285599,-0.0447094,0.0319417,-0.00509697,-0.032266,-0.0188154,-0.0302645,0.0252294,0.00833753,0.0366656,-0.0149864,-0.0349121,-0.038991,0.0381092,0.0159644,-0.0271214,0.0211919,-0.0382662,0.011059,0.0185558,-0.00475407,-0.0297241,0.0143709,-0.0246352,0.0458095,-0.0146396,-0.0479654,0.0260354,-0.0510273,-0.0128749,-0.0426496,-0.0342285,-0.0330901,0.0181498,-0.0285816,-0.0373044,-0.00759338,0.0133494,-0.00230553,0.0281099,0.0459658,-0.0111133,-0.0312868,0.0495624,0.0223654,0.00445162,-0.0138722,-0.032596,0.0162996,0.000945333,-0.0116433,-0.0436792,0.0428998,-0.0100303,0.0357709,-0.013093,0.0277926,-0.00301487,-0.0283536,-0.0484323,-0.0137577,-0.0217967,0.0153986,0.00702669,0.0319134,1.2955e-005,0.00893636,0.0412533,-0.0198189,0.0434007,-0.0348237,-0.0390084,-0.0269701,0.0201346,-0.0495135,-0.00921173,0.0224769,0.020595,0.0431485,-0.0359563,0.00840247,0.0304384,0.0486033,-0.0171158,-0.0158634,-0.0083405,0.0410744,0.0247336,-0.0130762,-0.0164697,0.0112491,-0.0207912,0.0277423,0.0329126,0.0429474,-0.0285058,-0.029096,-0.0471101,0.0365454,-0.0229705,-0.0208731,-0.0101582,-0.0398022,-0.0352601,-0.0348118,0.0442609,-0.0178874,0.0333526,0.00613036,0.0188284,0.0202367,-0.0324228,-0.0120146,-0.0337758,-0.00312945,-0.0180789,-0.00604993,-0.0300407,0.0391477,-0.00193255,-0.0499652,-0.0465072,-0.025958,0.046724,-0.0322143,-0.0328023,-0.0121721,0.0369739,0.0113134,-0.0488552,-0.0463514,0.0338882,0.01112,0.0127867,0.0408088,0.032712,-0.0203812,-0.00867264,-0.0349902,0.00969951,-0.0405757,0.00641704,0.00255471,-0.0434574,0.0365215,-0.0339058,0.0293263,0.0475568,0.0459456,-0.0372661,0.0468997,0.00293622,-0.0411312,0.0235512,0.0323017,-0.0191014,-0.00164079,-0.0455623,0.0140555,-0.00622046,0.0149223,-0.0232433,-0.000721559,-0.0229203,-0.0362969,0.00438346,0.0288227,-0.0153,-0.00630162,0.0368435,-0.0215402,0.0311346,-0.0231475,-0.0246583,-0.0268265,-0.0232419,-0.0256772,-0.0326619,-0.0360737,0.0292134,-0.0393701,0.0409309,-0.016801,0.0474172,0.0358746,0.0483691,0.0394555,-0.0178062,-0.0136507,0.0254228,-0.0315768,-0.028434,-0.040755,0.0176822,-0.00188516,0.030603,0.0494787,0.0322897,-0.0325873,-0.0377223,-0.0354334,0.0403461,-0.00264723,-0.0364372,-0.0480561,0.0239442,0.0326564,0.0384957,0.0458725,-0.0217924,0.0161993,-0.0402652,0.00502624,-0.0270486,0.0348747,0.0222984,-0.00964618,-0.0212692,-0.0127369,-0.0152922,-0.050417,0.00868686,0.0441096,0.0208732,0.0195268,0.029259,-0.0345369,0.0139726,0.0337568,-0.00166566,0.00423748,0.0181261,0.0309081,-0.0100508,-0.0116359,-0.0500543,0.00369414,0.0199515,-0.00784082,-0.00861642,0.00547422,0.0447027,-0.0273737,0.0362808,0.0237574,0.0218767,0.0302388,-0.0202041,0.0109449,0.0169996,-0.0451081,0.00850632,-0.0462496,0.0408624,0.0389264,-0.0223043,0.045308,-0.0514364,-0.0173436,0.01251,-0.0123808,0.0297358,0.0232812,-0.0340972,0.0319088,0.00243012,0.00991801,-0.00504424,0.0408022,-0.0416148,-0.018339,0.0319431,0.044636,0.0480976,0.0170555,-0.048258,-0.049836,-0.0496558,-0.00843643,0.0138546,-0.0493793,0.0493231,-0.0499019,0.0478233,-0.02697,0.0428332,-0.0117547,0.00251037,-0.0237686,-0.0119318,-0.0379592,0.0422894,0.00595714,-0.00978842,-0.0307789,0.0249921,-0.00837868,0.0379538,0.0492532,0.00907427,-0.0420274,-0.00231479,0.0469447,-0.0277647,0.045868,0.0144016,-0.0343649,0.0479293,0.000433432,0.0489379,0.0214111,0.0332606,0.0330273,-0.0396916,-0.00844866,-0.0215409,0.00767952,0.0290207,0.0274047,-0.0409101,0.0276739,-0.00850863,-0.0388244,-0.00955673,-0.0291231,-0.00171895,0.000763996,-0.0205712,0.0429135,-0.0291147,0.00873098,-0.0382604,-0.050441,-0.00994186,0.0400609,-0.0171991,0.0494379,0.0296473,-0.0056313,0.0505567,0.0463274,-0.00574466,-0.0351202,-0.00497378,-0.0458414,-0.0405811,0.0214498,0.0173334,0.0329015,0.021531,0.0372867,-0.0117731,0.050102,0.00676438,-0.00876641,-0.0239456,0.00526193,0.0122792,-0.0472187,-0.0204745,0.00584852,-0.00640445,-0.0444608,-0.0438088,-0.028326,
-0.546939,-0.530717,-0.570962,-0.576328,-0.59853,-0.531507,-0.565288,-0.585241,-0.532007,-0.534119,-0.564992,-0.531827,-0.568279,-0.591733,-0.494408,-0.563145,-0.540287,-0.533436,-0.585494,-0.532459,-0.523443,-0.547373,-0.539358,-0.535916,-0.574702,-0.55322,-0.575944,-0.543636,-0.521274,-0.566067,-0.591528,-0.541729,-0.557249,-0.583218,-0.521115,-0.515054,-0.589493,-0.545105,-0.5435,-0.542618,-0.582509,-0.512755,-0.537295,-0.5267,-0.521967,-0.565731,-0.572709,-0.521238,-0.559795,-0.57582,-0.524326,-0.525146,-0.541717,-0.509719,-0.535793,-0.575045,-0.548123,-0.567698,-0.573618,-0.5283,-0.533791,-0.56254,-0.506911,-0.580804,-0.584858,-0.572699,-0.584252,-0.570058,-0.519793,-0.548167,-0.502622,-0.544252,-0.505307,-0.535901,-0.576862,-0.54055,-0.550385,-0.574753,-0.572608,-0.572064,-0.529432,-0.567766,-0.52943,-0.524986,-0.554156,-0.574727,-0.567179,-0.544741,-0.558559,-0.560494,-0.544835,-0.553279,-0.591688,-0.546654,-0.527221,-0.5739,-0.540341,-0.560969,-0.524923,-0.565323,-0.553069,-0.532961,-0.49993,-0.51147,-0.492375,-0.493165,-0.561811,-0.583861,-0.535543,-0.57097,-0.521253,-0.556304,-0.572828,-0.574049,-0.602434,-0.548912,-0.537854,-0.524408,-0.565661,-0.501381,-0.52767,-0.498305,-0.543612,-0.53311,-0.55406,-0.52759,-0.592468,-0.492415,-0.495526,-0.410922,-0.327321,-0.312547,-0.304435,-0.354459,-0.473382,-0.520978,-0.51142,-0.558151,-0.576882,-0.535778,-0.524759,-0.567429,-0.529084,-0.540872,-0.576494,-0.514863,-0.469801,-0.473017,-0.412579,-0.416202,-0.505217,-0.543667,-0.526076,-0.569018,-0.559825,-0.476795,-0.366546,-0.234041,-0.0939208,-0.110031,-0.131392,-0.178236,-0.30677,-0.514072,-0.576353,-0.539608,-0.554406,-0.561795,-0.565592,-0.549507,-0.547925,-0.524496,-0.542605,-0.464186,-0.371427,-0.372324,-0.330797,-0.354641,-0.454667,-0.461888,-0.530193,-0.517607,-0.459791,-0.361395,-0.241792,-0.101258,0.0120965,0.0822965,0.0469429,0.0340087,-0.122289,-0.396239,-0.525652,-0.52408,-0.566632,-0.583093,-0.555347,-0.56968,-0.544796,-0.544818,-0.423554,-0.378127,-0.267397,-0.259885,-0.186831,-0.256282,-0.331806,-0.488962,-0.463305,-0.471981,-0.398668,-0.216852,-0.0455536,0.0749112,0.127046,0.193335,0.266062,0.212394,0.0256583,-0.321108,-0.531201,-0.573481,-0.539048,-0.534755,-0.55661,-0.556995,-0.542546,-0.557103,-0.35028,-0.245347,-0.17326,-0.110243,-0.0767961,-0.194993,-0.330039,-0.3868,-0.465432,-0.498766,-0.33142,-0.123289,0.0548917,0.16036,0.208166,0.281219,0.315686,0.322101,0.105745,-0.233034,-0.501849,-0.570636,-0.528554,-0.533812,-0.549252,-0.543611,-0.494079,-0.48831,-0.277528,-0.062109,-0.00377065,-0.0398009,-0.0602046,-0.136356,-0.295473,-0.410149,-0.440476,-0.398613,-0.287455,-0.0330285,0.195681,0.195666,0.229126,0.29214,0.436779,0.385603,0.150558,-0.241363,-0.482404,-0.543891,-0.542641,-0.590448,-0.553507,-0.577843,-0.562376,-0.424593,-0.167769,-0.0174677,0.116755,0.137767,-0.00259697,-0.14512,-0.296221,-0.398515,-0.445722,-0.363501,-0.171809,0.0932032,0.226736,0.240887,0.328496,0.35541,0.453425,0.391437,0.119109,-0.215122,-0.54312,-0.565148,-0.557697,-0.560657,-0.542091,-0.546868,-0.524492,-0.327046,-0.0662922,0.173344,0.264996,0.132526,0.00397468,-0.120885,-0.357848,-0.432476,-0.461906,-0.340555,-0.130399,0.137236,0.279841,0.294692,0.320088,0.414766,0.410346,0.338846,0.0792382,-0.300534,-0.55509,-0.546139,-0.534998,-0.515902,-0.557852,-0.590295,-0.531076,-0.291821,0.0538818,0.288537,0.300757,0.187406,0.0213003,-0.236437,-0.370778,-0.456285,-0.421826,-0.266511,-0.0309344,0.1817,0.32435,0.378849,0.375934,0.450977,0.417142,0.21528,-0.0355436,-0.352209,-0.511981,-0.552708,-0.531801,-0.578344,-0.586799,-0.533617,-0.502097,-0.192498,0.1483,0.307178,0.350008,0.186766,-0.0560476,-0.221802,-0.345187,-0.3899,-0.351308,-0.13361,0.0590674,0.26,0.418866,0.468079,0.395949,0.410361,0.359173,0.1128,-0.0897098,-0.369935,-0.525157,-0.554742,-0.538962,-0.578497,-0.558989,-0.515365,-0.530091,-0.171406,0.225879,0.406315,0.329304,0.139944,-0.0162362,-0.175757,-0.291319,-0.309638,-0.20715,-0.0536399,0.0993912,0.300907,0.442591,0.443901,0.389697,0.354076,0.28924,0.0533939,-0.182907,-0.438961,-0.53809,-0.600376,-0.53233,-0.530578,-0.557893,-0.575685,-0.501064,-0.166056,0.211186,0.447884,0.334895,0.153824,-0.0614454,-0.138411,-0.196792,-0.127681,-0.0628983,0.0681306,0.2092,0.34996,0.446316,0.379139,0.342648,0.311124,0.130332,-0.0515451,-0.24262,-0.435936,-0.514861,-0.579567,-0.544704,-0.509471,-0.544053,-0.557463,-0.536085,-0.211561,0.155497,0.419814,0.347315,0.128567,0.00705619,-0.0344754,-0.0259707,0.0145427,0.0901434,0.161871,0.243091,0.319734,0.3543,0.348413,0.314469,0.254216,0.117019,-0.00970637,-0.231547,-0.396211,-0.474566,-0.54754,-0.533973,-0.543296,-0.566915,-0.518478,-0.524757,-0.288704,0.107657,0.313515,0.268147,0.230912,0.138518,0.112972,0.116154,0.192015,0.230489,0.210542,0.2196,0.273652,0.186522,0.224177,0.252789,0.257375,0.135749,-0.0463324,-0.209744,-0.44243,-0.511434,-0.531513,-0.51931,-0.547068,-0.542623,-0.519323,-0.541186,-0.349572,-0.0179788,0.186746,0.226731,0.240859,0.136194,0.1829,0.206215,0.235652,0.215466,0.218751,0.125112,0.0181576,0.125441,0.102017,0.167469,0.236541,0.112146,-0.0342308,-0.175415,-0.438617,-0.522869,-0.580346,-0.572593,-0.580144,-0.568904,-0.557097,-0.558987,-0.402571,-0.240163,0.00212486,0.139178,0.183939,0.202725,0.197124,0.206928,0.150212,0.099897,0.0570202,-0.0538649,-0.0724724,-0.095321,-0.015596,0.0958395,0.190779,0.170642,-0.0188693,-0.229237,-0.406457,-0.512659,-0.521998,-0.53769,-0.546663,-0.562616,-0.556304,-0.585255,-0.471054,-0.374824,-0.202711,-0.0734671,0.0480555,0.0720801,0.0367687,-0.0259505,-0.00960808,-0.0717052,-0.200804,-0.267459,-0.252476,-0.198945,-0.066691,0.0821519,0.130966,0.0985036,-0.0341005,-0.212374,-0.403497,-0.523638,-0.542583,-0.582297,-0.547775,-0.590902,-0.532483,-0.553584,-0.53761,-0.459047,-0.369895,-0.256734,-0.191202,-0.168167,-0.133645,-0.18561,-0.254204,-0.265919,-0.353597,-0.380738,-0.370075,-0.331408,-0.180272,0.00903787,0.0399557,0.0559733,-0.113903,-0.28932,-0.464101,-0.503865,-0.521636,-0.575631,-0.527568,-0.553579,-0.555774,-0.548078,-0.565105,-0.533569,-0.450967,-0.428583,-0.426253,-0.359785,-0.37666,-0.390493,-0.387727,-0.475703,-0.506263,-0.501756,-0.462574,-0.359575,-0.286016,-0.0692201,-0.0672945,-0.117011,-0.210196,-0.309094,-0.491479,-0.572602,-0.549782,-0.573361,-0.508274,-0.571224,-0.512197,-0.56487,-0.52252,-0.502592,-0.536775,-0.557867,-0.505012,-0.487335,-0.483959,-0.538837,-0.484463,-0.554908,-0.47415,-0.451681,-0.476853,-0.414191,-0.273919,-0.214475,-0.156098,-0.240373,-0.322158,-0.421794,-0.474804,-0.502974,-0.548656,-0.564653,-0.581296,-0.558057,-0.565442,-0.522421,-0.572742,-0.544131,-0.544972,-0.540081,-0.590257,-0.551391,-0.556684,-0.58059,-0.53487,-0.504728,-0.508106,-0.51002,-0.542852,-0.419173,-0.382407,-0.304349,-0.333135,-0.306794,-0.403878,-0.444366,-0.521956,-0.544764,-0.532434,-0.556943,-0.549843,-0.582807,-0.570421,-0.54914,-0.5378,-0.530638,-0.549598,-0.556632,-0.551996,-0.562233,-0.556452,-0.580818,-0.56397,-0.584282,-0.52468,-0.548324,-0.492785,-0.487343,-0.465495,-0.483315,-0.432882,-0.505505,-0.512458,-0.546489,-0.500918,-0.565533,-0.533958,-0.514407,-0.508276,-0.569861,-0.542179,-0.594691,-0.586285,-0.533978,-0.509958,-0.503376,-0.533954,-0.531664,-0.537534,-0.535794,-0.522532,-0.524748,-0.512582,-0.52858,-0.520949,-0.498593,-0.545727,-0.547936,-0.567336,-0.561207,-0.528425,-0.542723,-0.550887,-0.564628,-0.575055,-0.568524,-0.522477,-0.552997,-0.527512,-0.572136,-0.58256,-0.545411,-0.563777,-0.567995,-0.570031,-0.531914,-0.506768,-0.556263,-0.593679,-0.548751,-0.560197,-0.558356,-0.530841,-0.548985,-0.556925,-0.560496,-0.581952,-0.525247,-0.542786,-0.553485,-0.533586,-0.546871,-0.538814,-0.538609,-0.541702,
-0.511905,-0.522859,-0.488261,-0.489505,-0.492794,-0.550562,-0.52065,-0.530346,-0.530065,-0.55736,-0.552869,-0.49458,-0.499765,-0.481664,-0.550531,-0.504844,-0.506368,-0.480563,-0.510973,-0.52782,-0.547413,-0.5414,-0.491752,-0.543103,-0.499355,-0.495645,-0.474748,-0.518812,-0.554873,-0.529482,-0.499926,-0.508777,-0.51101,-0.530106,-0.531223,-0.552295,-0.51305,-0.543698,-0.543221,-0.54597,-0.510979,-0.529699,-0.532587,-0.53149,-0.522693,-0.499808,-0.525809,-0.521282,-0.5147,-0.487297,-0.517049,-0.550591,-0.516713,-0.530214,-0.502302,-0.524038,-0.510547,-0.499379,-0.496617,-0.564874,-0.545397,-0.508667,-0.535908,-0.4782,-0.503822,-0.497843,-0.520266,-0.483631,-0.537741,-0.502547,-0.542866,-0.537975,-0.523911,-0.537341,-0.49504,-0.533869,-0.54415,-0.488215,-0.517595,-0.53593,-0.501413,-0.505989,-0.556409,-0.553857,-0.499584,-0.531894,-0.507142,-0.557352,-0.499851,-0.48851,-0.488189,-0.50085,-0.503607,-0.56181,-0.516238,-0.503242,-0.521548,-0.501892,-0.490385,-0.502439,-0.482694,-0.487851,-0.457987,-0.435266,-0.439448,-0.483078,-0.491046,-0.508719,-0.565027,-0.501261,-0.524068,-0.541722,-0.526403,-0.504037,-0.493201,-0.521323,-0.539518,-0.537919,-0.488826,-0.514366,-0.47825,-0.513423,-0.492792,-0.488993,-0.54908,-0.526809,-0.495553,-0.508414,-0.459135,-0.413795,-0.338917,-0.266294,-0.293278,-0.336584,-0.420932,-0.528195,-0.538004,-0.519073,-0.536779,-0.546701,-0.54723,-0.489355,-0.505559,-0.491437,-0.508466,-0.523642,-0.479769,-0.392953,-0.458317,-0.451056,-0.45841,-0.482475,-0.507779,-0.492131,-0.471679,-0.387823,-0.341496,-0.238086,-0.157987,-0.0725464,-0.104968,-0.141526,-0.290323,-0.473788,-0.488041,-0.490711,-0.497435,-0.525907,-0.481511,-0.535355,-0.509908,-0.507577,-0.441476,-0.44801,-0.392983,-0.290914,-0.328926,-0.336667,-0.351916,-0.413555,-0.477438,-0.49856,-0.47246,-0.331822,-0.196758,-0.0722431,0.0368262,0.110323,0.108764,0.052145,-0.114822,-0.412716,-0.490277,-0.510677,-0.495499,-0.485023,-0.520793,-0.519866,-0.47944,-0.508003,-0.466005,-0.363191,-0.258934,-0.23114,-0.238478,-0.193669,-0.344181,-0.412671,-0.439209,-0.429998,-0.362325,-0.254839,-0.0511357,0.0700243,0.122193,0.222575,0.266992,0.196731,0.0255438,-0.251648,-0.484362,-0.492261,-0.511679,-0.533628,-0.539293,-0.502678,-0.521618,-0.448936,-0.370119,-0.220724,-0.116361,-0.0722958,-0.136388,-0.206247,-0.278978,-0.420046,-0.430426,-0.425714,-0.30636,-0.121698,0.0493909,0.159194,0.159232,0.220027,0.329208,0.304918,0.15396,-0.218826,-0.503088,-0.533623,-0.559605,-0.497698,-0.495908,-0.531579,-0.529187,-0.417737,-0.274875,-0.0854136,0.0158978,0.0447091,-0.055598,-0.17075,-0.32673,-0.345295,-0.447062,-0.383028,-0.197018,-0.0294589,0.156273,0.213189,0.218541,0.274975,0.396484,0.317682,0.135801,-0.182489,-0.49922,-0.524267,-0.557366,-0.531582,-0.502749,-0.498827,-0.464794,-0.385739,-0.175572,0.0603726,0.175892,0.123026,0.00822425,-0.180702,-0.338568,-0.374933,-0.451669,-0.356857,-0.163978,0.0538889,0.246499,0.253652,0.233124,0.368985,0.385345,0.364104,0.151755,-0.245427,-0.441475,-0.490638,-0.504809,-0.483788,-0.514241,-0.492349,-0.538654,-0.355827,-0.0830213,0.0883029,0.207345,0.160839,0.00777141,-0.191101,-0.298269,-0.448628,-0.457115,-0.327786,-0.0670218,0.187333,0.281436,0.313394,0.273984,0.406838,0.417767,0.342105,0.0290699,-0.24355,-0.463864,-0.513307,-0.528908,-0.541621,-0.505604,-0.489227,-0.48801,-0.265681,0.00643522,0.218637,0.280547,0.216894,-0.0247546,-0.159494,-0.316754,-0.401329,-0.359128,-0.264557,0.0252013,0.192246,0.315778,0.397619,0.409897,0.373485,0.353087,0.247257,-0.00179468,-0.336505,-0.459172,-0.506387,-0.517586,-0.499293,-0.50482,-0.551406,-0.52664,-0.226422,0.137178,0.353983,0.310043,0.170388,-0.0129259,-0.246792,-0.354217,-0.361013,-0.261889,-0.189979,0.0399285,0.220446,0.343882,0.378775,0.429055,0.414473,0.296959,0.12388,-0.13143,-0.358262,-0.500012,-0.551075,-0.505056,-0.497725,-0.525409,-0.511696,-0.509463,-0.18734,0.192972,0.407289,0.358201,0.197449,-0.0176547,-0.220723,-0.306686,-0.286924,-0.191336,-0.0315228,0.136769,0.335911,0.386178,0.378595,0.375308,0.389648,0.205466,0.0289518,-0.201589,-0.372205,-0.511598,-0.498924,-0.503529,-0.543925,-0.502519,-0.518796,-0.484498,-0.178296,0.196522,0.351796,0.347558,0.172674,-0.0311743,-0.202901,-0.169383,-0.131153,-0.0920222,0.0367567,0.192492,0.325996,0.378705,0.323907,0.359054,0.27321,0.173373,-0.0179139,-0.185588,-0.409359,-0.535537,-0.49079,-0.492194,-0.521564,-0.49464,-0.499556,-0.43954,-0.223228,0.157144,0.30697,0.31071,0.195456,0.079666,-0.0202418,-0.0426875,0.0078485,0.0668266,0.160961,0.293397,0.353074,0.288451,0.262621,0.331099,0.293836,0.12838,-0.00616639,-0.249423,-0.372172,-0.522244,-0.510628,-0.524206,-0.48579,-0.516491,-0.503377,-0.510726,-0.231834,0.06828,0.290714,0.268694,0.152694,0.0984729,0.061958,0.0861352,0.182019,0.18715,0.220772,0.233279,0.180861,0.152802,0.148987,0.254139,0.181156,0.132462,-0.0609602,-0.229429,-0.38082,-0.49063,-0.561357,-0.534644,-0.501205,-0.522171,-0.553119,-0.474677,-0.336587,-0.00258924,0.132073,0.206516,0.227061,0.2006,0.21384,0.225966,0.238758,0.189303,0.15048,0.110065,0.0498261,0.0353819,0.0933307,0.166331,0.218379,0.160619,0.00878503,-0.163816,-0.406783,-0.499948,-0.497418,-0.527548,-0.551996,-0.527235,-0.48353,-0.560401,-0.383536,-0.173897,-0.00525586,0.126303,0.171806,0.169478,0.175348,0.164777,0.161551,0.0723949,0.0401022,-0.0549841,-0.0999402,-0.0652649,-0.000194912,0.156,0.216579,0.123379,-0.0106151,-0.173889,-0.379684,-0.532031,-0.547409,-0.505196,-0.521846,-0.520887,-0.538992,-0.492167,-0.457327,-0.308859,-0.140232,-0.0146776,-0.0131235,0.0250571,0.0639677,0.0186467,-0.0109055,-0.113807,-0.14054,-0.178871,-0.257968,-0.254469,-0.130973,0.0464257,0.0998783,0.104377,-0.0121408,-0.203464,-0.408519,-0.466546,-0.516356,-0.476218,-0.560596,-0.498091,-0.522157,-0.554806,-0.490221,-0.408706,-0.347364,-0.295174,-0.213416,-0.0990445,-0.154448,-0.215995,-0.211613,-0.28103,-0.355245,-0.339572,-0.330966,-0.268708,-0.135813,-0.0220046,0.054496,0.00235869,-0.125148,-0.214051,-0.405531,-0.499344,-0.542925,-0.524258,-0.517143,-0.51507,-0.535022,-0.539693,-0.482675,-0.491826,-0.485796,-0.428626,-0.339564,-0.347058,-0.371417,-0.339765,-0.396497,-0.390226,-0.408829,-0.416562,-0.399005,-0.321297,-0.21115,-0.120545,-0.060875,-0.0703669,-0.176943,-0.30116,-0.478373,-0.481096,-0.526587,-0.524784,-0.554537,-0.496967,-0.561406,-0.503085,-0.540915,-0.550397,-0.506617,-0.453748,-0.460462,-0.478877,-0.464115,-0.443761,-0.495243,-0.471188,-0.529312,-0.478654,-0.447879,-0.377877,-0.32364,-0.162889,-0.123991,-0.143402,-0.287526,-0.345352,-0.51237,-0.5364,-0.508629,-0.469736,-0.502865,-0.527559,-0.483954,-0.543397,-0.531458,-0.515026,-0.549273,-0.549093,-0.497029,-0.490708,-0.495931,-0.481773,-0.496915,-0.53578,-0.520342,-0.49262,-0.440221,-0.451782,-0.319803,-0.290029,-0.240154,-0.288685,-0.35038,-0.48015,-0.536709,-0.508493,-0.498381,-0.49089,-0.495502,-0.488401,-0.538092,-0.518489,-0.501658,-0.493754,-0.545713,-0.52441,-0.506731,-0.544339,-0.530166,-0.49788,-0.486316,-0.532337,-0.498499,-0.487408,-0.526421,-0.423925,-0.424065,-0.402104,-0.420057,-0.452726,-0.457983,-0.481822,-0.551163,-0.545333,-0.55815,-0.540333,-0.529265,-0.558855,-0.528848,-0.497222,-0.488021,-0.517095,-0.541117,-0.547517,-0.529056,-0.513837,-0.553472,-0.539764,-0.54862,-0.526227,-0.543323,-0.53402,-0.538725,-0.525431,-0.490188,-0.522938,-0.462981,-0.474722,-0.495145,-0.555646,-0.527558,-0.525622,-0.517571,-0.497998,-0.538637,-0.519517,-0.555606,-0.520871,-0.49809,-0.550294,-0.487559,-0.490607,-0.503094,-0.554901,-0.549908,-0.47654,-0.492977,-0.509975,-0.521429,-0.484569,-0.525084,-0.532951,-0.527224,-0.546304,-0.492546,-0.542439,-0.529583,-0.518458,-0.511079,-0.538818,-0.516266,-0.508353,-0.515568,
