0.00473936,-0.00311919,-0.0186124,0.0323865,-0.00846851,
0.0120945,-0.0321134,-0.00807004,0.00716692,0.0115377,
-0.0352404,-0.0330296,0.0412943,0.0234697,-0.0049036,
0.0290462,-0.0467182,0.0246066,0.0262956,0.040842,
0.00929879,-0.00102004,-0.0249271,0.0423498,0.00546844,
-0.0294732,0.0392284,-0.023246,0.0162199,-0.0458547,
-0.0459584,-0.0420569,-0.0194382,0.046859,-0.0190647,
-0.0191021,0.0176416,-0.0396948,-0.0170129,-0.0292358,
-0.0303544,0.0406378,0.0120914,-0.0185112,-0.0415816,
-0.04683,0.0188279,-0.0247831,0.033427,0.0371298,
0.0119855,-0.0424129,0.0456681,0.0177541,-0.0186255,
0.0199514,-0.0503496,-0.0504251,-0.0357574,0.00219253,
-0.0406099,-0.0150199,-0.0448036,-0.0247193,-0.0186774,
-0.013072,-0.0190496,0.0231242,0.0104047,-0.0442042,
-0.0329964,-0.00320714,0.0470261,-0.0094102,0.00475594,
0.00150259,-0.00150264,-0.0147911,-0.0344572,-0.0261939,
0.027819,0.0190821,0.0431088,0.050545,-0.0499608,
0.0415148,-0.0405715,-0.044484,-0.01163,0.0278876,
0.0100979,-0.0360354,-0.00393968,0.0492201,0.0337314,
-0.0273691,-0.018199,0.0194928,0.0478981,-0.0510322,
0.0510905,-0.0271089,0.0351489,0.0433759,-0.00390844,
0.0238137,-0.0309504,-0.0155935,-0.050796,0.0174717,
0.000558938,-0.0219699,-0.0428538,0.0032529,0.00698963,
0.0472229,-0.0286619,0.0435773,0.00283391,0.0396779,
-0.040217,0.00423505,0.0325755,-0.00231776,-0.0502963,
-0.0368848,-0.0217174,-0.0290441,-0.0430868,0.00140001,
-0.0103234,0.0356566,0.041905,0.0166743,0.0189201,
0.0487746,0.0322469,-0.0501291,-0.00211425,0.0335844,
-0.0227411,0.024734,0.0449077,0.0277694,-0.00923618,
-0.00921089,-0.0217477,0.0199958,0.0369559,0.0146028,
-0.0474583,0.00722714,0.0226472,0.0386768,-0.0178739,
-0.0353673,0.0414317,-0.0316327,-0.0113815,-0.04214,
0.0241739,0.0492573,-0.000327008,-0.0344746,-0.0273121,
-0.0277119,0.0120722,-0.0229454,0.0504284,0.0211836,
-0.010614,-0.0275957,0.0453339,-0.00250979,-0.0264215,
-0.0480668,0.0444392,-0.0092269,-0.028869,-0.0372468,
-0.0243636,0.0359861,0.0235062,-0.0422885,0.0184321,
0.0144398,-0.0383388,-0.0280678,-0.0383179,0.0416868,
0.0400031,0.0249437,0.0468823,-0.000191549,0.0274892,
0.00862577,-0.0120601,-0.0463542,0.0189712,0.0308339,
-0.0299134,-0.050276,0.0456531,-0.00511517,0.0292873,
0.0225172,-0.0468416,-0.00774019,0.0345038,0.0121618,
-0.0232959,0.044256,0.0316157,-0.0470065,0.0297472,
0.0361889,0.00546971,-0.0194238,0.0106727,-0.0498717,
-0.00781856,-0.0382765,0.0501194,0.0344453,0.0434431,
0.00295792,0.00529673,0.0145587,0.0426898,0.0229743,
-0.0263346,0.0192446,0.0423172,1.06609e-005,-0.0101433,
-0.00193578,-0.0185328,-0.0331227,-0.00803613,0.00334595,
-0.0348493,-0.0451891,0.0493011,0.0399328,0.0409611,
0.00925463,-0.0149173,0.0223383,0.0208276,-0.0416258,
-0.0249732,0.0403846,-0.019161,-0.0254066,0.0491754,
-0.0123202,0.00784483,-0.0176052,0.0417652,0.0272264,
-0.00946994,0.0506323,0.0400218,-0.0179255,0.0170015,
-0.0386399,0.0181648,0.0366453,0.0111411,0.0237867,
0.0150494,0.00578654,-0.0395462,-0.0301677,-0.0344384,
-0.0136883,-0.0332866,0.0389485,-0.0439868,0.0147811,
-0.0116953,0.0148407,-0.0322345,-0.041864,-0.0240577,
0.0158904,0.000309003,0.0394993,0.0477273,-0.0028902,
0.0347863,0.0457841,0.0393105,0.0183261,0.0419578,
-0.0457732,-0.00879663,-0.0456233,0.0285206,-0.0317322,
-0.0152435,-0.0131279,-0.0224769,-0.0432996,0.0183797,
-0.0484705,0.0413458,0.00603532,-0.0254866,0.0307293,
0.0397211,-0.0486491,0.00252364,-0.0200747,-0.0380453,
0.0200023,-0.00774754,-0.0412074,-0.018928,0.0126938,
0.0175517,-0.0302926,-0.025879,-0.0369734,0.0504866,
-0.00314672,0.0458725,-0.0422267,0.0608522,-0.0410349,
0.0107352,-0.00768734,0.0510483,-0.0401675,0.00909702,
-0.00994358,0.0482515,-0.00644013,-0.0397386,-0.00842309,
0.0295315,0.00328039,0.00089427,-0.0102421,0.0060498,
-0.0133208,-0.0386915,0.0397861,-0.0273274,-0.047627,
0.0448786,0.0165274,-0.014329,0.00410537,0.0134293,
0.0246202,0.0410778,0.0166546,0.00715636,-0.0202648,
-0.00309508,0.0166533,-0.0304558,0.036085,0.0318291,
-0.0416643,0.0760064,-0.0385241,0.0355297,0.00671103,
-0.0190515,0.046726,0.00961215,0.00329584,0.00610898,
0.00490301,0.0167892,-0.0422704,0.0486558,0.0521692,
0.0160339,-0.00187753,0.0220675,0.0075497,0.0747778,
0.0370472,0.0532317,-0.0503664,0.0815746,0.0045912,
0.0441544,0.0428912,0.0370518,0.00549556,-0.023027,
0.00139099,0.0369267,-0.0198763,-0.0065062,0.0370719,
0.0109446,0.0400519,0.0283456,-0.0183923,0.00565409,
0.000355839,0.0505961,-0.00133867,0.0389738,0.0045243,
0.0123948,-0.0207253,-0.0114953,-0.0268187,-0.00142624,
0.00938516,-0.00834254,0.0148342,-0.0462528,-0.0149663,
0.0332893,-0.000687021,0.00342621,-0.037057,0.0406945,
0.0355826,-0.0256158,-0.00583622,-0.0421793,-0.0278055,
0.044599,-0.00545436,0.0281019,0.0117888,0.0277397,
-0.0439875,-0.0314619,0.0368882,0.030645,0.0474727,
0.0237065,-0.0500552,0.0193795,0.0422947,0.000160737,
-0.00967576,0.0543693,0.0257724,0.0347706,0.0264321,
0.00469099,0.054071,0.0335939,0.0419783,-0.00443342,
-0.00365443,-0.0183173,-0.0329924,0.0492105,0.0398833,
-0.00443415,0.0147996,0.0455421,-0.00844816,0.0494479,
-0.0466966,0.0174834,0.0288909,0.00665782,0.0335787,
-0.0398962,0.0854078,-0.0170774,0.106665,0.083312,
-0.000673823,0.0164094,0.0396333,0.0117093,-0.0134765,
-0.0166415,0.0216416,-0.0355274,-0.00639423,0.0343602,
0.00809478,-0.01559,0.00223806,0.0206357,-0.0142378,
0.0210445,-0.00791061,-0.0282805,0.0475342,-0.000235322,
0.0136248,0.0810624,0.0413855,0.0914773,0.096743,
0.0423603,0.124219,-0.0358823,0.217935,0.134165,
0.0394152,0.455711,-0.075258,0.465729,0.333084,
0.0217198,0.779525,-0.0745229,0.878832,0.713581,
0.0335692,1.08423,-0.0523326,1.18479,0.857797,
0.0315521,1.18076,-0.032342,1.26562,0.957082,
0.0444524,0.852674,-0.0466081,0.893273,0.701526,
0.0247777,0.429864,-0.00714034,0.450259,0.319154,
0.0295614,0.0796505,0.00470977,0.0912616,0.0612841,
-0.0352517,0.0338118,0.0257067,-0.0120318,-0.00665182,
-0.0428893,0.0216963,-0.0300172,-0.0374796,0.0147215,
-0.0320318,-0.0292498,0.0161564,0.0103083,-0.0249329,
-0.0249609,0.0331803,0.0318204,-0.0111875,0.00593236,
-0.0243063,-0.0433078,0.0236262,-0.0164811,-0.00993331,
0.0472138,0.0498755,-1.69566e-005,-0.012423,-0.0449979,
0.029987,0.0240805,0.0320697,-0.0276258,0.0286453,
-0.0345694,-0.0245057,-0.012576,0.0445198,-0.000653328,
-0.00808392,0.0240265,0.00285876,0.0372567,0.0458958,
0.0187115,0.110841,-0.0393806,0.042972,0.038235,
-0.0127155,0.218416,0.0131566,0.197348,0.17834,
0.0137271,0.265502,0.0432227,0.313409,0.273818,
-0.0176643,0.380681,-0.00860844,0.369722,0.280229,
-0.00732676,0.405239,0.0170193,0.402142,0.271777,
-0.0478869,0.2533,-0.027902,0.275024,0.230323,
0.0144674,0.158985,0.00547914,0.240789,0.14139,
0.0101618,0.120206,0.0288588,0.104066,0.0498,
-0.0178055,0.0823551,-0.0312252,0.0556764,0.031126,
0.00742418,0.0495881,0.0306803,0.11298,0.0506835,
0.0491273,0.318536,0.0286998,0.394945,0.335092,
0.00327967,0.960674,-0.0692817,1.0396,0.8685,
-0.0204731,1.9519,-0.0875864,2.16497,1.66398,
0.0320658,3.26449,-0.141247,3.60798,2.8044,
0.088149,4.07365,-0.111716,4.3957,3.47922,
0.0664425,4.20494,-0.196528,4.5295,3.57487,
-0.0298757,3.18239,-0.120349,3.44472,2.70681,
0.0368405,1.61971,-0.108511,1.74472,1.31312,
-0.0464279,0.364676,0.0085471,0.389545,0.278009,
0.0452482,-0.00536018,0.0096585,0.00973196,0.0357736,
-0.0455343,-0.000955596,0.0468379,0.0152321,-0.0211303,
-0.0241768,-0.0433453,-0.00720593,-0.00488885,0.0484003,
0.0505359,0.00537544,0.0243888,-0.0100104,-0.0379661,
0.00801382,-0.00277624,-0.0509348,-0.00225181,0.0174069,
-0.010854,-0.0277391,-0.00681189,-0.0148244,-0.0259672,
0.0227533,-0.0468219,0.00959603,-0.0501836,0.0312355,
-0.00475991,0.0545219,-0.0168239,0.0813306,0.0823453,
-0.0123082,0.123668,0.00568987,0.123691,0.0788538,
-0.0258734,0.531373,0.0121825,0.512123,0.466209,
0.00797809,1.02948,-0.0330461,1.0466,0.835123,
-0.0414961,1.40702,0.035346,1.497,1.1889,
0.00834712,1.45503,0.0143537,1.53002,1.22217,
-0.0129865,1.40793,0.04897,1.44354,1.10298,
-0.0152499,0.868453,-0.0123564,0.888548,0.703668,
-0.0356584,0.523879,-0.0296146,0.557128,0.449937,
-0.0540051,0.244974,0.000517004,0.280058,0.218376,
-0.0234682,0.20868,-0.0385838,0.218709,0.117507,
0.031097,0.38761,0.0307767,0.414983,0.382506,
-0.00513142,1.22797,-0.0554056,1.33789,1.1007,
0.0877371,2.99903,-0.112209,3.23096,2.5781,
0.0935623,5.2936,-0.149688,5.73669,4.52562,
0.00958928,7.4875,-0.213421,8.06709,6.44887,
-0.0173758,8.67707,-0.261365,9.40315,7.49167,
0.0270663,8.4763,-0.198677,9.23543,7.34206,
-0.0432599,7.08407,-0.155563,7.66691,6.14689,
0.0168314,4.22642,-0.0817117,4.56606,3.60831,
-0.0149559,1.20335,-0.0303531,1.24648,0.969345,
0.0171198,0.0495277,0.0300875,0.0896165,0.0878476,
-0.00323102,-0.0388725,0.0140041,-0.01831,-0.0486304,
0.0127279,0.025799,-0.0388353,-0.0458837,-0.00708794,
0.0392294,-0.0417955,-0.0380957,0.0491477,0.0397839,
0.0290308,0.0501197,0.0146858,-0.0440968,-0.00414731,
-0.00758355,0.0266114,0.0177179,-0.03459,-0.0190804,
0.0490739,0.0348443,-0.041396,0.0483244,0.0464528,
0.01946,0.108704,-0.0116056,0.166112,0.141627,
-0.0291978,0.535293,0.0183484,0.615101,0.436088,
-0.012765,1.64373,0.0399301,1.61084,1.28347,
-0.0297344,2.76315,-0.0188067,2.80712,2.31903,
-0.0601763,3.58339,0.00239682,3.59427,2.92724,
-0.0808688,3.70052,0.0354557,3.7817,3.07509,
-0.0631092,2.98259,0.0257494,3.11609,2.55226,
-0.087478,2.11765,-0.0050865,2.21687,1.81584,
-0.0396798,1.15448,0.0489899,1.12663,0.912518,
0.0225229,0.49358,0.0443337,0.537593,0.433329,
-0.0535044,0.463979,-0.0577749,0.513183,0.454796,
-0.000997899,0.943735,-0.0692534,1.1415,0.891375,
0.0810975,2.83902,-0.0400267,3.17843,2.53791,
0.0418368,5.97988,-0.113249,6.61311,5.24312,
0.0407867,9.62849,-0.193538,10.5289,8.41313,
0.0320926,12.5076,-0.250306,13.4639,10.8089,
-0.0637322,14.2288,-0.291592,15.289,12.3018,
-0.065689,14.3982,-0.328359,15.4414,12.4509,
-0.0689994,12.4005,-0.258428,13.4233,10.8203,
-0.0488249,8.19634,-0.193686,8.87371,7.19269,
-0.0705071,2.41103,-0.0284622,2.58074,2.04148,
-0.0333573,0.157652,-0.0251749,0.140916,0.0663492,
-0.0241765,0.0392683,-0.0499953,-0.000260976,-0.0279366,
-0.0242694,0.0229433,-0.0428396,0.0241436,-0.00357225,
-0.0386407,-0.0307889,-0.0275472,-0.00349242,-0.0442307,
0.00286184,0.0474888,0.0477728,-0.00337348,-0.0343067,
-0.0193887,-0.0350054,0.0357284,0.0143409,-0.0497061,
0.0131959,0.0661231,-0.0106414,0.052523,0.0817156,
0.0145452,0.340751,0.0478576,0.405147,0.292448,
-0.0434486,1.65601,0.0443497,1.71624,1.39914,
-0.0822565,3.61465,0.0273489,3.71914,3.04971,
-0.137169,5.83621,0.0138251,5.97926,4.83722,
-0.13699,6.76337,0.0220999,6.88826,5.72828,
-0.114767,6.33843,0.00670898,6.54733,5.38231,
-0.129537,4.92566,0.0468091,5.21203,4.27899,
-0.0500558,2.84635,-0.0226395,3.06676,2.53502,
-0.0259693,1.39219,0.0449812,1.50484,1.22098,
-0.0113508,0.72821,0.016903,0.789824,0.675786,
0.0406783,0.771362,-0.0171056,0.858895,0.706057,
-0.0343322,1.98515,-0.04644,2.24467,1.74721,
0.073578,5.10892,-0.166834,5.63284,4.43784,
0.0309164,9.64091,-0.176094,10.4868,8.34499,
-0.049726,13.9853,-0.303178,15.083,12.0607,
-0.0714378,17.0943,-0.231702,18.3448,14.6865,
-0.100196,19.0874,-0.255927,20.4317,16.4612,
-0.167787,19.7385,-0.29959,21.1524,17.0582,
-0.179814,17.6158,-0.223669,18.9535,15.2366,
-0.12038,11.8931,-0.202243,12.7545,10.2349,
-0.129973,4.29401,-0.0027195,4.55953,3.73789,
-0.0543871,0.271874,-0.0223961,0.275751,0.292485,
0.0469029,-0.0191129,0.0072365,0.0151114,0.0435907,
0.0173611,0.023968,-0.042766,0.00988134,-0.0323249,
0.00135369,-0.011926,0.0320394,0.0151204,0.0226713,
0.0150555,-0.0470287,-0.0235854,0.0190798,-0.0352445,
0.0506563,0.042738,-0.0271157,-0.0294358,0.0543376,
0.0413915,0.0603508,0.0398318,0.113133,0.0828395,
0.0434475,0.938606,-0.0146911,0.893338,0.750114,
-0.0363868,3.48607,0.0339493,3.59884,2.86663,
-0.0929121,6.78588,0.0150221,6.98719,5.695,
-0.111325,9.31905,0.011063,9.6529,7.8449,
-0.143054,10.2157,0.0571771,10.5614,8.70772,
-0.138584,8.85583,0.0184103,9.2337,7.5981,
-0.0997764,6.48119,0.0457722,6.80964,5.51557,
-0.103931,3.65093,-0.00597083,3.90749,3.14427,
-0.019045,1.92574,0.0316535,1.97317,1.64203,
-0.0112913,1.01813,-0.0501071,1.07647,0.80898,
0.0393396,1.23539,0.0220669,1.34483,1.08287,
0.0380211,3.46343,-0.0307047,3.8491,3.02055,
0.0741663,8.02828,-0.218981,8.68662,7.01663,
0.00595258,13.5678,-0.250325,14.6484,11.6776,
-0.141578,17.5312,-0.305064,18.7449,15.0823,
-0.202637,19.763,-0.225694,21.0402,16.8556,
-0.146155,22.0173,-0.211376,23.5006,18.8561,
-0.188976,24.0064,-0.229031,25.6416,20.6336,
-0.275354,22.1999,-0.268031,23.6942,19.0429,
-0.246731,15.6589,-0.155018,16.7678,13.5522,
-0.122709,5.79552,0.0474099,6.19934,5.02781,
-0.0636484,0.488389,-0.0256856,0.52234,0.374385,
-0.00350146,0.0476545,-0.0255676,-0.0252542,0.0380291,
-0.0509105,0.00438919,0.0010026,-0.0223753,0.0268607,
-0.0413191,-0.0406189,0.00508287,0.0509251,0.00282552,
0.0038901,-0.0132622,0.0398028,-0.0197973,-0.022378,
-0.0506652,0.0546327,-0.045884,0.0358008,0.0562576,
-0.0284192,0.144879,-0.0406637,0.182053,0.175894,
0.00646556,1.79358,-0.019837,1.90584,1.45589,
-0.0592606,5.62772,0.0561721,5.77521,4.66621,
-0.173787,10.6033,0.0322338,11.0129,8.94286,
-0.18627,13.2149,0.040235,13.8048,11.1733,
-0.161325,13.2907,0.0265265,13.9452,11.3398,
-0.101428,10.7137,0.0642684,11.351,9.14788,
-0.144472,7.0891,0.0654686,7.58442,6.03596,
-0.0931063,4.01249,0.0312463,4.35586,3.46781,
-0.0482568,2.06931,0.0199631,2.28093,1.83645,
0.000870729,1.15476,-0.0527175,1.29146,1.01394,
-0.00615493,1.85288,-0.0603725,2.0653,1.60563,
-0.00584102,5.41381,-0.0935141,5.8295,4.74391,
-0.0402525,10.8073,-0.250986,11.7506,9.34906,
-0.0875121,17.0179,-0.288849,18.2414,14.7062,
-0.153849,19.9894,-0.207887,21.3568,17.1583,
-0.123707,21.4118,-0.182367,22.7637,18.2324,
-0.164898,23.5948,-0.138525,25.0013,20.0359,
-0.187917,26.4076,-0.221124,28.0636,22.5166,
-0.2893,24.5732,-0.183519,26.133,21.0774,
-0.346212,17.313,-0.12488,18.4244,14.8397,
-0.141857,6.44849,-0.0380406,6.90132,5.5432,
0.0226197,0.537408,0.0146021,0.630884,0.50884,
-0.0173399,0.0442977,-0.0287399,0.0378765,-0.0182583,
0.00598226,-0.0267574,-0.0272432,-0.0166249,-0.0124618,
-0.013922,0.043835,-0.0214255,0.0140805,0.0179788,
-0.042316,0.0221099,-0.0289165,0.025303,-0.00235514,
0.00826764,0.0347659,-0.0334977,0.0479929,-0.0385817,
0.0230735,0.256814,0.00302065,0.261564,0.207115,
0.0114609,2.9165,-0.0258898,3.03183,2.38039,
-0.015255,8.41744,-0.0199478,8.78506,6.99495,
-0.107345,14.6018,-0.0545881,15.1636,12.2988,
-0.211252,17.288,-0.0243426,18.2037,14.783,
-0.150084,16.1012,0.0469105,16.965,13.8347,
-0.119998,12.2862,0.0585213,13.0898,10.6298,
-0.143561,7.83603,0.0772172,8.39533,6.64316,
-0.118847,4.20993,-0.0164336,4.59451,3.56715,
-0.0462267,2.0581,-0.0430589,2.32785,1.70573,
-0.0140846,1.36575,-0.0297295,1.45765,1.16849,
-0.00388773,2.63733,-0.080886,2.87974,2.29015,
-0.0227154,7.21113,-0.113456,7.81541,6.27032,
-0.0674418,13.7349,-0.237417,14.7294,11.8984,
-0.0465275,19.3686,-0.203778,20.6808,16.6121,
-0.120165,21.3969,-0.121438,22.6879,18.1882,
-0.209028,22.6409,-0.0430082,23.9926,19.1284,
-0.159461,24.7944,-0.126549,26.2077,21.0361,
-0.229918,26.8181,-0.122407,28.5012,22.8952,
-0.306667,24.4994,-0.099325,26.0952,20.9327,
-0.335378,17.115,-0.0659224,18.1736,14.5068,
-0.166333,6.57371,0.0360258,6.941,5.49762,
-0.00891694,0.520363,-0.00620757,0.553455,0.454005,
-0.00292638,-0.0380908,0.0466862,0.0227051,-0.00277614,
0.0249037,-0.0353106,0.0193599,-0.00310248,0.034792,
0.0258043,-0.0399422,-0.0227002,0.00136554,-0.0182816,
0.0452925,0.00361893,-0.032985,0.00727886,0.0171358,
0.0233027,-0.018475,-0.0445031,-0.0320596,0.024918,
0.021983,0.416137,-0.0308203,0.350025,0.266748,
-0.000809759,4.22623,-0.0371088,4.40383,3.47166,
-0.131179,12.1122,-0.0149302,12.7214,10.1479,
-0.215091,18.6275,-0.0632866,19.4922,15.7005,
-0.225236,20.5319,0.0037307,21.6466,17.4572,
-0.217488,17.8475,0.00184474,18.9993,15.3228,
-0.176006,12.5531,0.0936207,13.3737,10.7615,
-0.161033,7.42188,0.0338398,8.05575,6.28724,
-0.0976213,3.80647,0.00880411,4.18466,3.23795,
-0.032132,1.80736,0.033785,1.96966,1.53153,
-0.0761066,1.40555,-0.0587374,1.62304,1.25903,
0.0271608,3.69373,-0.0467329,4.09442,3.26847,
0.00936741,9.2449,-0.104099,9.94387,8.0678,
-0.0436834,16.301,-0.209251,17.5318,14.1017,
-0.16125,21.875,-0.20099,23.248,18.7014,
-0.208652,23.4226,-0.148259,24.8054,19.9219,
-0.227765,23.7287,-0.046407,25.1139,20.1224,
-0.177886,25.4207,-0.153222,26.9578,21.6711,
-0.277075,26.4508,-0.1431,27.9639,22.4804,
-0.346208,23.1373,-0.11131,24.5419,19.7665,
-0.245974,15.4892,-0.0677686,16.3917,13.0626,
-0.166219,5.72724,0.0652094,6.0397,4.74363,
0.0129341,0.551502,-0.018287,0.598392,0.44615,
0.0293612,0.0234448,-0.0369398,0.0165574,-0.00932847,
0.0175369,0.0396393,0.0180664,0.0213669,0.0233294,
0.00575188,0.0389304,-0.0356773,-0.0105465,0.00731502,
0.0234022,0.01606,0.0475276,0.0396886,-0.000791885,
-0.00997787,-0.00366503,-0.0401349,0.00932315,0.00866221,
0.0090603,0.438331,0.0397725,0.490517,0.36874,
-0.054428,5.43918,-0.0671569,5.79114,4.61735,
-0.109209,15.5658,-0.157039,16.3351,13.0351,
-0.241752,22.0324,-0.074119,23.1947,18.6854,
-0.268684,22.497,-0.00622474,23.7822,19.1755,
-0.276408,18.234,0.00697871,19.4229,15.675,
-0.156614,11.9942,0.101104,12.7783,10.2416,
-0.14377,6.55736,0.0534561,7.10983,5.59983,
-0.0638992,3.26338,-0.00811794,3.5093,2.70193,
-0.0939313,1.54107,0.00785392,1.71356,1.31436,
-0.0339205,2.08173,-0.047917,2.28807,1.81582,
-0.0580177,5.24681,-0.0126178,5.60171,4.51545,
-0.0728875,11.4317,-0.089126,12.3165,9.97275,
-0.0868337,19.1095,-0.11023,20.3638,16.3113,
-0.10749,23.9822,-0.140024,25.4806,20.3757,
-0.212893,24.7958,-0.0719427,26.2957,21.0375,
-0.217179,25.1609,-0.0628132,26.6006,21.4211,
-0.267303,25.551,-0.149934,27.1189,21.7746,
-0.237292,25.1533,-0.141049,26.7048,21.5384,
-0.279424,20.5139,-0.0295653,21.7013,17.4384,
-0.283856,12.696,0.0515646,13.3531,10.6685,
-0.13823,4.65494,0.00728449,4.81166,3.78529,
-0.0504117,0.52031,-0.0249521,0.525871,0.475271,
0.00708705,-0.018465,0.0152712,0.0356252,0.0314154,
-0.018411,-0.0368573,-0.0339139,0.0367238,0.00629132,
-0.0460133,0.0138164,0.0169255,0.0254665,0.0208044,
0.0286444,-0.00810013,0.0029113,0.0200311,0.0434097,
-0.0366852,0.0242767,-0.0133313,-0.0230637,-0.0317409,
-0.000198982,0.557088,-0.0592005,0.586691,0.431008,
0.00857368,6.79839,-0.156131,7.15619,5.74972,
-0.123001,18.3884,-0.23892,19.4634,15.5758,
-0.213368,24.5908,-0.135389,26.0527,20.9703,
-0.245409,23.7883,-0.112007,25.1224,20.3743,
-0.277019,18.0035,0.00283229,19.162,15.4451,
-0.127242,11.3333,0.0828369,12.0948,9.66267,
-0.0618273,6.0044,0.0407241,6.34045,4.97807,
-0.0400825,3.13686,0.0231517,3.34812,2.53651,
-0.0553555,2.32614,0.0351481,2.40435,1.97649,
-0.0381929,3.74427,0.0541647,3.97365,3.26642,
-0.0940204,7.6281,-0.0140851,8.09706,6.54331,
0.00065176,14.1172,-0.0554586,15.0809,12.0903,
-0.0531277,21.2514,-0.121668,22.5957,18.1627,
-0.197919,25.7793,-0.0630835,27.3492,21.8985,
-0.279487,26.1821,-0.161221,27.6734,22.1358,
-0.279087,25.5977,-0.192075,27.1276,21.7749,
-0.274161,25.4073,-0.197845,26.9766,21.7777,
-0.282374,23.1419,-0.121774,24.5556,19.715,
-0.303174,17.7076,0.0367754,18.6563,14.9544,
-0.179434,10.1834,0.0484858,10.6831,8.52577,
-0.12259,3.69413,0.0488513,3.78416,3.06269,
0.00573468,0.505173,-0.028367,0.474499,0.325037,
0.0456649,-0.0171809,-0.00993281,0.0452811,0.0420689,
-0.0172648,0.0236945,0.0147692,-0.0167672,0.00638097,
0.0112808,-0.0466908,-0.0250505,-0.050681,0.00355342,
-0.046361,0.027094,-0.0239396,-0.0406315,0.0471365,
0.0259806,0.0207541,0.00433296,0.0358092,-0.0329168,
0.0487547,0.67507,-0.0442378,0.732279,0.566389,
-0.0254161,7.44808,-0.123103,7.96829,6.36093,
-0.150486,19.7993,-0.298846,21.048,16.8653,
-0.181181,25.8386,-0.171667,27.3906,22.1442,
-0.289518,24.4397,-0.070235,25.8759,20.9086,
-0.226109,17.6388,0.0166866,18.7273,15.1142,
-0.14046,11.233,0.0847713,11.9432,9.49382,
-0.065613,6.35335,0.106877,6.66813,5.26676,
-0.105367,4.35444,0.10296,4.66884,3.62757,
-0.0591235,4.48836,0.0822786,4.71793,3.77312,
-0.0234854,7.15356,0.108606,7.56662,6.06361,
-0.0271333,11.2157,0.0890203,11.9201,9.56701,
-0.106405,16.8754,-0.0357282,17.9315,14.418,
-0.1801,23.3611,-0.070287,24.8162,19.9638,
-0.223268,26.2517,-0.1774,27.8588,22.2822,
-0.244429,26.0636,-0.204445,27.5476,22.0713,
-0.249038,24.9835,-0.199149,26.5193,21.262,
-0.258073,24.254,-0.19734,25.8134,20.8189,
-0.277353,20.8631,-0.0364723,22.0954,17.8335,
-0.237995,14.9936,0.0461209,15.8082,12.6043,
-0.190995,8.33424,0.0813884,8.63053,6.80766,
-0.0730316,3.05748,0.0301497,3.09534,2.48135,
-0.0105676,0.498134,0.0383082,0.43828,0.416374,
-0.0433527,0.0128783,0.0176718,0.0629693,0.0366677,
-0.00468607,0.0427373,0.0377045,0.0228891,0.00516612,
-0.0506891,-0.0463302,0.0444032,0.0118743,-0.0234757,
-0.0397192,-0.0182154,0.025485,-0.0198579,-0.0380301,
0.0423258,0.0217276,-0.0429617,-0.0214448,0.0417746,
0.0178922,0.737465,0.0151065,0.811412,0.588251,
-0.0601315,7.33645,-0.180262,7.86811,6.26152,
-0.119308,19.2158,-0.267584,20.5334,16.4497,
-0.24088,25.7143,-0.2913,27.3481,21.9677,
-0.219536,24.4861,-0.0828196,25.8486,20.8596,
-0.153708,18.4195,0.00653879,19.3635,15.6488,
-0.19144,12.6618,0.156598,13.1906,10.6018,
-0.0825186,8.85012,0.0542561,9.24073,7.33365,
-0.0797676,7.8944,0.102773,8.30334,6.61691,
-0.135161,9.14985,0.116759,9.58071,7.65066,
-0.0831834,11.7046,0.193509,12.3052,9.83006,
-0.115352,15.4719,0.0707296,16.3723,13.1112,
-0.144961,20.3902,-0.0359625,21.6893,17.3762,
-0.210699,24.147,-0.108223,25.6915,20.5406,
-0.217717,25.5148,-0.272809,27.1375,21.7225,
-0.222842,24.545,-0.328876,26.1717,20.878,
-0.21981,23.6701,-0.301555,25.1805,20.2506,
-0.236304,22.6928,-0.207286,24.0968,19.4127,
-0.258075,18.6187,0.00626089,19.7538,15.8667,
-0.163532,13.3473,0.0587825,13.997,11.2531,
-0.0934244,7.57622,0.0415448,7.84311,6.26434,
-0.0995688,2.77674,0.0519406,2.85495,2.27208,
0.0171909,0.421994,-0.0435378,0.40712,0.366576,
-0.0098487,0.0380945,0.0120467,0.0293309,0.0236223,
-0.0508061,0.0155819,0.0343125,0.00990261,-0.00351815,
0.0248766,0.0299558,-0.00715392,-0.0453814,0.0284627,
0.0201922,-0.0246251,-0.0265601,-0.0174975,0.006628,
0.015083,-0.00288044,0.00929358,0.0702356,0.0787818,
0.0283015,0.4566,-0.0606777,0.579873,0.43487,
0.0347343,6.4329,-0.13851,6.86671,5.54427,
-0.163597,17.7109,-0.257367,18.9688,15.2329,
-0.230639,24.1566,-0.328987,25.8333,20.7049,
-0.27614,24.3288,-0.1193,25.8308,20.6746,
-0.206753,20.3026,-0.0365572,21.3318,17.1162,
-0.163245,15.7875,0.112968,16.5435,13.158,
-0.137366,13.6203,0.0956396,14.2474,11.3654,
-0.117735,13.6815,0.138155,14.3301,11.3839,
-0.188805,15.1552,0.127974,15.8272,12.7069,
-0.173885,17.352,0.110698,18.2046,14.5813,
-0.185827,19.4215,0.0392319,20.5917,16.4818,
-0.205574,21.9602,-0.133141,23.3657,18.6643,
-0.247825,23.1659,-0.232231,24.6347,19.7513,
-0.280863,22.9029,-0.360933,24.4605,19.5297,
-0.245828,22.0122,-0.362099,23.5856,18.7351,
-0.163441,22.3074,-0.326042,23.7144,18.9943,
-0.201629,21.3226,-0.120735,22.6196,18.2846,
-0.237804,17.9996,0.0114312,18.9566,15.2691,
-0.17363,12.871,0.0383803,13.4677,10.826,
-0.119283,7.37196,0.00441185,7.61662,6.07754,
-0.0735379,2.83771,0.0824427,2.88252,2.24613,
-0.0273294,0.439174,-0.0425832,0.409067,0.307292,
0.00613378,0.0242002,-0.00121115,-0.0185813,0.0175287,
-0.0384469,-0.0443601,-0.0466617,-0.0345614,-0.0509266,
0.0132781,-0.0245909,0.0171215,-0.0251528,0.0049674,
-0.00665254,-0.00635003,-0.0481638,0.0168124,0.0372036,
0.0459764,0.0328657,0.0016018,0.0492914,0.00257318,
0.0161458,0.399722,-0.0632857,0.375672,0.366612,
-0.0358692,5.12426,-0.14412,5.51239,4.53955,
-0.103383,13.9606,-0.288605,15.0953,12.1677,
-0.235859,21.1391,-0.327181,22.7802,18.2072,
-0.237791,22.6102,-0.195247,24.1438,19.286,
-0.235527,20.9872,-0.0444562,22.3432,17.7978,
-0.145791,19.4745,0.0430779,20.4629,16.3882,
-0.148102,18.6966,0.0278002,19.6426,15.7219,
-0.148704,18.865,0.106854,19.9363,15.8571,
-0.205248,19.9983,0.0609219,21.1066,16.8546,
-0.251979,20.7312,-0.0941472,22.0143,17.6086,
-0.208478,21.1008,-0.157138,22.464,17.8459,
-0.232889,20.813,-0.310316,22.1584,17.656,
-0.174933,19.9758,-0.331799,21.332,17.014,
-0.172131,18.6486,-0.33035,20.0297,15.8097,
-0.160919,18.728,-0.278136,20.0604,15.8489,
-0.10708,20.192,-0.265113,21.5519,17.2776,
-0.141234,20.2646,-0.161505,21.4991,17.3245,
-0.160243,17.8749,0.0481432,18.7874,15.1996,
-0.150072,13.1332,0.0490966,13.7891,11.0167,
-0.0690333,7.51788,0.0544354,7.77016,6.18812,
-0.073743,2.81441,-0.00236253,2.8789,2.32689,
-0.0262768,0.388739,0.0583512,0.402219,0.387983,
-0.000783207,0.0601817,0.0289289,0.0191889,-0.0111367,
-0.0136475,0.0330255,0.0218725,-0.0355626,0.00958763,
0.0158889,-0.0232081,-0.0130169,0.0106718,0.0256839,
-0.0180622,0.0149458,-0.0246441,-0.00019961,-0.0450399,
-0.0510255,0.00555256,0.0318391,-0.00871265,0.00739669,
-0.0322879,0.177467,-0.0359095,0.171442,0.138404,
0.000600547,3.24539,-0.0757819,3.50664,2.90341,
0.00447754,10.2167,-0.218374,11.0551,8.9308,
-0.146047,16.3843,-0.270667,17.6285,14.2036,
-0.181536,19.6698,-0.282906,21.1692,16.975,
-0.243022,20.3373,-0.201812,21.768,17.4048,
-0.255415,20.4823,-0.132241,21.8134,17.4768,
-0.208317,20.6922,-0.0522728,21.978,17.6617,
-0.236498,20.9854,-0.15852,22.2705,17.8899,
-0.195309,20.9616,-0.166358,22.3293,17.8504,
-0.26276,20.0629,-0.229457,21.5074,17.0883,
-0.211847,18.6508,-0.289566,19.9469,15.9242,
-0.15527,16.8568,-0.297034,18.0767,14.3607,
-0.117508,14.59,-0.33961,15.7011,12.3719,
-0.187095,14.2884,-0.291705,15.3779,12.0955,
-0.119164,15.4521,-0.302555,16.603,13.1192,
-0.114327,18.0514,-0.202728,19.2644,15.3689,
-0.039179,19.5776,-0.166237,20.81,16.7565,
-0.0682503,18.0796,-0.00476344,18.9825,15.3411,
-0.094135,13.8148,0.0260034,14.3479,11.5486,
-0.0725939,8.14319,0.0412012,8.49028,6.85765,
-0.0462642,2.77665,0.0402069,2.85162,2.24488,
-0.0583165,0.393529,0.0236388,0.326095,0.29462,
0.0117828,0.0249241,0.0475513,0.0517348,0.0572178,
-0.0290409,0.0276725,0.0315206,-0.018369,0.0469702,
-0.00410765,0.0105596,0.000701034,0.0243898,0.00835183,
0.0393842,0.0300334,-0.0120356,-0.00660218,0.00981306,
-0.0447358,-0.00899771,-0.0247966,0.0211687,-0.0511532,
0.0298898,0.0128195,-0.0290964,0.0371073,0.0686833,
0.0288511,1.87155,-0.0812954,2.06001,1.64064,
0.0135609,6.33201,-0.199441,6.82319,5.6125,
-0.0610571,10.8415,-0.189903,11.7657,9.47625,
-0.14964,14.3827,-0.277797,15.5356,12.4693,
-0.160625,16.6207,-0.260448,17.8655,14.3445,
-0.174569,17.7429,-0.271474,19.0412,15.2888,
-0.191004,18.3125,-0.220341,19.6696,15.82,
-0.217383,18.1459,-0.290394,19.5677,15.6079,
-0.161443,17.1014,-0.327788,18.3967,14.6254,
-0.123079,15.3525,-0.344367,16.4892,13.0974,
-0.0719148,13.1739,-0.28944,14.1731,11.2219,
-0.0954609,11.0286,-0.254198,11.8683,9.42152,
-0.132881,9.39899,-0.175943,10.1749,7.99876,
-0.175482,9.56592,-0.169774,10.3289,8.19899,
-0.129964,12.1993,-0.169128,13.1977,10.4201,
-0.134656,15.7524,-0.200054,16.9027,13.5925,
-0.0349941,18.3563,-0.056341,19.4866,15.8131,
-0.118273,17.3451,-0.0778994,18.3391,14.774,
-0.142257,13.4274,-0.018902,14.0524,11.2884,
-0.125793,7.85384,-0.0148789,8.13284,6.62479,
-0.0691629,2.69007,-0.00772941,2.72013,2.18273,
-0.050351,0.315002,-0.0288986,0.28992,0.243357,
-0.013811,0.0386313,-0.0421355,0.0516953,0.00244687,
0.00951014,0.0050268,0.0334248,-0.0316135,-0.0457745,
0.0239686,-0.0204659,0.0350966,-0.00273143,0.020664,
0.0126057,0.0368935,-0.0353469,-0.0201572,-0.0508362,
-0.00362989,-0.000496497,0.0484291,0.0129729,-0.000105805,
0.0457566,0.0372994,0.00185121,0.0415376,0.0473162,
-0.0335372,0.805839,-0.0190398,0.838419,0.677555,
0.0409128,3.25779,-0.121239,3.59158,2.90068,
0.0328278,6.32904,-0.163961,6.82148,5.50566,
-0.00390284,9.013,-0.15991,9.65682,7.76233,
-0.032557,11.0027,-0.196822,11.8332,9.56251,
-0.0964717,12.0074,-0.289647,13.0299,10.4505,
-0.139682,12.1723,-0.274354,13.2091,10.5307,
-0.105047,11.5518,-0.311599,12.4025,9.96275,
-0.0816315,10.6211,-0.307652,11.4444,9.06771,
-0.0551295,9.049,-0.223763,9.74363,7.73783,
-0.101751,7.04709,-0.165937,7.53928,5.98758,
-0.116278,5.70841,-0.116006,6.144,4.87449,
-0.105904,5.22824,-0.0628849,5.63866,4.46467,
-0.157379,6.35496,-0.0653296,6.97404,5.45811,
-0.113655,9.45846,-0.0569718,10.2171,8.10397,
-0.13064,13.4641,-0.148561,14.4168,11.5822,
-0.0285562,16.2391,-0.0671223,17.2127,13.8609,
-0.0212145,15.7016,-0.00730576,16.567,13.3681,
-0.0674607,12.1215,-0.0259929,12.6363,10.2051,
-0.0876396,6.79776,-0.0776523,7.05843,5.66057,
-0.000623523,2.31551,-0.0318717,2.33385,1.88275,
-0.0311093,0.31554,-0.0400688,0.295715,0.19803,
-0.0457825,0.0204328,-0.000830091,0.0515408,-0.00479637,
0.0394615,-0.0195218,-0.0235754,0.0480562,0.0128277,
-0.0324772,-0.0158589,0.0417266,0.0443364,-0.0394523,
0.0481465,-0.00432915,0.0200025,0.0286099,0.033973,
-0.043788,-0.0147444,-0.0384696,0.00721238,-0.0467553,
-0.0284536,0.0500507,0.0298085,-0.03646,-0.0368434,
0.0427479,0.296514,0.0172596,0.273726,0.173148,
0.00469033,1.32635,-0.0327648,1.47701,1.18233,
0.018981,2.96357,-0.136884,3.18759,2.54529,
0.0112676,4.55876,-0.180785,4.8816,3.92012,
-0.0472859,5.67808,-0.198564,6.13791,4.92175,
-0.00561119,6.53562,-0.165591,7.02838,5.64974,
-0.0533564,6.46863,-0.148519,7.02655,5.64446,
-0.026055,5.91633,-0.198413,6.36668,5.06494,
-0.0777397,5.02039,-0.160093,5.457,4.30886,
-0.0326242,3.78948,-0.0524296,4.11609,3.28334,
-0.0210031,2.90475,-0.106398,3.11373,2.43185,
-0.0459082,2.54904,-0.0221906,2.80092,2.19754,
-0.0813231,2.96018,-0.0303748,3.13447,2.56045,
-0.0722994,4.47241,-0.0430087,4.85596,3.90147,
-0.103628,7.60456,0.00641401,8.2536,6.56936,
-0.0567553,11.3804,-0.00511646,12.1908,9.82911,
-0.058121,13.7466,-0.0318024,14.6707,11.7886,
-0.0730306,13.1857,-0.0279238,13.9315,11.2312,
-0.0312614,9.95957,-0.0947902,10.3813,8.38668,
-0.0469335,5.52745,-0.0114316,5.80445,4.66619,
-0.0543866,1.8763,-0.0459244,1.9688,1.58213,
-0.0400201,0.291034,-0.0332433,0.285858,0.252368,
-0.0253217,0.00432903,-0.0238281,-0.0260164,0.0441655,
-0.0292569,0.0343608,-0.0244093,-0.0508105,0.0294996,
-0.036061,-0.0243966,-0.00108675,0.042441,0.0224507,
-0.000227114,0.0256314,-0.0476978,0.0361931,-0.00163696,
0.0378313,-0.0126346,-0.0388519,-0.00967756,0.0193436,
-0.0345839,0.0064954,-0.0270852,-0.0267048,-0.0214464,
-0.0239498,0.0676029,0.0297434,0.106507,0.100268,
-0.0317924,0.357583,0.0253636,0.398028,0.241983,
0.0465775,1.01248,-0.0365633,1.034,0.858202,
0.0460804,1.6446,-0.0728731,1.84518,1.42551,
-0.0399334,2.39877,-0.0472094,2.57382,2.05659,
-0.0174405,2.62039,-0.060204,2.84387,2.24936,
-0.00618958,2.52873,-0.0708118,2.71714,2.19199,
-0.0553275,2.2242,-0.0726789,2.39345,1.94281,
-0.0379592,1.66703,-0.0434406,1.85679,1.47649,
-0.00124138,1.34152,-0.0508955,1.42243,1.21265,
0.0201941,1.05972,0.028378,1.06876,0.93088,
0.00701715,1.17616,0.0183774,1.30498,0.998981,
-0.0221155,1.79625,-0.00795934,1.92665,1.49247,
-0.0302833,3.39671,-0.00768564,3.7513,2.98183,
-0.116958,6.00642,0.0197986,6.49869,5.17202,
-0.0559674,9.18492,0.0550909,9.8228,7.92855,
-0.0829696,10.7473,-0.0200154,11.3903,9.19828,
-0.118821,9.9198,0.0417505,10.4014,8.47341,
-0.060693,7.04499,-0.0409022,7.35681,5.99018,
-0.0518702,3.9443,-0.064034,4.05147,3.31684,
-0.0561802,1.26579,0.00158783,1.28554,1.04553,
0.0372119,0.268295,-0.00769682,0.27145,0.171127,
-0.0380366,0.00252038,0.0181539,0.0112204,-0.0449778,
0.0374651,-0.0376018,-0.00866093,-0.0360356,-0.0379376,
-0.0377024,0.0362288,0.0103656,-0.045262,-0.0351243,
-0.0413847,0.0119358,-0.00194592,0.01669,-0.0336604,
0.0289206,-0.0382282,-0.00820176,0.0311693,-0.0322158,
-0.040363,-0.0449358,-0.0296177,0.045769,-0.010142,
0.0105193,0.0384339,-0.0473473,0.00588506,0.0424241,
-0.00377486,-0.00877675,0.0309193,0.0930517,0.0245753,
-0.0159907,0.22467,-0.0525551,0.156088,0.124175,
0.039326,0.396675,0.00453739,0.327705,0.344887,
-0.0328068,0.486204,0.0195648,0.562133,0.421977,
-0.00968879,0.612592,-0.0590214,0.617365,0.455972,
-0.0293981,0.541652,-0.0235553,0.598504,0.483367,
0.0267271,0.46293,0.0360249,0.518005,0.459368,
0.0376087,0.415214,-0.0512701,0.429654,0.358257,
-0.017604,0.342873,-0.0448483,0.284725,0.282086,
-0.0375118,0.446528,0.0286036,0.392433,0.301692,
-0.0333625,0.824866,0.0114801,0.804602,0.729328,
-0.0591175,1.35708,0.0227511,1.42604,1.18605,
-0.0667314,2.56544,-0.0172938,2.81765,2.17606,
-0.0376402,4.4786,0.0245261,4.79285,3.81724,
-0.0522455,6.91841,0.045534,7.32833,5.95439,
-0.054579,7.81139,0.0544774,8.2385,6.8105,
-0.00831832,6.71876,0.0138442,6.99927,5.82309,
-0.0616332,4.63028,-0.0223822,4.73901,3.92473,
-0.0746225,2.38418,-0.04287,2.48891,2.06363,
-0.0508393,0.668572,-0.0114824,0.743684,0.625365,
0.0405226,0.0800756,-0.0286467,0.0790975,0.10671,
0.0127382,-0.0421573,0.0484302,0.0275139,9.34967e-005,
-0.0318161,0.0296418,-0.0164887,-0.0397802,0.0381075,
-0.0257911,-0.0368336,-0.0211889,-0.0179245,0.0199359,
0.0384538,0.0195124,-0.038893,-0.0168606,-0.0113924,
-0.0339924,-0.036323,-0.0120035,0.0405502,0.0153484,
-0.0510414,0.0063019,0.0209808,-0.012001,0.0502264,
0.02272,-0.0396626,-0.00771439,-0.0384344,0.00241673,
0.0159581,0.0257648,0.0338781,-0.0456902,-0.0177613,
-0.0179118,0.0555578,0.0185041,-0.025695,0.0500704,
0.0138716,-0.0437282,-0.0348988,-0.00741206,0.0147347,
-0.00196924,0.0411367,0.000416349,0.00149255,0.0230944,
0.0251422,-0.0392018,0.029311,-0.00502095,0.0167935,
0.0252529,0.0433985,-0.012401,0.0399636,-0.0348917,
0.015224,-0.00381934,0.0246864,0.0146463,0.0480605,
0.0119373,0.0654989,0.00871237,0.0473316,0.0863348,
-0.00132737,0.155709,0.023831,0.15877,0.08191,
-0.0241159,0.280659,0.0272674,0.298387,0.229598,
-0.0481113,0.557854,-0.0135097,0.57114,0.48999,
0.0362295,1.02365,0.0543345,1.12564,0.80645,
0.0212195,1.79561,-0.0273582,1.91824,1.54851,
-0.0730311,2.98177,0.0350489,3.22396,2.60045,
-0.0308635,4.10469,0.115366,4.37856,3.56755,
0.00711605,4.36202,0.0860721,4.53644,3.74657,
-0.0235248,3.75133,0.0042718,3.83391,3.23573,
0.0260867,2.32618,0.0600427,2.47554,2.03386,
-0.0429839,0.982132,-0.0517619,1.07728,0.8341,
0.0270599,0.206718,-0.0421225,0.275107,0.249477,
0.0217092,0.00484727,-0.0450974,0.00706003,0.0466202,
0.00533818,-0.0485658,-0.0265423,-0.0451295,0.00901155,
-0.0461991,-0.0154944,0.0470807,-0.0143629,0.0269648,
-0.0446445,0.0222811,-0.0304924,0.0229971,-0.039365,
0.0326048,0.0236115,-0.00995264,0.0314402,0.0469139,
0.00789957,0.0360631,0.0108448,0.0494454,0.0301062,
0.0440613,-0.00653688,-0.0147615,0.0341138,0.0111717,
0.0458909,-0.0253326,-0.0346621,0.0544486,0.0324203,
-0.0327184,-0.017258,0.0103185,-0.0351278,-0.00330632,
-0.0273081,-0.0438427,0.0226179,-0.0459769,0.0510146,
0.0391967,0.0146919,-0.049634,0.03576,-0.0228168,
-0.00443454,0.0224283,0.0238381,0.00914868,0.0288802,
-0.0188974,0.0392062,-0.0358547,-0.00521828,-0.0345401,
-0.000695235,-0.0201976,-0.0357988,0.048086,0.0126274,
0.0213115,0.00315728,-0.00958197,-0.00965004,0.00410252,
0.0198903,0.00047034,-0.0233656,-0.0282969,0.0461355,
-0.0358447,0.0700627,-0.028458,0.0418338,0.0450555,
-0.0491065,0.185636,-0.0126054,0.154907,0.0937091,
0.0410682,0.251069,0.0369249,0.231984,0.24283,
0.0231058,0.535364,0.0460202,0.55441,0.454589,
-0.00713558,0.985882,0.0647438,1.05727,0.857356,
-0.0427943,1.50977,0.0722601,1.61314,1.32925,
0.0340763,1.63625,-0.0051743,1.7109,1.42481,
-0.0375723,1.61044,0.0157628,1.6847,1.45518,
-0.032457,1.12877,-0.0187921,1.22814,0.995932,
0.0371519,0.695062,-0.0099828,0.696585,0.628427,
0.0327289,0.262218,0.0339755,0.244493,0.165491,
0.0490595,0.0554394,-0.0470892,0.0348322,0.0562464,
0.0389785,0.0445949,-0.0363847,-0.0294544,0.0146396,
-0.0352823,0.0276716,0.0227763,0.0339574,0.0146624,
-0.0243805,-0.0426315,-0.0126077,-0.0117706,0.0384103,
0.000405541,0.0394819,-0.0330551,0.0149344,0.0263931,
0.0387033,-0.0137458,0.0227459,0.0437723,0.00275343,
0.0101126,-0.0319963,0.0385459,-0.00970211,0.00609736,
0.00894807,-0.0465203,-0.032599,-0.00657488,-0.0214758,
-0.0188427,-0.0298556,0.00915844,0.0443036,0.0439016,
0.0189511,-0.0279649,-0.0244264,0.0215143,-0.0288503,
-0.0288083,0.0173106,0.0357817,0.0140593,-0.0371564,
-0.0427077,0.0311724,-0.00715245,-0.00718418,0.00207184,
-0.0370301,-0.0309613,-0.0423321,-0.0150693,-0.046325,
-0.0387303,-0.0269815,-0.0177766,0.0361439,0.0435096,
0.0196554,-0.0263628,-0.0449999,-0.0274681,0.0247941,
-0.00665098,-0.0360243,0.0278466,-0.0370107,-0.00477741,
-0.048209,0.0536309,0.0398764,0.0245011,-0.0223859,
0.0419512,0.0629335,0.0362482,0.00874898,-0.0370171,
0.0458766,0.039335,0.00746948,0.117502,0.0370691,
0.0384944,0.150412,-0.0141959,0.132988,0.144105,
0.0154965,0.172223,0.0477018,0.179077,0.124704,
0.029616,0.180625,0.0268023,0.271437,0.195908,
-0.0523538,0.258503,0.0228297,0.251066,0.246921,
-0.0076556,0.214516,0.0546376,0.187247,0.133289,
0.0496886,0.290068,0.0419749,0.239691,0.194641,
0.0189371,0.220653,-0.0154147,0.249985,0.212059,
-0.0275613,0.142472,0.0109342,0.0875255,0.114295,
0.01792,0.0413597,0.00773936,-0.0269287,-0.0153482,
-0.00502308,0.045164,0.0244919,0.0449523,0.0482834,
0.0316389,0.0254039,0.0229305,-0.01719,0.015692,
0.0295081,-0.0257614,0.00471106,-0.0337053,-0.0492003,
-0.00175124,-0.0381189,-0.0184787,-0.01389,-0.0395224,
0.0377807,0.0411014,0.048987,0.0451513,-0.0406892,
0.0403197,-0.0432273,0.0441967,0.0478576,-0.0411749,
-0.0241619,-0.00289181,-0.0509799,0.0170417,-0.0135518,
0.0150422,0.000762821,-0.0368726,0.0260873,-0.020998,
0.0130995,0.0478259,0.0168721,0.0262077,-0.0157695,
-0.0365441,0.0379005,-0.007898,0.0127371,0.0037392,
0.0257293,-0.0465441,-0.0332993,-0.0181116,0.0446678,
-0.0488771,0.0358495,0.00211832,0.0349763,-0.0432911,
0.0207254,-0.000482868,-0.00936618,-0.0138601,-0.00644043,
-0.000395684,-0.0257263,-0.0250604,0.042434,-0.0320421,
0.0238971,-0.0470959,-0.0282353,-0.0132734,0.050704,
0.000428218,0.0143962,-0.00295649,-0.0345198,-0.0478091,
0.0367879,0.0391568,-0.0295434,0.0495314,0.0241515,
0.0462087,-0.0159116,-0.0280961,-0.0156247,0.00718444,
-0.0441076,-0.0301731,0.0480547,0.0428568,-0.00667656,
0.00902511,0.0247925,-0.0231508,0.00838451,-0.0357882,
0.023593,0.0603543,0.00966473,-0.029025,-0.0284319,
0.0191203,-0.00120508,-0.0171389,0.039697,0.0665663,
-0.0280111,0.0528911,-0.0229575,0.0212648,0.00283238,
0.0392817,-0.0140415,0.00421727,0.0346491,-0.0246299,
-0.028805,-0.0409952,0.00659588,-0.0305167,0.0140742,
-0.0437899,-0.0121097,0.0419697,-0.0391455,-0.0399655,
0.0429519,0.0284698,0.00530352,-0.0402119,0.0325872,
-0.0231445,-0.0392832,-0.00219294,0.00304063,-0.0316326,
0.025231,0.0277692,0.0194643,0.0133183,-0.0236328,
-0.032672,0.0386968,-0.00965363,0.00677783,-0.038805,
-0.0253803,-0.0230633,0.0354176,0.0233751,-0.00488132,
-0.0359127,0.0132144,-0.0218603,0.044107,0.0148296,
0.005239,-0.00861664,-0.0180181,0.0070977,0.0304172,
