0.0287572,-0.0189264,-0.112935,0.196513,-0.0513847,0.0733864,-0.194856,-0.0489668,0.0434869,0.0700077,-0.213829,-0.200415,0.250563,0.142408,-0.0297537,0.176244,-0.283474,0.149306,0.159554,0.247818,0.0564226,-0.00618933,-0.151251,0.256967,0.033181,-0.178835,0.238027,-0.14105,0.0984177,-0.278234,-0.278863,-0.25519,-0.117946,0.284328,-0.115679,-0.115907,0.107044,-0.240858,-0.103229,-0.177395,-0.184182,0.246579,0.0733676,-0.112321,-0.252306,-0.284152,0.114243,-0.150377,0.202826,0.225294,0.0727248,-0.25735,0.277102,0.107727,-0.113015,0.12106,-0.305508,-0.305966,-0.216966,0.0133037,-0.24641,-0.0911367,-0.271856,-0.14999,-0.113329,-0.0793173,-0.115588,0.140311,0.0631327,-0.268219,-0.200213,-0.0194601,0.285342,-0.0570986,0.0288578,0.0091173,-0.00911761,-0.0897483,-0.209077,-0.158938,0.168798,0.115785,0.261572,0.306694,-0.303149,0.251901,-0.246177,-0.269917,-0.070568,0.169215,0.0612712,-0.218653,-0.0239049,0.298654,0.204673,-0.166068,-0.110426,0.118277,0.290633,-0.30965,
0.310004,-0.16449,0.213274,0.263193,-0.0237154,0.144495,-0.187799,-0.0946171,-0.308216,0.106014,0.00339149,-0.133308,-0.260026,0.0197377,0.0424112,0.286536,-0.173913,0.264416,0.0171954,0.240755,-0.244026,0.0256971,0.197659,-0.0140635,-0.305184,-0.223807,-0.131775,-0.176232,-0.261439,0.00849485,-0.0626394,0.216355,0.254268,0.101175,0.114802,0.295951,0.195665,-0.30417,-0.0128287,0.203781,-0.137987,0.150079,0.272488,0.168497,-0.0560427,-0.0558892,-0.131959,0.121329,0.224238,0.0886059,-0.287964,0.0438523,0.137417,0.23468,-0.108454,-0.214599,0.251396,-0.191939,-0.0690597,-0.255694,0.146681,0.29888,-0.00198419,-0.209183,-0.165722,-0.168148,0.0732508,-0.139226,0.305986,0.128537,-0.0644027,-0.167444,0.275074,-0.0152287,-0.160318,-0.291657,0.269645,-0.0559864,-0.175169,-0.226003,-0.147831,0.218354,0.142629,-0.256595,0.111841,0.0876168,-0.23263,-0.170308,-0.232503,0.252944,0.242728,0.151352,0.284469,-0.00116227,0.166797,0.0523388,-0.0731772,-0.281265,0.115112,0.187092,
-0.181506,-0.305061,0.277011,-0.0310375,0.177708,0.136628,-0.284222,-0.0469654,0.20936,0.0737946,-0.141353,0.268533,0.191835,-0.285223,0.180498,0.219585,0.0331887,-0.117859,0.0647593,-0.302608,-0.0474409,-0.232252,0.304111,0.209005,0.263601,0.0179479,0.0321391,0.0883385,0.25903,0.139402,-0.159791,0.116771,0.256769,6.46873e-005,-0.061547,-0.0117458,-0.112452,-0.20098,-0.0487611,0.0203023,-0.211456,-0.274196,0.299146,0.242301,0.248541,0.0568155,-0.10354,0.136745,0.110023,-0.255393,-0.151531,0.245043,-0.116264,-0.154161,0.298383,-0.0747559,0.0476003,-0.106823,0.25342,0.165202,-0.0574611,0.307223,0.242842,-0.108767,0.10316,-0.234457,0.110219,0.222354,0.0676011,0.144331,0.0913155,0.0351112,-0.239956,-0.18305,-0.208963,-0.0830572,-0.201974,0.236329,-0.2669,0.0896879,-0.0709638,0.0900492,-0.19559,-0.25402,-0.145976,0.0964189,0.00187495,0.239671,0.289596,-0.017537,0.211074,0.277805,0.238525,0.111198,0.254589,-0.27774,-0.0533756,-0.27683,0.173055,-0.192542,
-0.0924937,-0.0796567,-0.136384,-0.262731,0.111523,-0.294106,0.250875,0.0366207,-0.154646,0.186457,0.241017,-0.29519,0.0153127,-0.121808,-0.230849,0.121957,-0.0987557,-0.251308,-0.157771,0.0335014,0.106597,-0.248669,-0.159982,-0.289579,0.253723,-0.0189951,0.21348,-0.259175,0.304001,-0.301604,0.0651375,-0.0619387,0.308284,-0.259383,0.0462909,-0.0603349,0.292777,-0.039077,-0.241123,-0.0511091,0.179189,0.0199046,0.00542619,-0.0621461,0.0367086,-0.0808271,-0.23477,0.241412,-0.165816,-0.288988,0.272311,0.100284,-0.0869447,0.0249103,0.0814855,0.148005,0.215306,0.102246,0.0061569,-0.152894,-0.0193791,0.01075,-0.181152,0.119934,0.115391,-0.253643,0.305033,-0.227666,0.0477176,-0.0950708,-0.119886,0.0537385,0.0664477,-0.222709,-0.164572,0.0244379,-0.103988,-0.24368,0.0695497,0.140692,0.090476,-0.266454,0.148828,-0.241801,0.252633,0.225159,0.0396776,-0.28966,0.167663,-0.1745,0.269763,0.134181,0.228638,-0.109116,-0.230085,0.00723633,0.177112,-0.120313,-0.0869663,0.182073,
0.0664091,0.243024,0.171994,-0.1116,0.0343075,0.00215914,0.307003,-0.00812272,0.236483,0.0274523,0.0752086,-0.125756,-0.0697505,-0.162729,-0.00865405,0.0569467,-0.0506203,0.0900098,-0.28065,-0.0908116,0.20199,-0.00416866,0.0207893,-0.224852,0.246923,0.215905,-0.15543,-0.0354126,-0.255933,-0.168716,0.270615,-0.0330956,0.170515,0.071531,0.168317,-0.266904,-0.190902,0.223827,0.185946,0.288051,0.143845,-0.303722,0.11759,0.256633,0.000975308,-0.0582179,0.269526,0.157348,0.150955,0.113157,0.0276753,0.192567,0.204822,0.112912,-0.141058,-0.0228329,-0.204784,-0.200639,0.210101,0.165209,-0.0201357,-0.0597691,0.272441,-0.186283,0.200693,-0.274275,-0.180349,0.169313,-0.235642,-0.0312033,-0.236074,0.0574025,-0.107052,0.183591,0.0983391,3.83361e-005,-0.13841,0.241628,-0.168395,-0.293391,-0.0978263,0.0608263,-0.215316,-0.11119,0.148272,0.0513351,-0.0936724,0.0162009,0.117674,-0.085819,0.126456,-0.101363,-0.167706,0.228509,-0.0538812,0.0697988,0.0910068,0.276001,0.118363,0.234342,
0.226982,-0.189098,-0.146507,0.302903,0.00442181,0.165519,0.28958,-0.279269,0.102475,-0.0890904,0.0152412,-0.193939,-0.153632,-0.057537,0.201665,0.0668891,0.134587,0.0642657,0.165091,-0.263573,0.0722587,0.066457,0.198073,-0.046759,-0.166265,0.231331,-0.059896,-0.0146781,-0.288694,-0.120187,0.148942,0.243769,0.081186,0.128034,0.0114324,0.179087,-0.18871,0.0589055,-0.169251,-0.173046,-0.212042,0.213799,0.157134,-0.0754415,-0.0392224,-0.260241,0.131647,-0.182136,-0.227416,0.089326,-0.19436,-0.17748,0.0980325,0.0625482,-0.151286,-0.151456,0.201329,0.193078,-0.0678826,0.0359959,-0.147484,-0.26278,0.143357,-0.100003,-0.0602726,0.286481,0.302631,-0.000102888,-0.0753796,-0.273035,0.181953,0.146114,0.19459,-0.167626,0.173812,-0.209758,-0.148694,-0.0763078,0.270134,-0.00396422,-0.0473608,0.0700699,0.0187757,0.150074,0.230771,0.126286,0.175886,-0.239837,-0.24585,-0.135401,-0.050416,0.124127,0.0757104,-0.0239508,0.119819,0.122638,-0.265399,0.23594,0.000776951,0.163295,
-0.0608927,0.0250843,-0.100938,-0.0626448,-0.207496,0.00981807,0.124421,0.0587985,0.0599462,-0.303819,-0.251727,0.0628457,-0.182755,0.166163,0.163376,0.124823,-0.167408,0.023221,0.308144,-0.104948,0.0848487,0.182508,0.168258,0.0630793,-0.147184,-0.102743,0.168766,-0.180381,-0.0142066,-0.104375,0.0344104,-0.132281,0.223421,0.213308,-0.0636669,0.263242,-0.0822359,0.297448,0.215426,0.272847,-0.0716989,-0.00433182,-0.124651,-0.0647339,0.189247,-0.296705,-0.0773555,0.0119947,0.0748462,-0.14703,-0.0799643,-0.162741,-0.0133164,0.215538,-0.218659,0.267154,0.200259,0.308568,0.0757771,-0.0350023,0.195406,0.249212,-0.243467,0.152029,-0.0262708,-0.282875,-0.243431,0.0405436,-0.257392,-0.260942,0.266592,0.27349,-0.268461,0.166185,-0.032963,-0.229858,0.154636,0.140807,0.0827239,0.040703,0.282144,-0.155635,0.0597913,-0.0774764,0.100031,-0.27629,-0.0057983,0.2842,0.0924241,-0.128213,-0.146698,-0.263007,-0.0437237,-0.0296643,0.29368,0.306638,0.0326167,0.147985,-0.0607406,-0.230368,
0.0486257,-0.0168455,-0.309059,-0.0136634,0.105621,-0.0658593,-0.168313,-0.0413327,-0.0899504,-0.157562,0.138061,-0.284103,0.0582261,-0.3045,0.189529,-0.0273136,0.0141353,-0.0977128,0.15515,0.218862,-0.0630251,-0.297329,0.0240076,-0.290208,-0.296182,-0.112309,0.0381823,0.0539941,-0.0883426,0.303863,0.141549,0.175305,-0.274169,0.21507,0.0848622,-0.0968141,-0.289601,0.0905145,0.107189,-0.155716,0.224254,-0.269673,-0.0778883,-0.065113,-0.162757,0.0862566,0.28658,0.147041,0.242104,-0.253716,0.0269877,-0.0962696,-0.163022,-0.194394,-0.2462,-0.127129,-0.139462,-0.222188,-0.0622898,-0.074214,-0.275975,0.152851,-0.0115744,0.269025,0.267002,-0.121718,0.213189,-0.217759,0.184159,-0.156183,0.171596,0.0277881,0.297633,-0.0259959,0.261285,-0.110612,-0.116873,-0.0391526,-0.276955,0.0319693,0.304273,0.224802,-0.0101189,-0.192653,0.0679167,0.248102,0.216739,0.147185,-0.0190404,-0.233785,-0.240211,0.254121,-0.0109339,-0.206685,0.00154991,-0.245185,-0.25027,-0.0615411,-0.253581,-0.303334,
0.12329,-0.175959,0.271758,0.277941,0.0381963,-0.25697,0.0812451,0.219368,0.220169,0.213874,0.203701,0.262286,0.214105,0.262257,-0.0286142,0.0437933,0.22164,-0.0234807,-0.0974611,-0.0973025,0.1246,-0.0488146,0.185354,0.148173,0.235857,-0.019591,-0.235869,0.0849631,-0.111108,-0.295092,0.0772209,0.156534,-0.235657,-0.278401,-0.0430338,0.238046,-0.253581,-0.231149,0.29819,0.24138,0.176161,0.304115,0.0891072,-0.267586,-0.0251795,-0.0459964,0.161464,0.107492,-0.209862,-0.115787,0.296721,0.146834,-0.250616,0.221605,0.224736,0.118292,-0.122036,-0.0700785,0.194296,0.205147,-0.147822,-0.258502,0.0756015,0.182659,-0.15467,0.031721,0.179303,0.142447,-0.130565,-0.219494,0.0672118,-0.191009,-0.308864,-0.193482,0.110947,-0.0115156,0.124708,-0.226218,-0.267244,-0.259041,-0.067695,0.251565,-0.0319806,0.0371218,0.0114724,-0.0329743,-0.105152,-0.040796,-0.0496256,0.125657,-0.290109,0.0774495,-0.170928,0.0781354,0.131451,-0.0683501,0.258189,0.231868,-0.264366,-0.259973,
0.216687,0.222011,0.247752,0.294385,0.267992,-0.305244,-0.064396,-0.280771,-0.0289574,0.238904,-0.0416403,-0.270114,-0.230829,0.23104,0.203357,0.295236,-0.258664,0.267887,-0.01421,0.0911143,0.0153611,-0.216613,0.27356,0.234637,0.140302,0.0391958,-0.255478,0.0883451,0.237633,0.217877,0.283926,0.167589,-0.028284,-0.097679,0.0446373,-0.025563,0.114983,-0.0308076,-0.233215,0.0432784,0.117196,0.185423,-0.216533,-0.117856,0.115097,0.10229,-0.304279,-0.117388,0.217406,0.101488,0.211215,-0.145372,-0.295823,0.265269,0.254301,-0.138229,-0.181123,-0.0112476,-0.31017,-0.222614,-0.151798,0.149351,-0.160001,-0.0702282,-0.267305,-0.145234,0.225141,-0.304341,-0.0160839,-0.179077,-0.147252,0.139206,-0.259926,0.14649,-0.0216786,-0.234463,-0.186817,-0.167141,-0.0211887,-0.268375,0.0173656,0.288154,0.289877,-0.0204724,-0.208158,-0.117644,-0.212401,0.216787,0.0870161,-0.3016,0.0745526,0.13538,-0.0641205,0.0432529,0.263401,0.0986987,-0.192,0.276931,0.163607,-0.0362986,
-0.208178,0.0364009,0.190409,0.2254,0.218731,-0.225281,-0.252108,-0.0157144,-0.0173903,0.25195,-0.301962,-0.0299515,-0.183518,0.095598,-0.180642,-0.164949,0.0301947,-0.183623,-0.225322,0.259983,-0.0786856,0.261334,-0.28451,0.16033,0.138614,-0.265508,-0.227267,0.0135192,0.195647,0.0040692,0.0412212,-0.252399,-0.273115,0.153935,0.299081,0.0419071,-0.23539,0.209083,-0.0392453,-0.0267497,0.0454419,-0.177331,0.107765,-0.187722,0.0812777,0.26444,0.0189546,0.0101266,0.0210762,0.196608,-0.251055,-0.24883,0.026028,-0.0401302,-0.219225,0.205002,0.0705099,-0.269245,0.29633,-0.0380705,-0.00432648,-0.0364101,0.10784,0.0410045,-0.0496095,-0.084612,-0.0710705,-0.30691,0.0296999,-0.108158,0.213883,-0.0202617,0.142033,0.151736,-0.28234,0.211284,-0.0424362,0.166099,-0.15739,0.0273972,-0.137666,0.0938959,-0.0687195,-0.0163941,0.283097,-0.0580661,-0.06211,0.237945,0.292657,0.142573,0.285324,0.156182,-0.286222,0.0543641,-0.298893,-0.211972,0.111883,0.0305833,-0.170338,0.211362,
-0.265238,-0.152832,-0.166656,-0.286361,0.205088,0.286611,-0.143788,0.0426129,0.0621617,0.241921,0.105369,0.145413,-0.259512,0.0599614,-0.196138,0.00821237,-0.0723571,0.194426,0.0917555,0.137546,0.0913543,-0.285364,-0.143099,0.115763,-0.213843,0.305895,0.191892,-0.164466,-0.249036,0.268124,0.242433,-0.172889,0.23809,0.119953,0.0470537,0.252633,0.227182,-0.11661,-0.157495,0.0920538,-0.0914231,-0.0157828,0.0886867,0.206961,-0.118829,-0.0607456,-0.137202,-0.155846,0.0473913,0.0968999,0.212846,-0.13594,-0.21317,0.166321,0.0577594,0.0695369,0.0533061,0.0149479,-0.0318885,0.247089,-0.0844402,0.129559,-0.105001,-0.0305865,0.229002,-0.0281323,0.268186,0.114125,0.19132,-0.188151,-0.170509,0.0385447,-0.134375,0.15418,0.130568,0.134732,0.29026,0.149301,-0.251143,0.222709,0.0831055,0.179816,-0.251072,-0.0832879,-0.260298,0.262546,-0.0631772,0.292398,-0.239743,-0.0319633,0.136286,-0.125593,0.26016,0.0669882,-0.232371,0.281584,-0.0962589,-0.28236,-0.194655,0.0924418,
0.0962904,0.0333626,-0.0658569,0.285587,-0.289819,-0.245492,-0.246226,-0.292668,-0.287383,-0.0831533,-0.243627,0.255955,0.0189349,0.0414337,-0.085925,0.0333672,-0.179795,0.142789,0.0465517,0.242844,0.0527766,-0.294287,0.290101,0.102749,0.212179,-0.185527,0.209087,-0.121825,0.262332,0.0999865,0.0744123,-0.216006,0.0997763,0.0824231,0.165684,0.149236,0.0334387,0.273017,0.115802,0.199487,-0.294807,0.265574,-0.20724,0.287166,-0.0805678,-0.0191978,0.261327,-0.156445,-0.182762,0.208155,-0.30892,0.0266247,0.00607295,-0.135754,0.162989,-0.25072,-0.246459,0.0308504,0.309,0.0171482,0.0236071,-0.0804722,0.241515,-0.120123,-0.135789,-0.308918,0.264074,-0.278346,0.146819,0.279783,-0.191409,-0.127336,-0.248818,0.0470918,0.251422,0.0532494,-0.139586,-0.1388,0.209129,-0.265396,-0.0916434,-0.0662723,0.259169,-0.20213,-0.0378503,-0.293239,-0.00020301,0.0228292,0.194795,0.226982,-0.0927684,-0.150214,-0.00412939,0.171376,-0.137988,0.00514369,-0.0547853,-0.0624234,0.229681,-0.0961369,
0.222244,-0.100413,0.176354,0.164707,-0.222268,-0.201513,-0.146179,0.127681,-0.000532956,-0.275001,-0.0524139,-0.302326,0.0139176,-0.0100181,0.247092,0.0214561,-0.291852,0.0613818,-0.0981566,0.274552,0.176793,-0.219725,-0.231599,-0.167181,-0.0402964,0.0128134,0.11797,-0.190648,0.169961,-0.0194741,-0.114278,0.290194,0.0314103,-0.0743888,0.231813,-0.207218,-0.285093,-0.263331,0.13966,-0.308026,-0.148411,0.112417,-0.064602,0.200905,0.285291,-0.0846784,-0.290788,0.0531849,0.226607,0.146029,0.279191,0.0902322,-0.13261,0.237162,0.114499,0.0561049,0.282322,0.048117,0.0232025,0.243275,0.228099,0.0530198,-0.0325078,0.250984,0.029038,0.0771032,-0.216234,0.112781,-0.264381,0.308131,-0.222586,-0.193514,0.0677484,-0.182087,0.225268,0.209061,-0.185615,-0.276711,-0.00172537,0.134561,0.255357,-0.116214,0.0414547,0.278316,0.164445,-0.103181,0.240959,-0.175686,0.200283,-0.133372,0.0362988,-0.162357,-0.165304,-0.100875,-0.0756147,-0.0844748,0.265979,-0.130004,0.0854368,0.109091,
-0.256762,0.134157,-0.175458,0.153532,-0.0142903,0.0487293,0.147137,-0.203072,0.220552,-0.291166,0.111507,-0.181959,0.0218885,-0.230517,-0.19489,0.077032,-0.194175,-0.101358,-0.197052,-0.288456,0.293264,-0.215712,-0.0367985,0.118127,-0.0774061,0.281456,0.206759,-0.272204,-0.224815,0.29334,-0.191884,-0.246086,-0.185661,0.0871362,0.203292,0.308664,0.0328935,0.0970902,-0.297679,0.144916,0.28877,-0.183839,0.0248872,-0.135529,0.302406,0.0450313,0.0758331,0.132108,-0.0661291,-0.148625,-0.082924,-0.0203213,-0.271903,0.284247,0.13581,0.093394,-0.215658,-0.303724,0.278878,-0.279764,0.0887557,0.0172687,-0.082796,-0.270581,0.0679362,0.0605796,0.263929,-0.248842,0.137129,0.109623,-0.146446,0.0309106,0.0159821,0.109771,-0.230878,-0.248979,0.117098,-0.0967268,-0.0813484,0.0886196,0.276671,-0.188815,0.259458,-0.131734,-0.247365,0.287525,0.198917,0.202658,0.0117735,0.0420571,-0.119757,0.10048,0.23564,0.11861,-0.211116,0.185133,0.0935663,-0.1702,-0.0259365,-0.104401,
0.141235,-0.306513,0.244926,0.197057,0.137984,0.0818218,-0.226586,0.28585,0.165066,-0.0202801,-0.12243,0.167858,0.119287,0.291627,-0.0356305,0.0981303,0.108901,0.159554,0.0368088,-0.227218,0.0679737,-0.229344,-0.0814702,-0.162108,-0.0903231,-0.0145455,-0.297295,0.28091,0.070173,-0.0718678,0.151109,-0.214255,0.117471,-0.018825,0.211109,0.156574,-0.242359,-0.137739,0.00828572,-0.110928,0.274823,0.0219587,-0.200144,0.0441662,0.103976,0.141346,-0.209868,-0.269081,-0.29915,0.0644406,0.108293,0.217537,-0.165009,-0.303646,-0.288754,0.0692089,0.127053,-0.0522972,0.0536996,-0.114894,-0.213666,-0.233788,0.242134,0.245414,0.154798,-0.230291,0.252915,0.02206,-0.103656,0.235389,-0.0893054,0.0670777,0.167267,-0.0587518,-0.243644,0.127166,-0.253799,-0.0364743,0.18422,-0.191808,0.122532,0.262883,0.130592,-0.0669452,0.0692488,-0.122067,-0.092282,-0.17679,0.128663,-0.267075,0.00230099,-0.137374,-0.0666312,0.290832,0.0681425,0.152771,0.0608459,0.189734,-0.0126258,0.305966,
-0.25933,-0.307838,-0.284994,0.166266,0.186712,0.295026,-0.145258,0.0439544,0.243522,0.123088,0.119235,0.0909994,0.145675,-0.0923386,0.198487,0.0483482,-0.195216,0.0410098,0.246163,-0.00688114,-0.2903,-0.244014,-0.109751,-0.260097,-0.0815959,-0.135323,-0.154141,-0.30039,-0.0440479,0.2243,-0.115033,0.00058049,0.135058,0.245299,0.145394,0.242581,-0.263232,-0.300048,0.252024,0.0341396,-0.107612,0.288714,-0.0187436,-0.00531199,-0.00546905,-0.0993313,-0.179499,-0.123026,-0.170546,0.166624,0.273051,0.121683,-0.230411,0.284153,-0.0410171,-0.0205603,0.094746,0.300425,0.299962,-0.146057,0.186778,-0.155696,-0.147297,0.0141503,-0.184025,0.181666,0.0595732,-0.227968,0.0157978,-0.125322,0.106409,0.240521,0.109622,0.129649,0.141556,0.0349009,0.236219,-0.21648,-0.0639934,0.0443856,0.141998,0.0974476,0.288385,0.24082,-0.00480495,-0.0603164,-0.0994029,-0.242218,-0.0253318,-0.0179541,0.0402636,-0.171019,0.284751,-0.0374529,-0.0913595,-0.276118,-0.0974102,-0.017365,0.203034,0.288289,
-0.00883177,0.0439381,-0.166637,-0.090425,-0.0623799,-0.283534,-0.0784871,0.243249,-0.151736,-0.118242,-0.179546,0.00124779,0.280746,-0.142796,-0.289923,-0.179598,-0.248583,-0.0747833,0.0725265,-0.225118,0.110898,0.282902,0.200991,-0.248098,0.0167153,-0.152339,0.0554058,0.0109879,0.254759,0.252657,0.102163,0.0494538,-0.192635,-0.0533187,-0.194811,-0.266997,-0.0511968,0.0206921,0.120523,0.211855,0.0218233,-0.264173,-0.231179,-0.0151533,-0.157563,-0.116343,0.225585,0.222628,-0.244268,-0.122232,-0.308104,-0.153296,0.0866452,0.0470707,0.150223,-0.105335,0.28476,0.259002,0.2758,-0.124441,0.153838,-0.00796071,-0.0695894,0.242857,0.0936175,0.0227376,-0.178267,0.0714175,0.155301,-0.0147628,0.0863599,-0.261333,0.21963,-0.123536,0.0566168,-0.2207,-0.254706,-0.0739769,0.144851,-0.3087,0.179355,-0.30701,-0.194162,-0.0848533,0.147706,0.168439,0.231031,0.118114,0.166263,0.296466,-0.11501,-0.0859474,0.289083,-0.276914,0.153443,-0.0773418,-0.0636375,-0.187836,-0.112268,-0.248059,
-0.219354,-0.241773,-0.191414,-0.26791,0.166837,0.0459517,-0.180037,0.089156,0.146533,0.134921,-0.111713,-0.22364,-0.20578,0.22283,0.0381741,-0.279196,0.083834,0.102699,0.154524,0.126236,0.173615,-0.0605546,0.0190634,0.105977,0.262194,-0.223098,0.0723991,-0.0783122,-0.225864,-0.255141,-0.0139082,0.11924,-0.273338,0.0506225,-0.0731247,0.121146,0.230602,-0.267444,-0.231552,0.275309,0.0474263,-0.0162645,-0.185585,0.285952,0.0097865,-0.0190731,-0.193228,0.207127,0.258065,0.0122636,0.145752,0.120843,-0.284781,-0.160205,0.256644,-0.227701,-0.137906,-0.155984,0.298321,-0.181419,0.232534,0.128345,0.0406952,0.148557,-0.0249222,0.235107,0.227546,-0.108042,-0.310143,-0.304755,0.183595,0.269932,-0.00511314,0.1642,-0.277828,-0.0598809,0.230116,0.0701715,-0.262642,0.254611,0.0498599,-0.0217518,0.240715,-0.0842486,0.202631,-0.249327,0.251471,-0.0411769,-0.254715,-0.0199083,0.28099,0.238502,-0.042658,0.175544,-0.188402,0.296921,-0.0544497,-0.226506,-0.100206,0.294147,
-0.0665687,-0.103595,0.240887,-0.0748684,0.115228,-0.278639,0.0222775,-0.277158,-0.192644,-0.270828,-0.245016,-0.138841,-0.172758,-0.0486702,-0.112273,-0.261364,-0.259308,-0.133311,-0.0505162,0.0727411,-0.0920284,0.271588,-0.162895,0.26388,-0.166244,-0.0792036,0.0422276,0.291835,-0.168314,-0.241587,0.247257,-0.201112,0.0193172,-0.030462,0.147565,-0.230603,-0.0792461,0.0183735,-0.0996776,0.308366,0.105022,0.122446,-0.214728,-0.0906532,-0.309374,0.285286,-0.242048,-0.0677271,0.135991,0.16365,-0.104758,0.143772,0.0896153,-0.101739,0.038718,0.0684491,-0.283308,-0.152,-0.307519,0.0215612,-0.281497,0.152994,-0.143861,-0.262107,0.284807,0.159676,0.0178416,0.0305237,0.0952199,-0.265778,0.291772,0.192772,-0.142521,0.259356,0.207861,-0.110236,-0.119879,0.185275,-0.064377,-0.0390258,-0.00839506,-0.192925,-0.280296,-0.0342206,-0.299504,0.295059,-0.251632,0.227354,-0.251046,0.232339,-0.169649,0.0531965,-0.0130062,0.261943,0.258773,-0.0878774,-0.303162,-0.119708,0.112543,0.145782,
0.149125,-0.226618,-0.0747574,0.0715962,-0.279057,0.182567,0.0989883,0.162386,-0.279724,-0.154479,-0.162051,-0.304735,0.225488,0.18555,-0.192686,0.000538159,-0.00322967,0.140718,0.0127185,-0.0315402,0.257952,0.118318,0.292499,0.269343,-0.0817841,0.261115,0.0170762,0.0850206,0.098114,-0.0376076,-0.0306839,0.247093,-0.274185,0.0194604,0.149767,-0.0658377,0.00446243,0.0612778,-0.0756929,0.134444,0.0341366,-0.031849,-0.174167,-0.120033,0.0588982,0.0198346,0.286366,0.113512,-0.303234,0.0463575,-0.163248,0.296708,0.284813,0.224393,0.0358937,-0.188581,0.00527428,-0.0393073,0.271788,0.249529,-0.0314947,0.241499,0.255438,0.138615,0.193275,0.0650639,-0.196324,0.0618124,0.0180567,-0.269549,-0.178795,0.242812,0.0832918,0.0785921,-0.214733,-0.0624939,-0.0514316,-0.107294,-0.0593963,0.034816,-0.00641612,0.0998706,0.188207,-0.260144,0.264925,-0.251386,-0.162806,0.0970472,0.143741,0.0624112,-0.0284338,0.259319,0.228781,0.138885,0.0313466,-0.307568,-0.281119,0.269427,0.0720499,-0.142444,
-0.241005,-0.110526,0.154636,-0.120492,-0.230756,0.259739,0.0692118,-0.256104,-0.200488,0.218848,0.0862545,-0.0233114,0.242791,0.143546,-0.274036,-0.265469,0.214291,-0.0339,0.222918,-0.136106,0.17629,0.0979309,0.0962754,0.14529,-0.0939985,-0.0757386,-0.141911,-0.293077,-0.130325,-0.105639,0.134346,0.199825,0.0642855,-0.140747,0.0959378,0.187874,0.0965052,-0.218485,-0.210152,0.25531,-0.166946,0.232756,0.280408,-0.276301,0.217764,0.257927,-0.132327,-0.281989,-0.180722,-0.0620298,0.125512,-0.175465,0.0254281,0.256564,0.243734,-0.224212,-0.199321,0.00256434,-0.188875,-0.22817,0.13065,-0.108872,0.286632,-0.0686449,-0.16779,0.115824,-0.0833803,-0.232097,0.153549,-0.142408,0.28785,-0.0858874,-0.136831,0.108543,-0.188586,0.100294,0.0470386,0.111823,0.213352,-0.267131,0.176496,0.0712767,-0.158357,0.00403635,0.271538,0.0525245,-0.12522,-0.206353,0.066242,0.275066,-0.149041,-0.0779907,-0.188885,-0.276747,0.0977964,-0.143346,0.0832099,-0.20934,0.0283355,-0.172139,
-0.0320661,-0.222855,0.272923,0.216537,-0.138043,0.280043,-0.133626,-0.0658696,0.0213084,0.0357702,0.226365,0.14768,-0.129109,0.240487,0.14599,-0.301382,-0.164967,0.0249082,0.178287,0.0689967,0.150293,-0.171338,-0.301674,-0.285404,0.106977,-0.0502879,-0.0124051,0.0613146,-0.0636046,-0.011491,-0.308278,0.0945468,0.208199,0.0600864,-0.0213472,0.150944,0.181764,-0.0434081,-0.275362,0.172704,0.122521,-0.149419,-0.16116,-0.10617,0.0402169,0.0966129,-0.308878,0.069052,0.115911,0.243991,0.150011,-0.289984,-0.244552,0.273723,0.0295384,0.236928,0.297505,0.230786,-0.0306746,-0.048574,-0.106112,0.280414,0.179855,-0.0147598,0.234195,0.0460592,-0.241207,-0.263365,-0.12413,-0.00327146,-0.132617,0.0013388,0.219929,-0.122273,0.00390664,-0.0387477,0.238186,-0.237796,-0.0299297,-0.097034,0.0355206,0.218508,0.124216,0.291208,-0.0801013,0.120646,-0.275731,-0.164335,-0.0659804,-0.114523,0.202785,-0.0804243,-0.0593471,0.158614,-0.162016,-0.140715,0.00560893,-0.209893,-0.253056,-0.0763403,
0.0145541,0.309202,-0.00484845,-0.0693688,-0.122429,0.174074,-0.207608,0.165147,0.0667083,-0.119112,0.300839,0.0969985,-0.165931,0.268981,-0.167579,0.00400835,0.214619,0.0452425,-0.0840514,0.0534617,-0.301242,-0.167032,-0.262197,-0.115027,0.240396,-0.291149,-0.236678,-0.19211,0.056617,0.0788059,0.00186861,0.308255,-0.276828,-0.20817,-0.283754,-0.15373,0.0700511,0.0750237,-0.0756899,0.298903,-0.1857,0.0388359,0.033517,-0.0958915,-0.13751,-0.00693345,0.181618,-0.217198,0.296413,0.155399,0.0243508,-0.078552,-0.264301,0.00896246,-0.0605008,-0.147783,0.250846,0.254685,0.24604,-0.151873,-0.107921,-0.0368975,-0.304066,-0.282406,-0.237347,0.0429222,-0.0347926,-0.0165744,-0.297721,8.39307e-005,-0.233286,-0.269165,-0.283131,-0.209709,-0.309009,0.0805678,-0.149211,0.103889,-0.15262,0.0301408,-0.0403658,-0.0385303,-0.292245,0.102013,0.225741,0.278801,-0.0751854,0.0122256,0.017773,-0.235928,0.0729459,0.155204,-0.295167,-0.114558,0.224997,-0.291607,0.0808674,0.0825789,0.087732,0.282678,
-0.0398123,-0.172987,-0.100245,-0.0363977,0.2743,-0.116035,-0.217172,-0.198567,0.221204,0.131467,0.102051,0.0975598,0.0152013,0.130201,0.179592,-0.0597309,-0.268729,0.172259,0.0879412,0.0577091,0.2729,0.163093,0.122378,-0.265368,-0.0184341,0.272668,0.101559,-0.244348,-0.128515,0.143907,0.2994,-0.0990586,0.190275,0.205089,-0.183757,0.0277968,0.228556,0.214306,-0.000457418,-0.187801,-0.158853,-0.16396,-0.307386,-0.0658334,0.0303061,0.24039,0.254309,0.0841632,0.292321,-0.223913,0.0476955,0.0787471,-0.185349,-0.24177,-0.242936,0.158567,0.143902,0.0419269,-0.207474,0.237953,0.134922,-0.274053,0.0392079,-0.0643467,-0.285748,0.0542801,0.215439,0.292396,0.0752493,-0.162913,0.195101,-0.223698,-0.0863251,-0.268711,-0.11442,-0.0701415,-0.0121954,-0.296476,-0.106102,-0.0474244,-0.0302263,0.127507,0.169275,-0.177828,0.234963,-0.0683778,-0.280818,-0.182088,0.24387,-0.259451,0.237253,0.0789321,0.128144,0.0120209,-0.0749528,-0.163911,0.003775,-0.164793,0.0102234,0.194559,
-0.101327,-0.305995,0.308117,-0.296032,0.274028,-0.00255773,0.180266,0.16752,-0.0741332,-0.188706,-0.0828097,0.20039,0.132716,-0.215784,0.0581752,0.0964094,-0.140821,-0.0789831,0.0647539,0.155843,-0.109596,0.0906869,-0.149534,-0.00121118,-0.27329,-0.309609,0.0336914,0.193191,-0.052866,0.0448811,-0.215807,0.178725,-0.180776,0.0769802,0.0641922,-0.108952,-0.180647,0.23075,-0.0833135,-0.0179661,0.190055,-0.0767138,0.0849603,0.0112073,-0.0861277,-0.0405331,-0.0608121,0.101011,-0.279707,0.111462,0.183764,-0.100173,-0.134414,0.279467,0.309399,-0.161663,-0.0590794,-0.197446,0.217445,-0.247848,-0.263117,-0.13435,-0.157677,-0.0305629,-0.139288,0.0380447,0.207627,0.215773,0.0201659,0.226834,-0.176516,0.309487,-0.222465,-0.0358659,0.129365,0.160814,0.0784846,0.13191,-0.0775708,-0.273912,-0.206696,-0.190492,0.228052,0.274876,-0.0791244,-0.0476314,0.0569589,0.147875,-0.0809234,0.284799,0.0695268,0.0602311,0.245903,0.0796876,0.227118,0.223134,-0.242605,-0.172703,-0.04208,-0.22386,
-0.150217,0.0705162,-0.0418731,0.0641655,-0.24103,0.122642,0.0699772,-0.166095,0.161656,-0.187456,0.0555677,0.255563,0.159168,0.100788,-0.213541,0.212322,0.0432586,-0.301812,0.24869,-0.165981,0.193699,0.159484,-0.032001,-0.247124,0.03644,0.144739,0.266402,-0.11344,-0.00211976,-0.202442,0.130413,-0.195279,0.0723567,0.199322,0.290922,-0.0343307,0.130085,0.151398,0.175596,-0.012456,-0.308739,0.191935,0.0976448,-0.259379,0.0589583,0.0736865,-0.0222151,0.282551,0.136272,0.218319,-0.176212,0.16791,0.191259,-0.111458,0.285003,-0.0249241,0.0640727,0.00425369,0.147991,0.0506767,0.238973,0.182234,-0.073029,-0.0400602,0.059543,-0.271445,-0.0545957,-0.150459,0.128446,-0.310384,0.174263,-0.196837,-0.162469,-0.0797736,0.182919,0.0630736,-0.130423,-0.0310936,0.05943,-0.308605,0.0162587,-0.112931,-0.0867442,-0.179654,0.310132,-0.1048,-0.18854,0.241049,0.0970972,0.145722,-0.23138,0.156824,-0.115788,0.198085,0.0432367,-0.096485,0.172801,-0.013376,-0.076724,-0.122503,
-0.0806011,-0.136551,-0.136932,-0.280604,-0.297463,-0.128748,-0.119775,0.245181,-0.00482684,0.187413,-0.247839,-0.215059,-0.0295919,0.208979,-0.00214468,0.0480059,-0.00723008,0.0243302,0.110912,-0.231908,0.0596836,0.140604,-0.020622,0.0279753,-0.0459189,0.227787,0.0925482,0.0992624,0.173242,-0.143006,0.0784025,-0.0823667,-0.0431176,0.015719,0.0628966,-0.0918775,-0.2254,0.103154,0.027971,-0.229712,-0.224572,-0.183648,0.0660968,-0.220108,0.109624,-0.00761102,-0.130007,0.149152,0.216479,-0.162453,-0.176961,-0.22176,-0.218707,0.0414626,0.0913371,0.135369,-0.0291642,0.270083,-0.176991,0.299587,-0.286582,-0.182381,-0.294318,0.0778061,-0.205822,-0.249642,-0.205864,-0.168707,0.0439481,-0.275756,-0.301523,-0.117563,-0.0837324,-0.0412108,0.18722,-0.2649,0.256919,-0.0317638,-0.0747893,-0.0898502,-0.277698,0.100846,-0.202793,-0.119606,0.00830979,-0.0816383,0.0809402,-0.258342,0.15678,-0.111382,0.0577049,0.0305013,0.202813,-0.191822,-0.277747,0.145435,-0.124182,0.212956,-0.0165736,0.125384,
0.0764881,0.22386,-0.214476,-0.122308,-0.30846,-0.0220252,-0.00301261,0.293855,0.0787163,-0.000641996,0.274936,0.155112,0.0153008,0.170705,0.239019,-0.259034,0.103618,0.125067,-0.177077,-0.132018,0.146326,-0.254852,0.00937821,0.214698,0.0277469,0.186248,0.308902,0.103012,0.179993,0.23251,0.105311,0.28568,0.299286,-0.268863,-0.265114,0.0337982,0.209239,0.198731,-0.08536,0.124449,-0.18832,-0.274646,-0.160303,0.106371,-0.0213508,-0.305069,-0.0651492,-0.00499768,0.307447,0.0477285,-0.0897037,0.17956,-0.162015,-0.276609,0.279718,0.0348409,0.0836326,-0.163546,-0.0928425,-0.27151,0.14401,0.254492,0.0523103,0.273965,0.132763,-0.214353,0.130691,0.0386667,-0.140976,-0.18771,-0.247894,0.0852005,0.0199374,0.153049,-0.0597737,-0.13275,-0.135963,0.101277,-0.254256,-0.0517061,-0.257406,-0.271614,0.0960042,0.110853,0.0390438,0.0548853,-0.0436635,0.234236,-0.155625,-0.0851257,-0.123916,0.202352,-0.236314,-0.0734625,0.0403704,0.177076,0.295932,0.0281883,-0.119326,-0.171097,
0.188588,-0.196887,0.246525,-0.196622,-0.118225,0.0249062,0.0363887,0.053883,-0.043671,-0.131383,-0.119119,-0.132847,-0.233475,-0.138831,-0.171612,0.10957,0.288823,-0.0642197,-0.203842,0.0743399,-0.166384,0.295919,-0.258147,0.0719836,-0.167776,-0.275942,0.00192091,-0.00646143,0.190688,-0.130979,0.239442,-0.118453,-0.143049,0.291592,0.077835,-0.197063,-0.0962273,0.253186,0.269021,-0.239386,0.29214,-0.0262681,0.12137,0.173597,0.206139,-0.265694,-0.0894653,-0.233423,0.0437628,-0.283698,-0.173708,0.295962,0.18135,-0.230102,-0.228085,0.244251,0.250502,0.205409,-0.0614689,-0.282089,-0.0345512,-0.159507,0.181766,0.0656868,0.0347775,0.0765985,0.1836,-0.129714,0.114375,-0.00977192,0.0270114,0.263839,-0.158328,-0.114763,0.225978,-0.266266,0.185432,-0.103454,0.0873013,0.310078,0.0248258,0.216483,0.1994,-0.0220533,0.13246,-0.212863,-0.291977,0.299993,-0.1658,0.149376,0.0480939,0.00661711,-0.141718,-0.146599,-0.0381482,-0.23607,-0.181753,-0.10009,0.10225,-0.194843,
-0.033046,-0.0254693,0.257637,0.209738,0.0715097,0.103765,0.281007,-0.247738,0.286732,-0.232239,0.0111632,-0.162284,0.0605192,0.272699,-0.232843,-0.144113,0.172797,-0.0836777,-0.239194,0.18228,0.0911356,-0.11379,-0.154177,-0.205379,0.282292,0.0476709,-0.206461,0.181662,-0.0356406,-0.128568,0.234189,0.0254295,0.152985,-0.131119,-0.0536104,-0.00524434,-0.159048,-0.0206406,0.208037,-0.205346,-0.0711126,-0.101311,0.00131724,0.195443,-0.14075,0.246244,0.143428,-0.259342,0.284798,0.0572525,-0.00333527,-0.181684,0.274749,0.282855,-0.103307,-0.232332,-0.230582,-0.0920397,-0.204511,-0.0132707,-0.226103,0.128434,-0.205118,0.00762605,0.116696,-0.153113,-0.0464019,-0.146417,-0.231679,0.215894,-0.177523,0.208492,-0.148109,-0.308304,0.178996,-0.218808,-0.148032,-0.00659411,0.257521,0.136225,-0.00137807,0.155525,-0.289418,0.21961,-0.00993265,0.22955,-0.0766634,-0.235743,-0.0587209,0.117372,-0.209846,0.0394123,-0.164346,-0.162037,-0.130131,-0.148856,-0.0338032,0.203316,0.169689,0.227867,
-0.207117,0.0509176,0.26986,0.0813684,-0.30485,0.281396,0.181511,0.0743725,-0.237479,0.110049,0.273776,-0.0884174,0.00320077,0.301344,0.0538021,-0.261703,-0.00244704,0.29097,-0.0638371,-0.0186664,-0.0834623,-0.10398,0.209389,-0.0159132,-0.0114962,0.0116988,-0.159957,0.0438835,-0.177023,0.074655,-0.28937,-0.257027,-0.0788512,-0.214113,-0.0203351,-0.183797,-0.209976,-0.030926,0.259551,0.0669234,0.0829161,-0.145957,-0.153022,-0.210357,0.138276,0.251235,0.263796,0.238351,-0.0614205,0.249392,0.225708,-0.0540974,0.140214,0.24597,-0.196154,0.100357,-0.0509357,-0.0454334,-0.174808,-0.275584,0.208004,-0.176557,-0.0548465,0.181382,0.210408,-0.219291,-0.00923056,0.00658372,0.0508425,-0.0804919,0.138155,0.2623,0.108463,0.18749,0.117009,-0.221209,-0.0768841,-0.281035,-0.12411,-0.191581,-0.301707,-0.177574,0.239285,-0.0897534,0.057793,-0.00103703,-0.207045,-0.076033,0.101464,0.0540577,-0.0826268,0.168637,-0.150407,-0.0500124,0.08815,-0.254524,-0.0802101,0.152462,-0.308327,-0.097274,
0.237617,0.308781,-0.0454627,0.278579,-0.11325,-0.230187,0.000173932,0.109067,0.0534437,-0.281887,0.227328,-0.228158,-0.0525522,-0.218655,-0.230195,-0.228768,0.219827,0.0628959,-0.274638,-0.213125,-0.251111,0.0724234,-0.0118073,0.10127,-0.204242,0.175482,-0.231958,-0.049766,0.189127,-0.195477,-0.243675,-0.272746,-0.179764,0.275593,-0.060371,0.0641346,0.196544,-0.286778,-0.0065519,0.229542,-0.0180027,-0.298341,0.193676,0.298999,-0.0542564,-0.086012,0.215784,-0.283096,-0.298383,-0.240814,0.262029,0.307324,0.0846582,-0.263208,0.270796,-0.198505,-0.214524,0.204385,0.0047786,-0.182437,-0.0531026,0.177713,-0.270038,-0.0770375,-0.246703,-0.175264,0.112815,-0.0688776,0.188958,0.239588,0.161022,-0.110305,0.282109,-0.000842249,0.308387,0.243038,0.173794,-0.2817,0.0681608,0.164916,-0.0628841,0.222636,-0.255429,-0.293745,0.107494,-0.143108,0.230798,0.179869,-0.300044,-0.286487,-0.105778,0.229929,0.0641323,-0.223244,0.274218,-0.241504,-0.0183043,0.101262,-0.251053,0.205483,
-0.183279,-0.200029,-0.209958,-0.0429532,-0.226674,0.0717535,-0.035196,-0.0435671,-0.255736,-0.295955,-0.0261914,0.116741,-0.173096,-0.1381,-0.156939,-0.0544639,-0.164447,-0.121635,-0.226031,0.197193,0.271175,-0.301399,-0.195862,-0.240654,0.203786,-0.106696,0.0283298,-0.202112,-0.162068,-0.057776,-0.295531,-0.304392,-0.129406,-0.20801,-0.0549961,-0.23804,-0.291903,-0.0175668,0.00998058,0.191325,0.251999,-0.200382,-0.174897,-0.222512,0.0532709,0.0772922,-0.255799,0.293861,0.166947,0.000567313,-0.193052,0.179858,-0.100049,-0.241376,0.231226,-0.156494,-0.223496,-0.128568,-0.108761,0.120966,0.233327,0.118396,-0.235992,-0.102306,-0.0691259,-0.206256,-0.220398,-0.0728338,0.246048,0.0931298,-0.309533,0.0154438,0.126533,-0.0966473,0.285197,0.138031,-0.263457,-0.0475814,-0.257038,-0.00489847,0.0970016,0.133539,0.204791,-0.301064,-0.127333,-0.106017,0.307542,0.111228,-0.197113,0.279632,0.0885662,-0.287444,-0.213086,-0.0805143,0.0794165,-0.00694949,0.172749,0.00343399,-0.0844589,0.0855449,
0.154745,-0.283768,0.178999,-0.0802067,0.0730082,0.153893,0.234744,-0.0754169,0.216136,-0.236186,0.095376,-0.275279,0.149459,-0.175902,0.0659046,0.0831862,-0.0906274,0.0510613,-0.235696,0.0790331,0.0184714,0.157686,0.146252,0.102292,-0.197225,-0.0862897,-0.0348216,0.169591,-0.0824978,-0.0869898,-0.24549,0.182861,-0.0845203,0.0209677,0.231175,0.277495,0.0927612,0.26279,0.299759,-0.303748,0.232814,0.122795,-0.27601,-0.0342809,0.241219,-0.301543,-0.299091,-0.01211,-0.214363,-0.0424321,-0.0140093,-0.272296,0.26837,-0.267061,-0.0523958,0.258626,0.21943,0.102988,-0.0256396,-0.0751257,0.014864,0.0891867,-0.29464,-0.210984,0.032448,0.280504,-0.279451,0.262098,0.20619,-0.0514939,-0.168571,-0.307193,-0.277412,0.0432491,-0.225518,0.194064,-0.209846,-0.237238,0.136998,0.286246,0.136173,-0.169525,-0.276493,-0.162184,0.123174,0.0323906,-0.294684,-0.161051,-0.273834,0.0546796,-0.280324,-0.0940157,0.285673,-0.08715,0.163615,-0.270891,0.135196,-0.18502,0.13954,-0.238856,
0.197888,0.143348,-0.0605152,0.190676,0.284831,0.0478723,0.218937,0.0657258,0.300173,0.182825,0.267674,-0.0624033,-0.090494,0.183182,0.0481882,0.278736,-0.176415,-0.211068,0.306626,0.177211,-0.19827,-0.127437,0.0617027,-0.236971,-0.0397069,-0.16327,-0.261826,0.137583,-0.280842,0.309303,0.237757,0.0890179,-0.301295,0.217009,-0.138588,-0.0265737,0.105616,0.146897,0.0238762,0.151692,-0.114518,0.237866,-0.217533,-0.0316431,-0.209609,-0.00412964,-0.122617,-0.21714,0.291758,0.0765172,0.129799,-0.0828601,-0.0571936,-0.165179,-0.0665654,0.12698,-0.0725924,-0.140846,-0.267304,0.215563,-0.198538,0.122408,-0.170606,-0.0848913,0.0317141,-0.267274,0.114977,-0.0742125,-0.134684,-0.277798,0.269331,-0.0954112,0.216901,-0.302357,0.116996,0.164835,0.301532,0.246607,0.231203,0.28437,-0.00747981,-0.111422,0.272939,-0.101037,0.0845004,-0.174287,-0.0114599,0.263428,0.0281017,0.253763,0.284548,-0.00108368,-0.229937,-0.101758,0.0832701,-0.143207,-0.147651,-0.0632102,-0.119789,0.177627,
-0.139521,-0.171352,-0.221543,0.251351,-0.00254519,0.272557,-0.165173,-0.107003,-0.264665,-0.028745,0.230177,0.204974,0.206239,0.0619774,-0.195968,0.305928,0.0974162,-0.281424,-0.0408505,0.145982,0.236957,0.205387,-0.222812,-0.244869,0.0371601,-0.214414,0.154625,0.137401,0.191452,0.0811509,-0.148215,-0.258733,-0.0767167,-0.0713104,0.232505,0.00258684,0.240052,-0.200466,0.0900664,0.15963,0.235005,-0.0833397,0.137936,0.26526,0.0164535,0.0618438,-0.194169,0.233602,-0.0584183,0.0367698,0.054,-0.282402,-0.198093,-0.0394616,-0.130173,-0.1146,-0.181033,0.0559321,0.268797,0.266667,0.115059,-0.169655,-0.148078,0.130494,-0.175265,-0.175141,0.105354,0.216881,0.0856148,-0.225589,-0.258856,0.18877,-0.0429276,-0.0439118,0.0124745,-0.224597,-0.187911,-0.256632,-0.0914415,-0.280834,-0.234889,-0.163547,-0.107641,0.219336,0.264126,0.119529,-0.159866,-0.27327,-0.166685,0.150691,-0.0386747,-0.250398,0.170295,-0.26335,-0.0555814,-0.292261,0.297576,0.242547,0.119729,-0.16022,
0.25637,0.292638,0.223036,-0.0431685,-0.29578,0.281113,-0.226934,0.0516426,0.231645,-0.17596,0.236197,0.170966,-0.0877007,0.0356847,0.24901,0.0980995,0.160525,0.283058,0.138204,0.0534671,0.183268,-0.148772,0.147515,0.304568,0.176023,-0.29846,-0.149019,0.109553,-0.290344,0.093065,-0.0436818,0.130605,0.30795,-0.0762505,-0.193124,0.302095,0.156932,0.231219,-0.184404,-0.229192,0.122452,-0.056071,-0.106052,0.0947082,0.0447144,-0.162843,0.289359,0.0634507,-0.0604413,0.177184,0.109103,0.189228,0.0458827,-0.226443,-0.148583,-0.0307991,0.274208,0.148975,0.272668,0.293297,0.191487,0.141003,0.138605,-0.118738,0.0875837,0.178654,-0.155998,0.0283272,-0.204241,-0.29861,-0.0102708,-0.231647,-0.111586,-0.0846371,-0.239938,0.229353,0.249385,0.297488,0.273989,-0.246656,0.24479,-0.262083,0.268462,0.290396,-0.249659,-0.146338,-0.0174222,-0.309544,0.103417,-0.0819665,0.0914842,0.00409746,-0.223298,0.158886,-0.127362,0.0796633,0.290513,0.102255,0.159534,-0.0953478,
-0.221545,0.230626,-0.0481607,0.0772136,0.0230734,0.155727,-0.282179,-0.201882,-0.109643,0.271165,-0.296042,0.217053,0.0123939,0.212325,-0.262664,0.1257,-0.00284895,-0.0563435,-0.0839562,-0.0395312,-0.00228964,-0.156352,-0.151783,0.257218,-0.194185,0.145233,-0.285773,-0.171463,-0.08077,0.307259,0.00222586,0.0873679,-0.0181425,-0.209379,-0.290702,0.223286,0.23815,-0.179136,0.299948,0.14597,0.280532,-0.0964793,-0.170547,-0.0951253,0.0433362,-0.266352,-0.220423,0.293283,0.22012,-0.0718229,0.054421,0.150303,-0.140769,0.0513344,-0.217041,0.14188,0.273772,0.0580838,-0.279021,-0.248442,0.116229,-0.119718,-0.106198,0.12048,0.304768,-0.170632,0.307321,-0.139534,0.114123,0.00940533,0.238239,-0.156692,0.0245694,0.140091,-0.212499,-0.174166,-0.304051,0.0393721,-0.238498,0.0367006,-0.265572,-0.0732744,0.254979,-0.237527,-0.242333,0.260897,0.172893,0.0319599,-0.244005,0.197991,-0.140196,-0.238851,-0.0128756,0.019045,-0.191865,0.153288,0.168825,0.117966,0.0813086,-0.14303,
-0.197945,0.235789,-0.0588786,0.0410563,-0.234857,-0.154605,-0.139546,0.215123,0.142181,-0.0293779,-0.21701,0.0793931,-0.133241,0.26772,0.0899923,0.0317128,-0.0521646,-0.108635,0.0432673,0.183857,-0.279245,-0.140698,-0.101947,-0.027275,0.244627,0.180516,-0.278645,0.294524,-0.215275,0.00877625,-0.242332,-0.301411,0.297441,-0.0988546,-0.0775599,0.238054,-0.204739,0.213051,-0.163479,-0.187552,-0.0815557,0.11873,0.100469,0.247962,-0.0698566,-0.234228,0.301241,-0.293187,-0.207502,-0.264344,0.042771,0.18951,-0.142541,0.16111,-0.167925,-0.00784712,-0.0879561,-0.025814,-0.132765,-0.180128,-0.100533,0.299375,-0.159856,0.302758,0.0627573,-0.0855426,0.152982,-0.276956,0.232639,-0.263031,-0.0685093,0.2985,-0.222579,0.0323868,0.131826,-0.0461672,-0.148119,0.158837,-0.131296,0.229378,0.234546,-0.242613,-0.0540192,0.258081,0.297071,0.248637,0.298178,-0.300246,0.104138,0.103852,-0.210771,0.271301,-0.129129,0.0847006,-0.112351,-0.227547,-0.0478914,0.22193,-0.203794,-0.0965793,
0.29943,-0.171533,-0.304743,0.220181,-0.217081,0.12392,-0.245469,0.0140626,0.00113978,-0.241304,0.237597,0.0704247,0.0246794,-0.238642,0.24188,-0.189024,0.285678,0.164289,0.306788,0.162801,0.173701,0.183271,0.191694,0.308311,0.034822,-0.146793,0.254468,0.209557,-0.297479,0.268882,-0.0389915,-0.0450132,-0.123621,0.165628,-0.189255,-0.233313,-0.211755,-0.043714,-0.142607,0.308208,-0.135649,0.272034,0.0817045,-0.28348,-0.253543,0.279727,0.247046,-0.228258,0.0495016,-0.245063,0.010069,0.141708,-0.0167543,0.24039,-0.295291,-0.175724,-0.295755,-0.0853851,0.263206,0.255804,0.0402376,-0.0830041,-0.197924,0.294665,0.00816781,0.120897,0.145258,-0.233291,0.161361,0.172238,-0.006885,0.171834,-0.184102,0.0333387,0.038586,-0.130977,0.0630359,0.0604451,0.111319,-0.0136241,0.0803249,0.295035,0.271533,-0.151065,0.103421,0.17037,-0.181603,-0.224913,-0.00414936,0.030643,0.226299,0.248134,-0.08336,0.0704325,0.0790814,0.221143,-0.282363,-0.165426,0.282413,-0.209524,
0.0978433,0.209567,0.0928608,0.304295,-0.118735,0.282452,0.0521669,-0.0735441,-0.283677,0.0879513,-0.146773,0.264114,0.0956008,-0.238841,-0.21031,0.152663,0.128967,0.307833,0.0415266,-0.115665,0.148188,-0.023819,0.0172153,0.064252,0.15577,-0.189179,-0.0719177,-0.0644566,-0.242251,0.217294,-0.263866,0.307837,0.153825,-0.0740696,-0.157844,-0.128548,0.16036,-0.0208852,-0.040798,0.0171958,-0.283382,-0.00686351,-0.29131,0.0909511,0.0602072,0.235509,-0.075042,0.167053,0.232093,-0.106542,-0.242752,-0.211638,0.0184142,0.102989,-0.267004,0.226911,-0.287504,0.119182,-0.0782437,0.202642,0.309726,0.0943747,-0.23811,0.240913,-0.143307,0.108564,-0.274541,-0.142555,0.231096,0.289833,-0.111712,-0.0115641,0.211836,0.0186287,0.196934,-0.121259,-0.0606682,-0.0110192,-0.20237,0.275158,0.183502,0.249176,0.30644,-0.0553939,0.180434,0.247465,0.100518,-0.281041,0.00230175,0.0225935,0.0958939,0.0963881,-0.0169661,-0.230741,-0.139934,0.118396,0.0471578,-0.208992,-0.172376,0.0967471,
-0.25377,0.0478376,0.288769,0.301741,0.294975,-0.035539,0.235009,-0.0139982,0.154461,-0.306637,-0.263071,-0.0573097,0.0250712,-0.285739,-0.105693,-0.151947,0.00979692,-0.0605681,-0.0693774,0.225972,-0.174458,-0.118159,-0.189357,-0.200483,-0.280365,-0.0257281,-0.0868197,-0.018687,-0.0431562,-0.114559,0.163906,-0.232855,-0.253649,-0.158746,0.191101,-0.295216,-0.293929,-0.0562087,-0.0291331,0.0878697,-0.166167,0.218713,0.109985,-0.00292224,0.103722,-0.149181,-0.132152,-0.134529,0.171019,-0.305284,0.119827,-0.28244,0.0776562,0.0204433,-0.102343,0.224998,0.114224,0.256559,-0.19813,0.0777515,0.293157,-0.0779655,0.272455,-0.0430137,0.181584,0.121362,-0.144831,-0.0853019,-0.28658,-0.230594,0.294484,-0.0294423,0.299456,-0.154997,-0.0434533,-0.153388,0.0782822,0.10049,-0.174676,-0.148084,0.188893,-0.109291,0.0842286,0.0126702,0.137993,-0.294424,-0.154683,0.129825,-0.0673795,0.264433,-0.247311,-0.251805,-0.097779,0.158339,-0.204479,0.171677,-0.0636868,-0.188526,0.232052,0.184889,
0.0920454,0.19899,-0.183307,0.0667198,0.0965356,-0.254566,-0.18931,0.126815,-0.146014,-0.254125,-0.249152,-0.230868,0.0820247,-0.075609,0.252461,0.205042,-0.0327118,-0.0650887,-0.0540205,-0.0282057,-0.126781,0.176719,-0.236955,0.0104502,-0.261,0.16327,0.0873709,-0.126022,-0.149457,-0.126877,0.0282769,0.13817,-0.173259,0.166135,0.0130535,-0.0407358,0.128671,0.0480829,0.116845,0.0198287,0.272878,0.289483,-0.121662,-0.0877327,0.0998079,0.301939,0.121643,0.297865,-0.222447,-0.183274,0.162085,-0.282748,0.124573,0.0829299,-0.00330585,0.180721,0.0251694,-0.160936,0.0837981,-0.0539917,-0.230004,-0.159832,0.145762,0.110137,0.267195,-0.154145,-0.292657,-0.0744378,0.284553,-0.0131289,-0.229799,0.109763,-0.155808,-0.210358,-0.0516298,0.0932004,-0.0858634,-0.0368962,-0.0136614,-0.299579,-0.065456,-0.137393,-0.289693,-0.0876876,-0.115638,0.0405133,0.130071,0.0364623,-0.0281031,-0.00892886,-0.286306,0.176962,-0.183503,-0.0752601,-0.132693,-0.193842,0.0626634,-0.179798,-0.0810821,0.0752265,
-0.0366779,-0.25376,-0.195407,-0.0442559,0.275564,0.0490922,0.0464853,-0.0278554,-0.0542626,-0.047797,0.000665538,0.180567,-0.192425,-0.144718,0.0419711,-0.101757,-0.209439,0.243257,0.0362516,0.00233173,-0.0516764,0.192902,-0.10171,0.0678127,-0.0144523,0.256951,-0.0966482,-0.075652,0.281589,-0.101574,-0.21879,0.0595424,0.117587,0.0206026,0.264886,-0.169478,-0.291668,-0.219892,0.0469923,0.0349188,-0.14391,0.299269,-0.27199,0.304335,0.158074,0.0224744,0.196867,-0.128657,-0.307825,0.12502,-0.184121,-0.192807,0.190121,-0.294914,-0.259207,0.189388,0.0646626,0.0509618,-0.0852139,0.00463324,0.171721,0.0914962,-0.0974369,-0.242076,0.288793,0.226914,-0.159455,-0.0358313,-0.18792,0.0839153,-0.0816166,0.206111,0.064545,-0.230331,-0.0440055,0.297281,-0.0114104,0.309346,0.283005,0.107005,0.183044,-0.111502,0.0589232,-0.0193647,-0.0420975,-0.0348013,0.0367152,0.257222,0.264684,-0.0112996,0.0439825,-0.227029,-0.238928,0.0203092,-0.269473,0.251933,-0.187139,0.0801279,-0.186938,0.150994,
0.296424,0.177876,-0.246226,0.266568,0.206835,0.110413,0.135175,0.248683,0.0565792,0.104787,0.261604,0.0278035,0.277138,-0.0817312,0.273506,-0.0208076,0.259949,0.250794,-0.143988,-0.28871,0.274315,-0.23863,-0.271043,-0.0114825,0.018152,-0.23664,-0.0356352,0.168235,-0.0708671,-0.122904,0.0392474,0.163979,-0.10464,-0.283438,0.102795,-0.079896,0.22539,-0.122123,-0.165904,0.169437,0.00864792,-0.272981,-0.0805024,0.219382,-0.301755,0.0327553,-0.0971331,-0.0632891,-0.208803,0.0128997,-0.120679,-0.0845667,-0.226061,-0.0635828,-0.177668,0.296101,-0.285227,-0.102219,-0.124812,0.136092,-0.0944106,0.257499,0.0865236,-0.0620091,0.00616344,0.256828,-0.288091,0.199516,-0.123202,-0.202026,-0.130134,0.271561,0.149868,0.241691,0.27145,0.214613,-0.172937,-0.235159,-0.206571,0.131887,0.0343502,0.0520099,0.197357,-0.0201137,-0.0880292,0.0399956,-0.0369783,-0.239311,0.241712,-0.120013,0.0305624,-0.21035,-0.0375289,0.303638,-0.156675,-0.266645,-0.295613,-0.00591659,0.0599491,-0.0733924,
0.153578,-0.284675,-0.00544045,0.117008,-0.117104,-0.251581,0.247665,0.30437,0.0591519,0.233724,0.0609931,-0.282427,0.236447,0.105797,-0.194247,-0.08628,0.0332681,-0.0489811,0.0711636,0.0287908,-0.0790555,-0.251559,-0.051943,-0.0359231,0.228419,-0.093277,0.141143,-0.243375,-0.183477,-0.149424,-0.0842604,0.236598,0.0190689,-0.216175,0.246181,-0.00799604,0.266463,-0.111063,-0.136124,-0.122636,0.0617541,-0.163766,-0.0376658,-0.16307,0.156893,-0.214634,0.0894523,0.282132,0.279328,0.0831702,-0.273045,0.309501,-0.0340153,0.290089,-0.139482,0.235013,0.189034,-0.0793042,0.266833,0.098364,0.137386,0.298084,0.280953,0.0750588,0.234262,-0.0344163,-0.204825,0.206148,-0.20644,-0.0680989,-0.124482,0.0440953,0.130328,-0.240526,-0.242994,0.0481773,0.0268082,0.292725,0.127928,0.0950931,-0.0250535,-0.273065,-0.0665222,0.197335,-0.125058,0.229357,0.0209432,-0.296783,0.232427,-0.0673167,0.0041915,-0.148933,-0.226706,0.205538,0.0483629,0.162304,-0.210027,0.0836991,-0.0335924,0.0438697,
0.0723158,0.241413,-0.0448024,-0.286099,-0.254768,-0.260296,-0.231306,-0.0956237,0.295454,0.119267,0.0245434,0.235647,-0.193333,0.0986724,0.197624,-0.257099,-0.0873734,-0.0105261,-0.280975,-0.223055,-0.0548691,-0.308232,0.0810463,-0.125584,-0.19433,0.0838663,-0.270627,-0.121604,0.083983,0.0534222,-0.147319,-0.0097022,0.0815322,0.032371,0.131883,-0.192234,0.206298,0.234046,-0.200139,-0.0249833,0.162982,0.231159,0.255242,0.106311,0.267388,-0.271741,-0.13733,-0.0308911,-0.267472,0.126518,0.218441,-0.274713,0.0925568,0.0103351,-0.16225,0.131951,0.158331,-0.235335,-0.0522512,0.0292885,-0.109106,0.121125,-0.0499317,0.144169,0.158806,0.220348,-0.151778,-0.164493,0.128083,0.197433,0.201416,-0.149188,-0.164362,-0.238005,-0.184515,-0.0727848,-0.262968,-0.20444,0.060338,0.0795255,0.0302253,-0.0134482,0.111303,0.149374,-0.0991948,0.0324586,0.178533,0.0116567,-0.308641,0.0812396,-0.0298533,0.191109,-0.250252,-0.130192,-0.277239,-0.0270543,0.160854,0.289844,-0.287491,0.0710632,
0.0442523,0.211734,-0.252147,0.241658,-0.218364,-0.050357,-0.0136357,0.236666,0.251262,-0.0784127,0.145846,0.272222,0.276408,0.236702,-0.280773,-0.0188348,0.0363802,0.232557,0.185251,-0.253789,0.0660471,0.0598104,0.186557,-0.267852,-0.163039,0.0612424,-0.0786337,0.0179566,0.226465,-0.167922,0.288992,0.00921183,0.0533576,0.130226,0.266236,0.296022,0.123155,-0.0611265,0.0710592,-0.119683,-0.161563,0.0279874,0.200525,0.119358,0.0796782,-0.267932,-0.0669014,-0.0617861,0.249577,0.272797,-0.151732,-0.224626,0.116897,-0.207032,-0.070744,0.266076,-0.000500653,0.120919,0.261782,-0.205663,0.0833361,-0.140147,-0.275003,0.042384,0.189862,0.299912,-0.200098,0.210157,0.124622,-0.134037,-0.0283045,0.0225896,-0.14249,0.186372,0.0934859,-0.023212,-0.226,0.0176621,-0.0227109,-0.104109,0.00844472,-0.207477,0.11555,0.0794771,0.119754,0.18949,-0.00582398,-0.164777,0.294591,0.298681,0.0437469,-0.0828071,0.274109,0.149275,0.247622,0.0754872,-0.173498,-0.0886793,0.00627043,0.0752938,
0.0267668,0.0770923,-0.286809,0.161754,-0.104773,0.295133,0.166816,0.295701,0.173653,-0.125645,-0.276374,0.272225,-0.300861,-0.215628,-0.221239,-0.230159,-0.253583,-0.194417,0.279604,-0.0550872,-0.214913,0.119695,-0.122991,-0.0617945,-0.13957,-0.14428,-0.118376,-0.110572,0.286491,0.17011,0.132889,0.282521,0.152954,0.15591,0.13962,0.216146,-0.29127,0.0589377,0.0666891,-0.00659107,-0.114208,0.246605,0.0623581,-0.301179,0.143928,0.299156,0.195329,0.0679621,0.115814,-0.247928,0.0323497,0.0920993,0.0397733,0.126915,0.151185,-0.0826948,-0.0848711,-0.101053,-0.200541,0.125404,-0.0592616,-0.253253,-0.0136237,0.300214,-0.22686,-0.150613,0.289937,-0.202202,0.0988495,-0.185909,0.252681,0.110851,-0.285352,0.298767,0.116139,-0.0131978,-0.052676,0.214246,0.00892109,-0.261813,-0.0960597,-0.0303154,0.11634,0.296344,-0.167753,0.0512704,-0.136719,0.236477,0.141667,0.157182,-0.260483,-0.259397,-0.264163,-0.106144,0.181522,-0.307096,-0.233868,-0.258885,0.24789,0.12409,
-0.222337,-0.0318755,-0.227838,0.0915917,0.124562,-0.292858,-0.0726595,0.0778402,-0.178786,-0.0939835,0.266399,-0.132744,0.0650348,-0.211617,0.198254,0.0310542,0.112844,0.181324,-0.0877406,0.244552,0.258227,-0.306733,0.235803,0.268627,0.0646207,0.291629,0.229737,-0.308493,-0.104894,0.153766,0.208998,-0.286961,-0.05294,-0.159009,0.269392,0.279152,0.281413,0.16334,0.0195297,-0.151118,0.157551,0.0754994,0.0309261,0.0988262,-0.00425323,0.122375,-0.150986,-0.166882,-0.0602162,-0.0340712,-0.089336,-0.087871,0.0900873,-0.23929,-0.161979,0.251914,0.297531,-0.0826835,0.0654238,0.116174,-0.0661313,0.0224689,-0.216685,0.221778,-0.135136,-0.307098,-0.208119,0.254989,0.264476,-0.0353286,0.174481,-0.184924,0.197695,0.211861,0.0334798,0.281077,0.289333,0.277133,-0.0369025,-0.292743,-0.266095,-0.284299,-0.0629549,0.203369,0.150561,0.256487,0.0732608,-0.0483636,-0.0971362,0.229742,-0.0248424,-0.294454,0.234494,0.182729,-0.283558,0.252848,0.0634633,-0.227031,0.281283,-0.0275158,
-0.00443442,-0.207095,0.14704,-0.265127,-0.188342,-0.290164,-0.051261,-0.0571715,0.00569534,-0.217161,-0.237871,-0.295499,0.142153,0.019294,0.29463,-0.280362,-0.181153,-0.148633,-0.149871,0.187192,0.244998,0.275281,-0.248152,-0.0666732,-0.00299,0.255488,0.122978,-0.285787,-0.186419,-0.308163,-0.0979323,-0.0833074,0.268306,0.222546,-0.153644,-0.238139,0.278873,0.190126,-0.233242,0.0766991,0.127033,0.242754,-0.132632,0.0562329,0.234372,0.170623,0.0601334,0.227366,0.232494,-0.0504233,-0.221356,-0.261016,-0.288681,0.176173,-0.175232,-0.0601112,0.19534,-0.130391,-0.0728868,0.18588,-0.203031,-0.0614887,0.152588,0.281955,0.127754,0.297627,-0.238607,-0.236043,0.100721,-0.121607,-0.148384,0.01263,0.183727,-0.184463,0.155424,-0.0804067,-0.20742,-0.203776,-0.0937071,-0.301178,0.281522,-0.286066,0.132163,0.274182,-0.27667,-0.275707,0.129378,-0.0650287,0.196362,-0.0657004,0.15751,-0.212673,-0.120814,0.284335,0.301006,-0.225265,0.285912,0.173542,-0.219188,0.172805,
-0.117623,0.278169,-0.176287,0.243949,0.103974,0.2031,-0.14673,-0.161755,-0.204516,0.0526631,-0.272956,-0.0687457,-0.265678,-0.151171,0.162554,-0.149593,0.276884,-0.208509,-0.146293,-0.0596826,0.0402102,-0.0494237,0.195875,0.200108,-0.279926,0.0505954,0.202995,0.103276,-0.0342588,0.123814,0.0344534,0.163354,-0.176766,0.0772921,0.214364,0.288181,0.215237,-0.272151,0.295931,-0.2448,0.273497,0.0345622,-0.0534351,-0.186527,-0.127762,-0.145312,-0.183147,-0.052646,0.183916,-0.270745,0.0925536,-0.154059,0.0470128,0.224373,-0.0322029,-0.308195,-0.0368792,0.121532,0.21276,0.113304,0.193504,-0.00827052,0.00657839,-0.0377186,-0.107113,-0.018707,0.0662863,-0.261259,-0.0798668,0.024646,-0.110235,0.123909,-0.169241,0.110757,0.277833,-0.200667,0.175942,0.273686,0.0740866,-0.272758,-0.0802548,-0.121666,-0.29302,-0.126706,0.102877,0.158278,-0.0141141,-0.157961,-0.225824,0.0390934,-0.101174,0.19531,0.099087,-0.287502,0.122648,-0.224769,-0.154562,0.0485511,0.167232,0.0691733,
-0.276452,-0.0960976,0.248814,0.206175,-0.301511,0.178156,0.0831454,-0.0585472,-0.251103,0.0874748,-0.110904,0.104844,-0.258946,0.13451,0.20738,0.0906855,-0.230167,-0.156582,0.23073,-0.0329533,-0.0975829,0.291214,-0.0531113,-0.204632,-0.115844,-0.214763,-0.14771,0.162271,-0.00352385,0.3028,-0.259315,-0.17324,0.162834,0.0833424,0.0992903,-0.153241,-0.15768,0.201761,-0.241076,-0.144555,0.151608,0.134062,-0.156478,0.0378763,0.048264,-0.0954913,0.147446,-0.147048,-0.0523607,-0.0127485,0.121111,-0.178099,-0.121233,-0.112995,-0.0421156,0.00770142,-0.0935467,-0.241626,-0.200938,-0.136112,0.215315,-0.105788,-0.159786,-0.172569,0.148699,0.125696,0.232445,0.163723,0.204178,0.260874,-0.19402,-0.101287,-0.268612,-0.0360064,-0.278007,0.253521,-0.132973,-0.253592,0.0555853,0.154938,-0.284467,0.065147,0.188992,0.182221,-0.240056,-0.193856,0.013175,0.0731649,0.00794721,-0.0973781,-0.0158593,0.180327,-0.020413,-0.096292,-0.301892,-0.179116,-0.250814,-0.104781,-0.215112,-0.0156643,
-0.307973,-0.188689,-0.0150961,-0.161589,-0.0888974,0.139155,-0.204486,-0.127666,-0.214334,0.185432,-0.00179572,-0.140631,0.0922444,0.248762,0.0967928,-0.0615383,0.240641,-0.253709,-0.0139099,-0.0483099,-0.209578,-0.164869,0.123739,-0.195557,0.159525,-0.142306,-0.156839,-0.119451,0.0847205,0.203829,-0.0935726,-0.218005,0.306261,-0.187629,0.273665,0.085267,0.0430458,-0.0951234,-0.290307,0.131514,-0.132259,0.26198,0.16569,-0.0760387,-0.0326605,0.024639,0.0905542,0.000480591,-0.304143,0.302681,0.175931,-0.0194986,0.187229,-0.199706,0.269675,0.0598618,0.0561091,0.0735171,-0.154696,0.00465351,-0.108773,0.164832,-0.0115847,0.157294,0.123928,-0.29117,-0.0203155,0.141837,0.131032,-0.248048,-0.274896,0.281369,-0.0599267,0.109637,-0.255884,-0.0822619,-0.115346,-0.159582,0.0643538,0.0799518,0.0984973,0.0289846,-0.166581,-0.0122335,-0.14533,-0.222459,-0.259741,-0.0103999,0.15903,0.21145,0.21901,0.0802104,0.151404,-0.025898,0.207911,0.198435,-0.143609,-0.0275305,-0.222021,0.0800007,
0.11839,0.0242416,-0.196341,-0.0354652,0.241447,-0.12987,-0.0773246,-0.0757272,0.119118,-0.0366034,-0.161885,-0.110258,-0.208381,0.0393114,-0.146511,0.0940322,-0.0207357,0.195409,-0.131098,0.223091,0.162391,-0.270147,-0.265812,0.0929318,-0.273823,0.247734,0.0265641,0.0953919,0.164345,0.149351,0.185646,-0.265872,0.0130944,0.130826,-0.0150454,-0.116036,-0.299716,-0.0774465,-0.0176746,-0.177066,-0.0598005,0.178654,0.0327313,-0.0324507,0.268586,0.280301,0.284234,0.154531,0.256181,-0.0997778,0.0580043,-0.137306,0.245631,0.286741,0.0951224,-0.212624,0.256003,0.0135435,-0.285376,0.0529113,0.119344,0.234204,0.155182,0.247689,0.0674772,0.306552,0.0880534,-0.100186,-0.126252,-0.259817,-0.0473223,0.236157,0.125571,0.138377,0.0837573,0.139419,0.127789,0.0628763,0.0968436,0.0738886,0.109751,-0.141204,-0.23459,-0.26108,-0.294223,0.278249,0.266661,-0.137321,0.242616,-0.27757,-0.0864285,-0.210793,-0.304382,-0.215892,-0.203348,0.171636,0.00489604,-0.0888775,0.262009,0.195588,
0.0182908,0.142782,0.189076,-0.175631,0.167113,-0.0273776,-0.260547,0.190977,0.273254,0.105132,-0.210011,0.047599,0.116571,-0.25336,0.0235344,-0.294465,-0.000701377,0.125693,-0.143846,-0.251872,0.287625,-0.213158,-0.27519,-0.225078,0.152048,-0.100475,0.152984,0.0175692,0.0835593,-0.209898,0.218883,0.201396,-0.139865,-0.16024,0.162309,-0.102674,0.0697685,0.205299,0.309525,-0.227199,-0.0884135,0.285381,-0.251596,-0.0242634,-0.121795,-0.284064,0.294251,-0.269233,-0.148943,0.142162,-0.214653,-0.217258,0.18362,0.228323,-0.0946944,-0.014299,0.00908664,-0.169065,0.00535199,-0.261103,-0.142427,-0.180122,0.00408802,-0.0928624,-0.30944,-0.253078,0.161093,0.0940293,0.301576,-0.251828,0.285875,-0.0205455,-0.130418,0.162134,0.207428,-0.1812,-0.217726,0.0819853,-0.14038,0.020709,-0.139987,0.177792,0.0372905,0.0728298,-0.118015,0.229561,-0.0227732,-0.116612,-0.0799027,0.0455976,-0.0712283,0.158104,0.270503,0.23902,-0.196895,-0.172533,-0.0839003,-0.146016,-0.055808,0.126038,
0.283332,-0.119351,0.257022,-0.154335,0.179411,0.0538927,0.217902,0.119781,0.2187,0.0609353,0.271095,-0.185582,0.0265518,-0.141917,-0.0400889,0.152288,-0.0216585,0.25254,-0.29451,0.0553202,-0.277316,-0.263882,-0.261046,0.124388,-0.309048,0.0442858,0.0409296,-0.258105,0.172504,-0.0492555,-0.108106,-0.0250511,-0.193239,-0.0603151,-0.296409,0.222863,0.155132,0.212355,0.293251,-0.193338,-0.265359,0.0340286,-0.0677407,0.113319,0.106224,0.252287,0.246648,-0.179997,-0.160593,0.124704,0.177229,0.056604,-0.231211,0.297074,0.0942703,-0.235897,-0.299391,0.187955,-0.171866,-0.0430832,-0.208848,0.217885,-0.126957,0.110509,0.100856,-0.124054,-0.274075,-0.0615637,0.018947,-0.0774237,0.301716,-0.10878,-0.149448,0.198312,0.041493,0.191783,0.0143169,0.149282,-0.0222086,-0.0700812,-0.101464,0.00130302,0.280902,0.0900467,-0.28748,0.056164,0.152714,0.149252,0.112381,0.197628,-0.0864529,-0.0902586,0.0434328,-0.0924086,-0.115116,0.223401,0.276201,0.153942,-0.251233,0.222095,
0.293029,-0.0208054,0.26714,-0.198655,0.298546,0.269458,-0.189315,-0.151602,0.0374556,-0.0186586,0.110499,-0.300804,0.109183,-0.0122471,-0.0793051,-0.000243414,-0.30798,0.138948,0.29732,-0.270627,-0.307493,0.270691,-0.104647,0.0737686,0.210999,0.293332,0.167846,0.00912579,-0.223898,0.26818,-0.0141807,0.173061,0.284263,0.105291,0.201835,-0.151834,-0.113787,-0.23744,0.113343,-0.107888,-0.0475029,-0.0649845,-0.156449,0.0357126,0.268809,0.0759089,-0.23222,0.196114,-0.130049,-0.0277231,-0.0124454,-0.253719,0.264442,-0.308902,0.159831,0.117133,-0.270194,-0.245909,-0.0917251,0.0410216,0.175795,0.250553,-0.217234,0.290665,0.0175293,-0.12157,-0.276604,0.223854,0.307241,0.305696,0.0917334,-0.0813141,0.178532,-0.0967119,-0.0529033,0.0755369,-0.217225,0.0625894,0.191227,0.0296756,0.175852,0.228723,-0.217512,-0.149123,-0.216893,0.022267,0.299254,-0.15547,0.191242,0.207336,0.217381,-0.0891416,-0.146294,0.198348,0.0832747,-0.0280806,0.130565,-0.194591,-0.281004,-0.123816,
-0.101899,0.17635,0.252683,-0.0496384,-0.253613,-0.259983,0.106789,-0.171133,-0.26904,0.196702,-0.0283331,-0.191545,-0.106005,-0.176651,0.15752,0.0452442,0.215493,-0.0992581,-0.22094,-0.246095,0.222554,0.0903392,-0.167413,0.129695,-0.229786,0.0756043,0.120945,-0.0244739,-0.18242,0.0834008,-0.155784,0.275311,-0.0899235,-0.288906,0.160765,-0.307529,-0.0756708,-0.25646,-0.205275,-0.196796,0.117449,-0.166444,-0.220853,-0.0472399,0.0757122,-0.020767,0.162966,0.27164,-0.0714768,-0.191034,0.304887,0.141227,0.0354346,-0.0761126,-0.191542,0.104912,0.00541959,-0.074379,-0.271399,0.256615,-0.0619513,0.219776,-0.0770938,0.171463,-0.015697,-0.169758,-0.291679,-0.0793696,-0.126439,0.100918,0.0500628,0.199929,0.000923361,0.0544035,0.251068,-0.119595,0.26553,-0.204098,-0.228693,-0.155916,0.130047,-0.294011,-0.0500889,0.140138,0.125009,0.260149,-0.223402,0.0481227,0.184173,0.29774,-0.101553,-0.093826,-0.0482723,0.25206,0.152896,-0.0760514,-0.0949776,0.0743757,-0.118997,0.175574,
0.206503,0.267621,-0.166728,-0.169927,-0.278563,0.229313,-0.132336,-0.12094,-0.0560443,-0.236208,-0.208596,-0.207567,0.269899,-0.110207,0.198953,0.0350467,0.113406,0.1257,-0.194502,-0.0706774,-0.202604,-0.0165395,-0.107665,-0.0343736,-0.178889,0.242214,-0.00548764,-0.296722,-0.275805,-0.151116,0.289807,-0.189942,-0.192714,-0.0684763,0.230117,0.0727916,-0.292243,-0.275801,0.211311,0.0700623,0.0773073,0.243619,0.19506,-0.125209,-0.0503511,-0.210094,0.0617687,-0.243951,0.041289,0.0178883,-0.261519,0.224133,-0.202968,0.181379,0.292906,0.283452,-0.221702,0.289872,0.0233379,-0.244525,0.147824,0.200753,-0.112429,-0.00671598,-0.272969,0.0897771,-0.0356914,0.0916292,-0.140781,-0.00737186,-0.142846,-0.221081,0.0292652,0.177616,-0.090362,-0.0358702,0.226475,-0.128424,0.191562,-0.138829,-0.147364,-0.16092,-0.138618,-0.153179,-0.195208,-0.215986,0.181265,-0.235455,0.252036,-0.0992073,0.29125,0.220579,0.297093,0.243371,-0.10698,-0.0817948,0.154162,-0.194509,-0.175856,-0.245006,
0.109792,-0.00911781,0.188472,0.303244,0.198705,-0.19548,-0.226815,-0.212725,0.247753,-0.0148741,-0.21923,-0.28996,0.148189,0.201877,0.237244,0.28189,-0.129366,0.10144,-0.241986,0.0330332,-0.161501,0.212723,0.135493,-0.0575943,-0.132845,-0.0801269,-0.0942856,-0.303947,0.0550601,0.27047,0.1293,0.12099,0.18034,-0.207414,0.0874897,0.207513,-0.00773402,0.0282129,0.112882,0.190669,-0.0583825,-0.0679262,-0.301338,0.0251464,0.123999,-0.0451284,-0.0499676,0.0353776,0.274704,-0.166212,0.219569,0.144923,0.133413,0.181765,-0.119739,0.0689051,0.105351,-0.271515,0.0543205,-0.2784,0.250629,0.239122,-0.133061,0.277695,-0.310087,-0.103006,0.078463,-0.0726456,0.183275,0.14395,-0.204549,0.196634,0.0172518,0.0627336,-0.0290071,0.249992,-0.251338,-0.111921,0.192716,0.272289,0.293179,0.105318,-0.290555,-0.300327,-0.299455,-0.0486591,0.0868645,-0.297433,0.302241,-0.300771,0.292987,-0.161279,0.262948,-0.0690052,0.0177088,-0.141948,-0.0701649,-0.22811,0.259548,0.0388742,
-0.0569266,-0.184648,0.154331,-0.0493912,0.230882,0.298525,0.0562121,-0.253007,-0.0114234,0.287848,-0.165908,0.280905,0.0897296,-0.206297,0.29371,0.00502546,0.299694,0.132633,0.20468,0.20324,-0.238549,-0.0489169,-0.128396,0.0492168,0.179033,0.169105,-0.246093,0.170496,-0.0492467,-0.233871,-0.0558173,-0.174776,-0.0094555,0.00746736,-0.122998,0.263559,-0.174008,0.0556237,-0.230262,-0.304134,-0.0578508,0.245912,-0.102142,0.302769,0.182501,-0.0314412,0.309631,0.283918,-0.0323031,-0.211093,-0.027649,-0.275952,-0.244186,0.132968,0.108094,0.202548,0.133506,0.229312,-0.0689787,0.305627,0.0420389,-0.0508746,-0.143065,0.0344945,0.0768843,-0.28457,-0.121892,0.0381985,-0.0364231,-0.267675,-0.26363,-0.169734,-0.168459,-0.0355259,-0.302428,-0.239452,-0.135755,0.179073,-0.169025,-0.26496,-0.0277932,0.0793725,-0.187208,0.132452,-0.191856,-0.298632,0.237386,-0.296921,0.162238,0.147528,-0.307607,0.0511555,-0.0264681,-0.00655835,0.0384707,-0.0839748,-0.0933881,0.178043,-0.195282,0.0864283,
0.244627,-0.224973,-0.263384,-0.0173752,0.190922,-0.240446,0.0986041,0.22901,-0.287017,0.16507,0.21529,0.0485546,-0.0749933,0.141534,-0.052872,0.204104,0.071,0.0662877,-0.0938081,0.0805856,0.0112597,-0.108968,0.187632,0.275521,0.305625,0.21648,0.250386,-0.309043,-0.0242147,0.0374062,-0.202324,0.15558,0.224573,0.15094,0.304304,-0.305794,-0.214499,0.0548653,-0.226173,-0.179428,0.112927,-0.108856,0.280811,-0.112622,0.276595,-0.151988,-0.15283,0.100626,-0.143762,-0.145117,-0.163215,-0.22858,0.288775,-0.0998857,0.231325,0.128571,-0.238672,-0.299675,-0.165233,0.0393422,-0.236399,-0.100977,-0.076984,0.0288807,-0.299922,0.0116833,-0.135906,-0.203893,0.146951,0.206739,0.235449,0.0349501,-0.262754,-0.224546,-0.0331218,-0.00302315,0.206078,-0.0527265,-0.176749,-0.161539,0.201029,0.106257,0.0581884,-0.22919,-0.287967,0.0440447,-0.304703,-0.250344,0.106388,0.187908,-0.0657785,-0.0116273,-0.205268,0.172262,-0.208179,0.101977,-0.146259,-0.00836992,-0.234867,0.24546,
-0.295133,0.0475002,0.21971,0.223301,-0.0531092,-0.0199118,0.0832626,-0.0583721,0.176176,-0.063404,-0.233198,0.146093,0.245223,-0.301925,0.301319,0.168718,-0.138786,0.0638228,-0.082065,-0.211315,0.30766,0.101712,-0.24773,-0.248684,0.0823031,-0.210101,-0.226596,-0.232701,-0.0150499,-0.129801,0.195122,0.0624387,-0.112674,0.232415,-0.118113,-0.292586,-0.0624083,0.188318,0.0611834,-0.16153,-0.0998662,0.113022,0.193158,0.248696,-0.251854,-0.120396,0.14272,-0.0978031,0.0967201,-0.0515882,-0.254944,0.264743,-0.0568277,-0.0646761,0.0679675,0.0371169,0.0739868,0.0315835,-0.124236,0.0786742,-0.256981,0.107529,0.14683,0.0549197,0.143304,0.308807,-0.0452306,-0.119904,-0.0383301,-0.165785,-0.0394679,-0.0738447,0.11663,-0.060889,0.0521876,-0.251309,0.302539,-0.0183137,-0.0191817,-0.245925,0.113289,0.139558,0.206218,0.23436,0.197907,-0.0853471,-0.161627,-0.11955,0.103444,0.23492,0.0547974,-0.105994,-0.131951,-0.272158,0.0768106,0.00207148,0.102824,0.173487,0.125534,-0.278923,
0.265109,-0.0841481,-0.289904,-0.027286,0.119427,-0.0550311,0.0922511,0.188552,0.0799714,-0.281908,0.266253,-0.301876,0.0261235,0.184648,0.1805,0.0521355,-0.239797,-0.154618,-0.26635,0.264809,0.118687,-0.216281,0.194695,0.272462,0.0817037,-0.122189,0.295525,-0.242051,-0.134762,0.190343,0.0625185,-0.212442,-0.30346,0.296069,0.146986,0.022628,0.307386,0.233985,-0.229747,0.131728,0.219559,-0.0293751,0.104375,-0.0911526,-0.133333,0.0669251,-0.218707,-0.301671,0.0961253,0.0209411,-0.0143111,-0.277569,-0.107456,-0.193883,-0.245115,-0.0872668,0.16491,-0.192078,-0.273553,0.201548,-0.245428,-0.0688771,0.154722,0.0373561,-0.190417,0.189827,0.0841257,0.296107,0.0179992,-0.0113808,0.237376,0.0502505,-0.0239768,0.157798,-0.118682,0.15222,-0.297229,-0.109442,0.289299,-0.0398938,0.217258,-0.0165732,-0.0105219,0.084368,-0.173856,0.25626,0.175308,-0.25952,0.191573,0.238133,-0.0595994,0.205721,-0.189006,0.0804423,-0.15295,-0.183518,-0.299274,-0.185061,-0.149726,-0.240669,
-0.304465,0.12412,0.0888226,0.119199,-0.138432,0.263612,0.167236,0.153197,0.167048,-0.253172,-0.00755732,-0.013238,-0.0697646,0.175517,-0.0391981,-0.0773068,0.202912,-0.13446,-0.217733,-0.00970971,0.00751694,-0.231774,-0.0685126,-0.264381,-0.000538646,-0.0089183,-0.218644,0.245493,-0.0643167,-0.0366692,-0.0943987,-0.243226,0.0501983,-0.266204,0.0348575,0.0427975,-0.0909684,-0.0371794,0.18402,0.0959626,0.125658,-0.144628,0.10836,0.176286,-0.0183996,0.0952686,-0.0665529,-0.207532,-0.241172,0.200338,0.261361,0.225263,0.173289,0.27527,-0.128346,-0.154577,0.139056,-0.065585,0.224381,-0.297161,0.136335,-0.0873683,-0.0538601,0.0476581,-0.0782236,0.247272,-0.150763,0.11344,0.278343,0.11701,-0.195592,-0.200687,0.298034,0.104156,-0.0757377,-0.0995977,-0.121035,0.176537,-0.0411765,-0.174579,0.201592,-0.0943339,0.29453,-0.277592,0.298073,-0.179488,-0.0685453,-0.296236,-0.124373,-0.260937,0.0798963,0.0333992,0.0146979,-0.0490575,0.00744329,-0.135833,0.0440837,0.179689,-0.239432,0.0727752,
-0.228186,0.309923,-0.291273,0.0480429,0.0818221,0.142067,-0.171375,-0.0439351,0.272367,-0.109995,0.068721,-0.121101,-0.0733775,-0.133001,-0.234729,-0.291871,0.0765585,-0.281379,0.0189576,0.243748,-0.0583759,0.169649,-0.221788,-0.160609,0.0173075,0.308466,0.0302211,-0.209482,-0.287135,-0.191215,0.0173033,0.11256,-0.280692,0.235144,-0.289409,-0.249338,0.158685,0.131514,-0.190792,-0.0694825,0.0961054,0.21424,-0.0869206,0.0930734,0.22194,-0.131668,0.0884116,-0.00810615,0.111483,0.140377,-0.0451422,0.141288,0.104703,0.163594,-0.0766414,0.281655,0.0174733,-0.0813945,0.120601,0.236652,0.210655,0.0198154,0.18844,0.248097,-0.172141,0.111748,-0.229508,0.267644,0.0573732,-0.178251,-0.109307,-0.1997,0.271566,0.179381,0.155629,-0.00631689,-0.125586,0.252761,-0.105041,-0.102977,0.0777235,0.02406,-0.00634606,0.253704,-0.158814,-0.0472103,-0.0526408,0.116374,-0.00474252,0.249503,0.0698367,-0.271369,0.220406,-0.00553643,-0.0386855,0.162599,-0.303009,-0.291565,0.197452,-0.291085,
-0.138204,-0.176048,-0.108878,-0.281299,-0.0555086,-0.141665,-0.0966843,0.113363,-0.278115,0.0731646,0.27708,0.141637,0.0946629,-0.236821,0.0865614,0.063347,-0.0540239,0.173102,-0.141975,0.140054,0.209904,0.120477,-0.20141,-0.152049,0.252618,-0.204437,-0.304472,0.149308,0.264275,0.141834,0.268622,-0.0016897,-0.271775,-0.212422,-0.207639,0.105193,-0.277257,0.0471669,-0.00426175,0.218764,0.030348,0.227087,0.0550407,0.2292,0.198648,-0.165372,-0.255597,-0.231839,0.187006,0.173108,0.188238,-0.0267518,0.174683,0.244128,0.213997,0.2428,0.102462,0.128762,-0.238348,-0.0146011,-0.276959,-0.0813775,-0.130327,-0.233731,0.0626602,-0.0683706,0.211125,0.287888,-0.22953,0.148175,0.147151,0.0733898,0.163797,-0.0198886,0.00923166,0.163304,-0.126161,0.176868,0.269493,0.0773363,0.0820232,-0.207389,-0.0150336,0.0177132,0.155871,0.0602671,-0.107952,0.28179,-0.110989,0.146077,-0.146443,-0.275028,-0.13661,0.0398176,-0.157954,-0.147776,0.212154,0.118234,-0.230094,0.131618,
-0.258938,-0.240978,-0.283475,-0.0837683,0.233591,-0.104928,0.101009,-0.172062,-0.231583,-0.0119132,0.167201,-0.266918,-0.292221,-0.131578,-0.169883,0.173277,-0.175847,0.222438,0.0501161,0.0384505,0.253165,-0.111097,-0.190918,0.169623,0.0800413,0.141988,-0.305383,0.254098,-0.0112017,0.247409,0.270519,-0.200658,0.267544,0.270103,-0.0300636,0.265549,-0.20521,-0.203337,-0.210508,0.108418,0.061366,0.0585281,-0.156005,-0.0227374,-0.280915,-0.226832,0.272658,-0.200189,-0.184119,-0.048251,0.150015,-0.180932,-0.0817993,-0.14476,-0.199205,0.297935,0.285215,0.0533089,-0.0813657,-0.293069,0.257671,0.00063231,-0.0958385,-0.260149,0.0284048,0.103004,0.214962,-0.052472,-0.225689,0.172718,0.0881315,-0.00792258,-0.305574,-0.226187,-0.188795,0.144189,0.196889,0.0457097,-0.10895,-0.0853797,-0.207278,0.122539,-0.165912,-0.0320504,-0.307231,-0.0610291,-0.140421,0.0864635,-0.0217771,-0.290647,-0.111279,0.0822742,-0.210662,-0.195751,-0.174427,0.265962,-0.275399,0.186682,0.242384,0.261121,
-0.172961,-0.14275,-0.138057,-0.168842,0.280861,0.292111,0.1307,0.299056,0.144791,0.233746,0.234357,0.0920607,0.210885,0.187583,0.111899,0.107564,0.0364531,0.206887,-0.0331064,-0.261421,0.00199412,0.0854933,0.15037,0.00960661,-0.158541,-0.223441,-0.254245,0.251184,-0.142984,0.246952,-0.294379,-0.108996,0.00411132,-0.268798,-0.0615601,0.00485177,0.158282,0.116762,-0.0883577,-0.0903876,0.0239575,-0.0323108,-0.145496,0.101454,-0.229382,-0.290365,-0.241716,-0.162678,0.291212,0.0696025,-0.201962,0.265538,-0.221206,-0.0581542,-0.0453822,0.13103,-0.062569,-0.116797,0.10915,0.169962,0.300773,-0.176999,-0.0429632,-0.0893061,-0.156139,-0.271839,-0.277381,0.187686,0.0973375,0.249345,-0.284574,-0.0342822,0.158303,0.299444,0.0173682,-0.0885779,-0.309533,-0.158638,0.178871,-0.264831,0.188511,0.290462,0.297502,0.0389735,-0.208149,-0.136228,0.147393,0.0368297,0.202815,-0.0801456,-0.128635,-0.222617,0.0338409,-0.0855895,-0.0612855,-0.176277,0.14873,-0.126454,-0.166407,-0.0460814,
-0.0843036,0.244463,-0.00446235,-0.0713959,0.0859899,0.266686,0.0360306,-0.147255,0.169998,-0.0956084,0.219653,-0.11654,0.0468114,0.238274,0.134859,-0.302253,-0.106223,0.217218,-0.0941734,0.218299,0.122566,0.275789,0.000306372,0.222908,-0.170953,0.0467444,-0.173156,-0.213724,-0.0344668,-0.274141,0.185458,-0.0738215,-0.253027,0.233309,0.0109454,-0.158956,0.223603,0.110995,-0.197015,-0.253305,0.00242005,-0.165414,0.059972,-0.254329,0.0222741,0.196215,0.143528,0.164678,0.094163,-0.306798,-0.177633,0.0776809,0.0381202,0.291784,0.249124,0.182904,0.0693012,-0.0661056,0.0680997,0.259281,0.270623,-0.123612,0.0983165,0.104333,-0.252215,0.275226,-0.104672,-0.263679,-0.127963,0.232646,0.212164,-0.174767,-0.116952,-0.12436,0.20304,-0.214961,-0.0100471,-0.141619,-0.020221,0.162696,-0.292026,-0.150594,0.176905,-0.0872988,-0.17805,-0.140525,-0.070137,0.280393,-0.0969092,-0.0189064,0.214525,-0.239242,-0.174171,0.00464695,-0.148983,-0.151684,-0.140708,0.0852142,0.200482,0.256616,
0.0885482,-0.220095,-0.25985,0.189093,-0.214407,-0.24905,-0.0653446,-0.0369199,0.00103931,0.105825,0.139686,0.224051,-0.00378876,-0.18738,-0.251742,0.213466,-0.00902276,0.256503,-0.0747224,-0.178589,0.28331,0.279852,0.213916,-0.087327,0.268342,-0.040193,0.178516,0.117558,0.275306,-0.146636,-0.158286,0.294767,-0.0514912,-0.0409108,0.241123,0.304393,0.0831531,-0.140286,-0.181174,0.0957513,0.186742,0.104985,0.0467013,0.257869,0.14531,0.150921,0.0311674,-0.215061,0.17663,0.149476,0.211259,0.304472,-0.00435725,-0.0168707,0.225648,-0.0298977,-0.297683,-0.133904,-0.045401,-0.173652,-0.224678,0.260876,-0.194745,0.0601454,0.109572,0.227087,0.26436,-0.109215,0.12209,-0.0455672,-0.152204,0.160152,0.183989,0.0990885,0.0419168,0.21978,0.0303687,0.11274,0.0661118,-0.152451,-0.0473989,0.243998,0.0202046,0.22286,-0.0818947,-0.0369505,0.0375169,0.107409,-0.295718,-0.225466,0.225363,-0.209205,0.122571,0.0230629,0.204222,-0.247846,-0.0328311,0.12001,-0.127988,-0.24649,
-0.00483288,-0.0782153,0.100501,0.159276,-0.0918286,-0.141415,-0.242099,0.255761,0.21847,-0.182078,-0.125113,0.0722094,-0.169042,0.0121795,0.162009,0.282252,-0.211741,-0.0459253,-0.244054,0.294751,0.0138267,0.157838,0.211989,0.0707829,0.0152981,0.101525,0.0889226,-0.0352452,-0.179928,-0.270825,-0.203316,0.0711485,-0.181188,-0.0364245,-0.293709,-0.084329,0.0711616,0.138413,0.238798,-0.00153648,0.00184201,0.3063,0.235438,0.135551,-0.0947746,-0.308149,-0.277467,0.0875047,-0.300068,0.0894312,-0.0169472,-0.0440745,0.245503,0.174474,-0.225379,0.24776,-0.28091,0.140581,0.169066,-0.157674,0.23042,0.199237,0.300715,0.27227,0.139001,0.170023,-0.294863,-0.222277,-0.255226,-0.299853,-0.117522,-0.00386252,0.106213,-0.24336,0.161955,-0.126791,-0.274142,-0.0429217,0.180362,0.246972,-0.0904765,0.0628548,-0.28675,-0.0145832,-0.0109283,0.257653,-0.239671,0.287634,0.22061,0.185759,-0.020966,-0.189333,0.22822,0.220608,0.076704,0.0375275,-0.295885,-0.219503,-0.0158457,0.20992,
-0.116854,0.291632,0.0544229,0.197379,0.230424,-0.233817,0.297241,-0.1075,0.0201696,0.273682,0.188745,-0.145039,-0.272699,0.259371,0.182541,-0.227874,0.210104,-0.0715582,-0.028641,0.281661,0.19885,-0.302299,-0.205607,-0.172647,0.0423916,0.254157,-0.0495171,0.0400546,0.176524,-0.199964,-0.208322,-0.0764173,0.261203,-0.200498,0.101489,-0.00501063,-0.191688,-0.204331,0.255347,0.0628172,-0.131636,0.0357436,-0.0997629,-0.245943,0.0406047,-0.249477,0.0252237,0.297926,-0.0462625,0.0706833,-0.204796,-0.0786722,0.0766474,0.271086,0.11343,0.310057,0.242523,-0.195927,-0.223923,-0.0264418,-0.0654651,0.286066,0.292096,0.26332,-0.0435012,-0.289507,0.219225,0.178522,-0.152055,-0.209502,-0.182911,0.0107334,-0.149246,0.185996,0.0938166,-0.216814,0.165136,0.0786052,-0.0814471,-0.208422,0.0515221,-0.24249,0.0335897,0.244889,-0.0270539,-0.233648,-0.0736461,0.0312097,-0.164423,-0.067665,-0.075336,-0.0444122,-0.0738845,-0.304866,0.286584,-0.218047,0.234476,0.0816408,0.0885885,-0.244079,
-0.277803,0.140151,0.183933,-0.0201805,0.11823,0.26396,0.259475,-0.269523,0.0382424,-0.297916,-0.0485115,0.299622,0.29483,-0.0235115,-0.0829957,0.0352873,-0.295259,0.211618,0.264396,0.183376,-0.159227,-0.263546,0.0957621,0.274849,0.160203,0.218581,-0.270255,0.0903588,-0.252742,-0.0289273,-0.0363616,0.205487,0.152305,0.0677624,-0.144671,0.27446,-0.0947526,0.133636,0.0409286,-0.144281,-0.181444,-0.276566,-0.0350251,0.237993,0.00892994,0.128669,0.261887,-0.236609,-0.283088,-0.29272,-0.0307499,-0.215384,0.0950501,-0.25835,-0.237078,0.0434161,0.132822,-0.256528,-0.127909,0.115318,-0.121934,-0.197885,0.176964,-0.129303,0.139836,-0.250534,-0.0823593,0.227051,0.295189,0.26293,0.181984,0.203165,-0.0872917,-0.148291,-0.0283041,-0.0041905,-0.280431,-0.012589,-0.00652578,0.0447561,0.124109,0.031281,0.141677,-0.201265,-0.118073,0.167956,-0.0253712,-0.270283,-0.00507461,0.192525,-0.309285,0.0853559,0.0293581,-0.0402263,0.141403,0.106835,-0.0549477,-0.22217,-0.0866139,0.175424,
-0.204629,0.0847109,-0.142623,-0.0601566,0.294974,0.140957,0.242098,0.129603,-0.0432326,-0.105278,-0.00920252,0.106179,-0.130226,-0.218033,0.216266,-0.0204032,-0.122325,-0.234675,0.21225,0.0381753,0.0537374,0.304904,0.303,-0.260647,-0.245237,0.296571,0.240002,0.180204,-0.174695,0.134473,0.242616,-0.26985,-0.252699,-0.261545,-0.021955,-0.161126,0.170039,0.263588,0.13515,0.031293,0.282546,0.0678123,0.286639,-0.296545,0.148179,-0.135801,-0.30337,-0.0380138,0.213592,-0.0634182,-0.221714,-0.032563,0.192112,-0.0798735,-0.20811,0.178342,-0.0288129,-0.179924,0.103424,0.22929,0.209687,0.310621,-0.00210625,0.113942,-0.221304,-0.290572,0.298452,0.202572,0.00975733,-0.230905,0.0111763,0.10421,-0.017818,0.00528431,-0.232377,0.128969,-0.00715351,-0.308987,-0.245463,0.237448,0.101322,-0.0727471,0.0253327,-0.0730195,0.133037,0.221691,0.115205,0.188319,0.307167,0.245749,-0.251289,-0.125049,0.0107892,0.0795114,0.0750551,-0.286419,0.139768,-0.125208,-0.03841,-0.299372,
0.139654,-0.300699,0.207255,-0.227333,-0.247689,-0.0631818,0.309357,0.224044,-0.0378581,0.101614,0.186639,-0.0195988,0.280437,-0.289837,-0.0944789,-0.113383,0.254164,-0.22512,0.156912,0.263316,0.276933,-0.118926,0.176181,-0.288569,-0.286346,0.11276,0.309501,0.230719,-0.195432,0.167151,-0.109084,-0.108023,-0.110096,-0.248402,-0.152131,0.212168,0.159644,0.103357,0.258007,0.258662,-0.146816,-0.189009,-0.125192,0.194739,-0.147509,0.256653,-0.06007,0.257829,0.0263794,0.261431,-0.178599,-0.30004,-0.0968966,0.189648,0.285425,0.168846,0.159997,-0.179233,-0.11304,0.167263,0.227653,-0.150532,-0.0683705,0.0502591,-0.243075,0.0269196,0.176522,0.274794,-0.137998,-0.0248541,0.0847648,-0.296749,0.230994,-0.107019,0.222703,0.0138752,-0.0410281,0.0192671,0.100953,-0.25765,-0.28151,-0.218624,-0.132477,-0.0699591,-0.292626,-0.181627,0.254249,0.266234,0.126401,-0.12738,-0.295604,0.0504376,0.0601549,-0.143963,-0.0567831,-0.249124,-0.0214289,-0.22287,-0.138595,-0.200211,
-0.25791,0.257808,-0.0796293,0.247797,0.309525,0.119072,-0.188614,-0.040245,-0.072312,-0.0144921,0.0694134,-0.0845442,-0.0712943,-0.189457,-0.0977366,0.220382,-0.220925,0.104466,0.243131,0.202873,-0.217015,-0.303891,0.269869,0.308376,0.081773,0.0129144,0.188693,-0.0505442,-0.242478,-0.205573,-0.288665,0.218673,-0.0815603,-0.0495785,-0.101791,0.157819,-0.279705,-0.0529495,0.00781053,0.0804108,-0.146446,-0.237101,-0.305282,0.263695,-0.161124,-0.0774901,0.251693,0.13608,0.01355,0.190542,-0.254625,-0.246757,-0.218474,0.074734,-0.00924162,0.292772,0.111675,0.231843,-0.0710985,0.178574,-0.129577,0.00664008,-0.193535,-0.2232,-0.27027,-0.282764,0.188028,0.296266,-0.0219769,0.275169,0.193996,-0.127314,0.091773,-0.0449183,0.0103047,-0.0908539,0.307107,0.00420093,-0.0440446,-0.265467,0.134757,0.306444,-0.0606681,0.190061,0.260726,-0.0454094,-0.288533,0.291834,-0.135716,-0.197125,-0.310365,-0.251699,0.0756634,-0.0293073,-0.0155774,0.107545,-0.171465,-0.207935,0.0134821,-0.0631019,
-0.0678041,-0.223803,-0.0862841,-0.240884,-0.122768,0.0208675,0.144031,0.145534,0.0209157,0.059271,0.198467,0.104713,-0.266313,-0.144381,-0.0788683,-0.0340841,0.0420857,0.175914,0.0219909,-0.277896,0.201132,-0.213299,0.270001,0.116649,0.0890849,-0.212075,0.246824,0.260135,-0.0720615,0.127428,-0.24495,0.30649,0.293154,0.00930367,0.108931,0.272427,-0.0149507,0.244623,0.188192,0.130989,0.0580415,0.124369,-0.198752,-0.0634819,-0.278226,0.153566,0.0962004,0.128031,0.18697,0.174556,0.246607,0.270433,-0.194899,0.208128,0.0331704,-0.0179981,-0.216405,-0.0872625,-0.219638,0.0773184,-0.228428,-0.0235643,0.278452,-0.121367,-0.186569,0.22796,-0.188499,-0.158398,0.187595,-0.219274,-0.0316308,-0.188803,0.0584317,-0.100105,0.306861,0.293438,-0.0624664,0.1487,-0.185077,-0.260211,-0.28609,-0.24362,0.17759,0.01082,-0.221268,-0.301752,0.0042011,0.0605197,-0.188137,-0.0938894,-0.068046,0.0812161,-0.299037,-0.201713,-0.119351,0.131263,0.190377,-0.261042,0.155648,0.237597,
0.0290729,-0.289703,-0.215767,0.0842949,0.0441486,0.0464509,0.205644,0.208232,0.089454,0.0442449,0.298305,-0.198462,-0.0903493,-0.1542,-0.230547,-0.2997,-0.127629,-0.0568165,-0.272729,0.213626,0.261935,0.178883,-0.0461312,-0.245976,-0.0843731,-0.185926,0.0262241,0.119297,-6.02255e-005,-0.30285,0.202057,-0.1668,0.258564,-0.00929552,0.0369489,0.0465474,0.247743,0.266137,0.23853,-0.0714446,0.152621,0.0650562,-0.0896888,-6.91786e-006,-0.267586,0.0490802,-0.111101,0.155242,-0.241393,0.203494,0.239796,-0.0867493,-0.0481085,0.0283274,0.305989,0.0463271,-0.30877,0.136074,-0.260848,0.154789,0.254705,0.214676,0.278596,0.172507,0.175134,0.304445,-0.189492,-0.0134192,-0.105412,-0.295314,-0.272293,-0.0612862,0.0130175,0.126014,-0.120973,0.0951565,0.133808,0.206393,0.0769609,0.27741,0.119196,-0.125121,-0.179559,0.12319,0.182838,-0.22004,0.258148,0.07157,-0.118832,0.0589731,-0.00234837,0.104704,-0.0331417,-0.0507478,-0.115485,0.113887,-0.140493,0.167667,0.247129,-0.232891,
-0.2248,-0.124698,-0.309634,-0.0130045,0.225401,-0.102238,0.20539,-0.154219,-0.0281338,-0.271482,0.122957,0.289874,0.293683,-0.00980786,-0.232244,0.0255278,-0.127956,-0.227219,0.282663,0.0477155,-0.0708941,0.268202,0.17282,0.0943645,-0.12012,0.269248,-0.228062,0.305256,-0.272539,-0.0692307,0.0737445,-0.283322,0.235181,0.293573,0.0182338,0.12289,0.141764,0.0137462,0.288898,-0.175809,0.222485,0.248028,0.236644,0.0624804,0.291706,0.128447,-0.174842,0.0119507,0.045673,0.252312,-0.290001,-0.0144217,-0.0131951,-0.0478326,-0.232975,0.047421,0.261685,-0.150511,0.101412,0.0841761,0.210403,0.00176606,0.306288,-0.15327,-0.0333992,-0.157151,0.145317,-0.0216549,0.214768,-0.119993,0.215317,-0.153425,0.233305,0.17588,-0.121322,-0.186945,0.140539,-0.0280315,0.0226116,-0.219434,0.279716,-0.187381,-0.0399584,-0.211377,-0.183412,0.22042,-0.0257691,0.0759115,-0.282341,0.187114,-0.0375361,-0.222538,0.304491,0.171155,-0.249106,0.0010766,0.143062,0.188036,-0.271799,0.137287,
0.146268,0.267941,-0.190636,0.196316,-0.119085,-0.0751663,-0.237006,-0.152461,-0.135594,-0.102982,-0.0546945,-0.18612,-0.22691,-0.103522,-0.167802,-0.0556944,0.223034,-0.224379,-0.0271329,-0.120989,0.0190848,-0.237288,-0.133379,0.291608,-0.0569239,-0.162332,-0.28378,0.0536284,0.214423,-0.143675,-0.0718271,-0.0875758,0.242981,0.244643,-0.21163,-0.158845,-0.126886,0.247812,0.261485,-0.245334,0.254202,0.293253,-0.199779,0.16105,-0.243108,0.11005,-0.222777,0.23869,-0.0486584,-0.0160031,-0.00771101,-0.223691,-0.159222,0.0507258,0.255662,-0.271969,0.283004,-0.0391143,-0.177536,0.140734,-0.278428,0.120389,0.224542,0.144726,-0.052922,-0.250247,0.188038,0.105611,0.257771,-0.296535,0.140989,-0.130555,0.25019,-0.306907,0.205569,0.113523,-0.230074,0.0799604,-0.0768419,0.090168,0.203563,-0.0529562,0.140181,-0.281302,0.019722,-0.218178,-0.274478,-0.231311,0.279548,0.117972,0.239488,0.22901,-0.0332547,-0.230172,0.000335358,0.180619,0.216552,-0.283113,0.242661,-0.170331,
0.0337507,0.232498,0.146848,0.247076,0.102854,-0.240861,0.176785,-0.217351,0.238522,-0.0895032,-0.0100651,0.00762336,0.193896,0.0134597,-0.0980567,-0.0463914,-0.269444,-0.211833,-0.025338,-0.117508,-0.0424798,-0.170472,0.0794303,-0.106758,-0.164933,-0.04931,0.198348,0.0322696,0.173178,-0.0898692,-0.113304,0.122229,0.230832,0.0131603,-0.237842,-0.26181,0.0387116,0.0870953,-0.0256423,0.22012,0.269228,0.074588,-0.19598,0.0230643,0.304831,0.0555862,-0.276188,-0.282164,-0.300376,0.152389,0.102726,-0.0150121,0.22513,0.000494254,0.00543541,-0.0245162,-0.243786,0.309558,0.0981468,0.051108,-0.181133,-0.0811252,0.140059,-0.0423653,0.135063,-0.258336,-0.174036,-0.13722,-0.305761,0.101558,0.18522,0.273488,0.248564,-0.0250342,-0.183001,-0.154509,0.0728642,-0.252388,0.0783688,0.0441825,-0.213564,-0.155538,-0.120358,0.137342,0.218968,-0.0150193,0.183947,0.0632067,-0.0100127,0.201516,0.0980171,-0.270179,-0.262576,-0.30421,0.00602254,-0.142571,-0.221992,-0.0130872,0.218155,-0.178569,
-0.255114,-0.0238374,-0.0941064,-0.14038,0.00810036,0.094794,0.0951818,-0.156695,0.307868,-0.0861189,0.195786,0.103624,-0.265215,-0.179492,-0.218915,0.0185678,-0.0774704,0.18451,0.169954,0.0707199,0.235921,-0.233686,0.0502099,0.188166,0.269953,0.295336,-0.177794,0.279434,0.125332,-0.291199,0.14279,0.170597,-0.0580506,-0.286231,0.203034,-0.138885,0.0674127,-0.295491,-0.307065,-0.0252689,0.133229,-0.104407,0.150102,-0.247864,0.184502,-0.261288,0.293376,0.0435599,0.278721,-0.0599064,0.179674,0.0106759,0.14744,0.0597148,0.245836,-0.00182947,0.264629,-0.1999,0.197304,0.218639,0.0779697,0.162622,-0.270395,-0.0293298,0.186899,0.187938,-0.273818,-0.0966823,0.160369,0.0434694,0.243105,0.0610006,-0.0842161,0.0723233,-0.113404,-0.255194,0.236777,0.00932011,-0.210501,-0.188198,0.264621,0.216069,-0.0568748,0.0273615,0.157019,-0.0795577,0.0712651,0.00651108,0.247599,0.215375,0.130343,-0.0209563,0.241546,0.0814038,0.28187,-0.225085,0.0738883,-0.0318898,-0.0693867,0.209501,
-0.153515,0.128238,0.196194,-0.282901,0.207606,-0.228166,0.266761,0.305886,0.0289666,-0.269578,0.152253,-0.125356,0.00774292,0.283584,0.1301,-0.00112859,0.0483246,-0.0666039,-0.259812,0.121085,0.208244,0.113165,0.255465,0.0657787,-0.21049,0.0259093,0.0631524,0.00324877,-0.200312,-0.0385354,0.199936,0.29626,0.285175,-0.260444,-0.0268848,-0.282802,-0.228335,0.223775,-0.191942,0.246841,0.23654,-0.0414836,-0.207361,0.265368,0.171951,-0.0406388,0.0215125,-0.0433939,-0.0698117,0.103865,-0.124193,0.141131,-0.100694,0.198474,-0.00492492,0.234332,0.0836509,-0.0497142,0.126136,-0.251853,-0.307712,0.0667314,0.173343,-0.280463,0.147742,0.146152,-0.0339406,0.307916,-0.020061,0.063074,-0.0256449,-0.305463,-0.302298,0.0884966,0.305702,0.171736,-0.00682467,0.225133,0.292926,0.293928,-0.244944,-0.122866,0.209034,0.0501599,0.122596,-0.0512951,0.216035,0.0410091,-0.0726031,0.0200129,0.0807422,-0.0189431,-0.305719,0.279411,0.201732,-0.000266432,-0.109052,0.079481,0.0124739,0.130331,
0.261644,-0.0860345,0.0393442,0.0638761,-0.24798,0.284813,-0.0673561,-0.295591,-0.0240074,-0.108567,-0.302448,0.280993,-0.155318,0.245353,-0.0169954,-0.0788074,0.258408,0.135181,0.293431,-0.250521,0.16145,-0.0892893,-0.138039,-0.248971,0.265699,0.18032,-0.172181,0.0370707,0.265189,0.0150737,0.138078,0.180887,-0.100896,-0.183194,-0.248766,-0.215325,0.130471,0.116637,0.0629936,-0.132426,-0.231123,0.120655,0.144847,-0.18147,-0.213376,0.233297,0.15966,-0.192968,-0.0204393,-0.150751,-0.0431451,0.133569,-0.0883211,0.261015,0.0441714,-0.256804,0.0892226,-0.148991,-0.203982,-0.254167,0.026177,0.118775,-0.300413,0.16184,-0.112615,-0.0851674,0.0954548,0.144077,0.238892,0.298882,-0.0191756,-0.0974748,-0.12557,0.146985,0.229886,0.243221,-0.278622,0.0350016,0.040114,-0.0578989,-0.240327,0.247455,0.143362,-0.0395821,-0.157495,-0.227775,-0.125253,0.0234902,-0.209291,0.213393,0.295632,-0.100021,0.118284,-0.0111158,0.26369,-0.299944,0.269671,-0.175955,0.0379409,-0.146397,
0.234002,-0.00700383,-0.0645237,-0.291292,-0.272873,0.230274,-0.149858,0.22315,-0.21608,0.0557119,-0.228788,0.211746,0.158873,0.0398828,-0.206448,0.222074,-0.0778817,0.182903,0.108354,-0.26423,0.110912,0.133071,-0.0842328,-0.073928,-0.0156093,-0.236583,0.253289,0.200273,-0.0900593,-0.0473342,-0.18108,-0.0297945,0.285326,-0.227016,0.1472,-0.134719,0.112434,0.175495,-0.0769489,-0.234073,-0.0186331,-0.17458,-0.17801,0.14158,0.104814,-0.213075,0.112935,0.205568,-0.0771717,0.00232548,-0.134052,-0.168614,-0.217791,0.0441697,-0.0851181,0.0463887,-0.174762,0.24807,0.248401,-0.0386258,-0.267182,0.214515,-0.261424,0.241368,0.0489755,0.247434,0.251917,-0.112164,-0.221196,-0.232363,-0.265523,-0.218045,-0.0804801,-0.268776,-0.246502,0.233435,-0.189925,0.0340195,0.283269,0.276718,-0.187505,0.270102,-0.0524723,-0.175893,-0.273463,-0.305124,-0.0500974,0.100227,0.304797,0.239672,-0.243559,0.0356606,0.150238,0.304823,0.0364199,0.214398,-0.258117,0.0417212,0.0828883,0.0571178,
0.092908,-0.210852,-0.247034,0.299397,0.140275,-0.0958922,-0.261534,-0.0698716,-0.202138,0.127433,0.30051,-0.123906,0.0552242,-0.177376,0.0166902,-0.0626483,-0.16772,-0.246333,0.170896,-0.286986,-0.194531,0.260154,-0.204134,0.0435144,0.1345,0.0786972,-0.208604,-0.298588,-0.140745,-0.210364,0.180989,-0.138421,0.125578,-0.211226,-0.198987,-0.0583649,0.082007,-0.106704,-0.127588,0.237757,-0.112314,0.201702,0.234019,-0.258527,0.234589,-0.0273892,0.0440162,-0.0281964,-0.0370548,-0.0729574,0.019601,0.131175,-0.154999,0.1626,0.118567,0.172488,-0.000572288,0.0594169,-0.28103,0.254582,0.297754,0.0434619,-0.189641,-0.0996151,-0.0569689,0.167656,0.255447,0.234197,0.293765,0.133416,-0.0537853,-0.0298309,-0.286282,0.0502583,-0.130941,0.102141,0.0967372,-0.059565,0.163394,-0.155013,-0.103559,-0.119495,-0.208953,0.202084,0.122943,-0.128836,-0.199083,0.242627,-0.0801395,-0.0407831,-0.174103,-0.0654643,0.122006,0.24025,0.241677,0.305226,-0.00217932,0.0475955,0.233252,0.304659,
-0.026301,-0.028349,0.295209,-0.0394356,0.278658,-0.114522,0.262664,-0.0271862,0.0364725,0.289004,-0.21514,0.0908215,0.173253,0.0174342,-0.16468,-0.213999,0.106737,0.265872,0.0449615,0.1225,-0.0554459,-0.0250587,-0.216702,0.186544,-0.2632,-0.177246,-0.156566,0.0279825,0.234001,0.289676,-0.194027,-0.0540404,0.105891,0.00773122,-0.211084,0.260368,0.0457514,-0.028019,0.0865662,-0.17306,-0.127462,0.00292212,-0.155547,0.134288,0.302996,0.254373,0.00787653,0.0572818,0.0611515,-0.0550895,-0.0803135,-0.124535,-0.191757,-0.184889,-0.287901,0.170663,0.0107657,-0.270365,-0.143088,-0.00922693,0.0696942,0.203592,0.218421,0.247348,-0.26463,0.235481,-0.275818,-0.123216,0.30782,0.104563,-0.271484,-0.30806,0.177099,-0.0180504,0.282437,-0.27238,0.109421,0.293914,0.19433,0.0509292,0.159718,-0.19863,0.106126,0.0441082,-0.278672,0.254963,0.158649,-0.145251,-0.0977373,0.045018,-0.289354,-0.0327793,-0.163136,-0.169539,-0.165063,0.269451,-0.240601,-0.279936,-0.13171,-0.0884877,
0.132172,0.245344,-0.0806999,-0.179073,-0.121076,-0.057706,0.233036,-0.256791,0.0363394,-0.0238439,0.0554791,0.0809532,0.0976752,0.057036,0.134265,0.103307,0.273182,-0.236554,-0.138339,0.161665,-0.227077,-0.16453,-0.134777,0.00164315,-0.178064,-0.0115188,0.140619,0.218732,-0.00376289,0.257173,-0.0840669,0.0990285,-0.174954,-0.222007,0.0395575,-0.271559,-0.184126,-0.0136715,-0.142303,0.108557,-0.178699,-0.0507267,0.0852846,-0.289468,0.0387015,-0.12593,-0.0873955,-0.0525934,-0.221154,-0.262683,0.238474,0.0933837,0.232184,-0.229479,0.262795,0.0309522,0.0545612,-0.1494,-0.249353,-0.213907,0.0954924,0.0154179,0.10425,0.0629738,-0.203454,0.15292,-0.166726,0.169035,-0.301896,-0.0477739,-0.0203625,0.208832,-0.127134,-0.21857,-0.0554825,0.198206,0.16888,-0.0574229,-0.277797,-0.127789,0.155206,0.0641456,-0.0779013,0.207363,-0.181373,-0.234916,-0.276344,-0.0229788,-0.214834,0.0588044,-0.176813,0.118112,0.274891,-0.0990342,-0.0845079,0.0916846,0.0733012,0.261753,-0.276013,-0.0576498,
0.260369,-0.0466517,0.0108269,-0.0727187,-0.0283985,0.181452,0.122844,0.0943159,0.0735363,0.176484,-0.130297,0.0264715,-0.293873,0.0458404,0.0391776,-0.225429,-0.17953,0.121358,0.137411,-0.0393096,-0.0336226,-0.0902376,0.145229,0.1966,0.156344,-0.0509408,0.173437,-0.146171,0.204545,0.0428244,-0.189117,-0.279761,-0.216149,-0.299997,0.0164656,0.0805554,0.269878,0.0400441,-0.151535,-0.0701336,-0.190322,-0.0103372,-0.247993,0.147813,-0.204512,0.0699114,-0.0639327,0.215095,-0.239822,-0.0949613,0.0385514,0.116769,-0.117867,0.273195,-0.305299,-0.0011905,-0.205854,0.0941553,-0.00213636,-0.107581,-0.00989872,-0.117869,0.0635941,-0.13072,0.256603,0.0424613,-0.0416777,0.221533,-0.173418,-0.181964,-0.0567182,0.0782435,-0.241095,0.284937,0.248481,-0.102142,-0.0477157,0.0142891,-0.239702,-0.266327,0.011695,-0.0214134,-0.115675,-0.0433054,-0.0031169,-0.0288535,-0.257122,-0.225398,0.0618787,0.289269,-0.175373,0.0917667,-0.0378304,-0.252748,0.134616,0.296029,-0.244575,-0.0480996,0.286313,0.304632,
0.0216656,0.204648,-0.137389,0.128916,-0.217133,0.0274443,-0.104985,-0.279865,-0.19065,0.113842,0.121412,-0.156019,0.13014,-0.109945,-0.170153,-0.239912,-0.0759929,0.0686005,0.100625,-0.288891,0.191456,0.0728538,-0.0048742,-0.0832232,0.15532,-0.2629,0.208904,-0.108827,0.124476,-0.302223,-0.286223,-0.0508952,0.0412737,0.00146996,0.298402,-0.0573738,-0.0296528,-0.131869,0.159996,0.289281,0.0352754,0.0504764,0.252901,0.0868255,0.232378,0.092979,0.149359,0.223038,0.147042,-0.109785,0.170196,0.199127,-0.228884,0.0744777,-0.198358,-0.18766,0.151862,-0.245562,0.143414,0.249923,0.14175,0.0480865,0.131237,-0.290541,0.248234,-0.0201388,-0.265779,0.147381,-0.13902,0.144365,0.309163,-0.163443,0.0257758,-0.0692039,0.149101,-0.109114,-0.164254,-0.306227,-0.149736,0.0324054,-0.280166,0.285352,-0.0532396,-0.130873,-0.0786067,-0.100446,0.11745,-0.0086686,-0.147432,0.159527,-0.11856,0.244898,-0.292406,-0.0887829,0.183246,-0.150734,0.243863,-0.0901184,0.164319,0.0517728,
0.126535,0.209828,0.169836,-0.0190398,0.104952,0.286298,0.257998,0.133817,0.151275,0.0945103,0.162196,0.0393195,0.18788,0.184924,-0.278556,0.105465,-0.185027,0.119515,-0.166568,-0.204431,0.26914,0.297032,0.223848,-0.146126,0.0981033,-0.286838,-0.156586,0.23965,-0.0310379,0.276073,-0.186821,0.112504,-0.210984,0.233522,0.155473,-0.00645372,0.231273,0.226647,-0.0628716,0.162573,0.275137,0.237123,0.0906916,-0.183161,-0.16153,-0.220868,-0.200243,0.121014,-0.036095,-0.00998081,-0.267735,0.214753,0.14569,-0.113358,0.262383,-0.0224608,-0.0580973,0.0710873,-0.107369,-0.153245,0.213438,-0.0637842,-0.0212132,0.24238,0.123855,-0.158488,-0.286357,-0.0699734,-0.0485721,0.178115,0.0548518,-0.0440184,0.15568,-0.301262,0.275144,-0.261658,0.230255,0.0282567,-0.246904,0.308367,-0.244108,0.237297,0.264733,0.309303,0.146886,-0.0978442,-0.22333,0.0147016,0.164187,-0.231901,0.140019,-0.237407,-0.0470551,0.238458,0.177764,0.17428,0.298762,0.280409,-0.049373,0.300359,
0.130608,0.0334151,-0.135392,-0.187252,-0.112403,-0.0783138,0.0114967,0.139467,0.241592,0.18842,0.256809,0.265104,0.197426,0.214017,-0.0671322,-0.172588,0.00313359,0.297749,-0.142928,0.0748209,0.260773,0.0713497,0.202487,-0.110795,-0.0992562,0.233157,-0.196162,-0.113805,-0.25112,0.0851597,-0.154049,0.0799508,0.223827,0.106442,-0.145706,-0.249121,0.0556954,0.131512,0.284697,-0.156566,0.164767,-0.273487,-0.0994974,-0.158497,-0.157239,0.133793,-0.293406,-0.254438,0.109485,0.242859,0.110471,-0.0927796,0.00418745,-0.0110242,-0.130857,0.261812,0.147866,-0.191594,0.294109,0.277109,0.00763299,0.300173,0.129063,-0.104664,0.257574,0.259642,-0.206654,-0.0343531,-0.144587,-0.105768,0.0397822,0.133414,-0.0382172,-0.148173,-0.200121,0.0828069,0.231229,0.0418421,0.203361,-0.143667,0.0967246,0.305891,-0.114189,0.173307,-0.0730915,-0.0653285,-0.175109,-0.261205,-0.0975761,0.140646,-0.287632,0.0725048,0.0284156,0.0530689,0.181622,-0.134964,0.149256,-0.145355,0.292717,0.20266,
0.234911,-0.225579,-0.155775,-0.036497,-0.0160432,-0.313111,0.170058,0.219136,-0.0326865,0.0733208,0.0924891,0.0848537,0.299107,-0.0376165,0.136595,0.249881,0.0614903,-0.223265,0.0544409,-0.086291,0.100473,-0.233226,-0.148259,0.150658,-0.057916,-0.115369,0.0143908,-0.206042,-0.0580847,0.274549,-0.155229,0.198868,-0.172149,0.119089,0.025838,0.0613761,0.0963012,0.297084,0.123435,-0.20875,-0.0357754,0.17843,0.204624,-0.295802,0.259157,0.121689,-0.214735,-0.180226,0.0489828,-0.231444,-0.0924831,0.170893,-0.187567,-0.187711,0.25745,-0.0150956,0.245728,0.178466,-0.0345544,0.0208737,0.107976,0.217964,0.244138,-0.257038,-0.0889181,0.0885917,-0.0743877,0.0255142,0.233864,0.0347796,-0.0657112,-0.288554,0.0592288,-0.135552,-0.246413,0.079017,-0.23885,0.202182,-0.030349,0.0160019,0.0978583,0.0469404,0.309388,-0.0702066,-0.107961,-0.0834741,-0.121378,0.161611,0.0441613,0.0519987,-0.144823,0.0499352,-0.224297,0.264475,-0.186595,0.0637884,-0.0163406,0.0528781,0.212757,0.102157,
0.0281943,0.0332658,-0.182741,-0.195309,-0.299136,-0.228309,0.0694634,-0.289354,0.311248,0.111262,0.254318,-0.226405,0.229408,-0.138898,-0.157036,0.299646,-0.226346,0.140633,0.230013,0.279276,-0.110235,-0.0537209,-0.188139,-0.154644,0.0027485,-0.0970795,-0.239826,-0.0273174,-0.0405919,-0.286578,-0.134866,0.0983718,-0.0832454,0.04234,-0.0727015,-0.298362,-0.0447322,0.0449153,0.0525354,0.11251,-0.222862,-0.240565,0.0770915,0.0125636,0.0568154,-0.0104744,-0.11061,-0.215987,0.0426754,0.0875416,-0.00234309,-0.147323,-0.00874037,-0.0719692,0.116908,-0.144813,0.240208,-0.236045,-0.233977,0.0156271,0.245771,-0.0790537,-0.257876,-0.23744,0.290303,0.271391,0.170678,-0.144985,-0.205311,0.0267098,0.224605,-0.307129,0.0340599,0.0298354,-0.259039,0.26191,0.0291893,-0.0355783,-0.194267,-0.120953,0.161877,-0.246469,-0.0037201,-0.298588,-0.114201,0.159847,0.0495662,0.162622,-0.146749,-0.191194,0.295365,0.236758,-0.148039,-0.0639156,-0.0552529,-0.242316,-0.0318417,0.189907,0.118296,0.0863035,
0.149274,-0.161239,0.0499655,-0.0824135,0.00216688,0.228678,-0.259894,-0.0514818,0.279188,-0.200399,0.208344,0.279164,-0.278237,-0.182112,-0.0103335,-0.133564,-0.160962,-0.27131,-0.0449193,-0.230269,0.043925,-0.253012,-0.212389,0.0422119,-0.263394,-0.0493064,0.141287,0.29214,-0.0150329,-0.202075,-0.0618688,0.00511577,0.101863,0.3075,0.0983573,-0.195118,0.25217,-0.0247004,0.0361888,0.156694,0.275983,-0.292367,-0.0485511,-0.0846132,-0.286047,0.0423747,0.0136884,0.229854,-0.2201,-0.149905,0.0185555,-0.105389,0.0274389,0.0614606,0.118111,0.128221,-0.116764,0.271582,-0.0717134,0.0586455,-0.037503,-0.0200731,-0.147331,0.275681,-0.198208,-0.167169,-0.165178,0.147883,-0.258239,0.227905,0.134423,-0.263957,0.168308,0.232771,0.0534246,0.121609,-0.184111,0.0790797,0.204339,-0.0299858,0.151595,-0.00189502,-0.19655,0.0545342,-0.0383338,-0.245738,-0.070809,-0.271131,-0.0980752,0.168105,-0.163687,-0.202886,-0.204484,-0.301804,-0.157234,-0.237302,-0.0967049,0.281229,-0.282576,-0.0828565,
0.199051,0.2163,-0.2885,0.293622,-0.27941,-0.0951231,0.0402003,0.223676,-0.256891,-0.109656,-0.153311,-0.0633665,-0.121708,-0.17502,-0.184162,0.227647,0.274594,-0.0470069,0.216134,-0.300289,0.0628673,0.144366,0.243445,0.117746,-0.127562,-0.04201,0.219078,0.202896,0.116475,-0.261366,0.29865,-0.20928,0.300532,0.2306,-0.20083,-0.29759,0.208485,0.120621,0.0756861,0.068974,0.303977,-0.143224,0.118387,-0.00872933,-0.0810532,-0.242322,-0.0032255,-0.175187,0.165062,0.0578804,0.254143,-0.079653,-0.183396,0.182789,0.143018,-0.223103,0.0611264,-0.0885539,-0.103993,0.250973,0.0571122,0.272935,-0.268716,-0.258954,0.0349235,-0.159261,-0.228961,-0.285749,0.0710224,-0.168606,0.265242,-0.0398287,-0.0242138,0.0766222,0.273914,-0.261127,0.0979057,0.172619,-0.0405465,0.292806,0.195577,-0.220992,0.118084,-0.246611,-0.206373,-0.00877132,-0.136366,0.00847421,0.294195,0.178575,0.00379686,0.150416,0.116832,-0.272009,0.268157,-0.0808407,0.123866,0.15712,0.227337,0.132206,
0.075428,-0.100318,-0.157765,-0.0403396,-0.18772,0.104685,-0.225019,0.155546,0.136405,-0.00355318,-0.148046,-0.044592,0.134282,-0.219215,-0.233113,0.22185,0.167601,-0.0348483,-0.21742,-0.0281474,-0.202057,-0.266242,-0.233841,-0.124612,0.290384,0.236453,0.25164,-0.194297,-0.0102577,-0.169946,0.305134,-0.209998,-0.0518481,-0.181367,0.137876,0.200029,-0.0677563,-0.0848686,0.254965,-0.014618,-0.259348,-0.283086,0.181417,-0.128396,0.212447,0.219802,0.13163,-0.303344,0.222898,0.123452,0.301161,-0.245892,0.0909398,0.282718,-0.272103,-0.020116,-0.0417334,-0.258848,-0.178394,0.228473,-0.287481,-0.109361,-0.0124236,0.172647,-0.217818,-0.137378,0.00124469,0.217828,0.20367,-0.0299782,-0.0808127,0.114035,-0.292479,0.185801,-0.0540508,-0.266299,-0.0575338,0.156878,-0.271615,0.160502,0.161984,-0.310001,0.0634906,0.2275,-0.0474701,0.183365,-0.0386051,0.180108,-0.202009,0.186407,0.172834,-0.284928,0.177552,-0.0961589,0.0688728,0.13326,0.108058,0.120847,-0.25302,-0.164499,
0.0632558,-0.122249,-0.141449,-0.286878,0.13945,-0.194136,-0.25318,0.269989,-0.164146,-0.131442,-0.0463287,0.0474349,-0.0252295,-0.171675,-0.277179,0.104775,-0.021927,0.18308,0.202966,-0.227501,-0.238727,-0.24748,0.137317,-0.161354,0.104855,0.0581065,-0.222843,0.205755,0.114635,-0.23752,0.0597486,-0.280518,0.258785,-0.246164,-0.0395972,0.1706,-0.146281,-0.279508,-0.0750349,0.233261,-0.268158,0.0189158,0.198422,0.123285,0.130429,0.206573,0.14647,-0.200642,-0.298616,-0.115333,0.225348,0.302394,0.0871747,0.0527357,-0.179045,0.255101,-0.081805,-0.0763052,-0.247291,0.229453,-0.0435824,0.137127,-0.0404415,-0.293503,0.079748,-0.175233,0.209962,-0.22903,0.230195,-0.0330448,0.22845,-0.206401,0.0193887,-0.0994159,0.264312,0.116672,-0.0367423,-0.293304,0.00767805,-0.0199049,0.0440296,-0.217853,-0.120651,0.0467892,0.18537,-0.263526,-0.218801,0.100812,0.0637415,0.0661415,0.285504,-0.0597323,-0.292703,-0.205662,-0.0985016,0.116813,0.0900148,-0.273949,0.0741557,0.193814,
-0.129276,0.119998,-0.223603,-0.10017,0.0939263,0.0104543,0.180903,-0.0649758,0.315222,-0.220062,-0.170586,-0.0471104,-0.07373,0.126445,-0.0226858,-0.0795788,0.171705,0.0114702,0.0440683,0.0547154,-0.221767,0.0860961,-0.0447452,-0.0506158,0.169294,0.264292,-0.0292422,0.205147,0.12178,-0.0390003,0.24189,-0.213872,-0.0473187,0.0200567,-0.0884219,-0.0729808,-0.131801,-0.264133,-0.0515001,0.0736347,0.153115,0.08588,0.100977,-0.241359,0.132473,-0.206639,0.0973439,0.235866,-0.00265205,0.122614,-0.252004,0.120911,0.258993,0.0642277,-0.0888449,-0.283775,0.174787,0.144134,-0.0363138,-0.136833,0.175159,0.0220089,0.116838,-0.0975247,-0.0526985,-0.215047,0.0923123,-0.116613,-0.0710303,-0.0223071,0.231306,-0.300962,0.250462,0.0942634,0.180585,-0.0103359,-0.184075,-0.153648,0.162049,-0.0507924,-0.0648635,0.208523,-0.0928805,0.119383,0.0203904,0.259583,0.146511,0.0196738,-0.0125063,0.250312,0.00121171,-0.0993577,0.131535,0.201519,0.0222188,0.0779135,-0.0801533,0.0633508,-0.211382,0.117027,
